svm_type nu_svc
kernel_type linear
nr_class 3
total_sv 44
rho -0.277919 -0.748541 -0.419456
label 1 2 3
probA -3.96775 -3.71086 -3.80496
probB 0.119036 -0.236407 -0.258135
nr_sv 16 18 10
SV
9.058898763088529e-005 0 1:-0.40154231 2:-0.35026601 3:-0.37097919 4:-0.19154446 5:0.35110813 6:0.91971016 7:0.85170096 8:0.84777606 9:0.91256201 10:0.64265209 11:0.62724888 12:0.69152826 13:0.78350353 14:0.70622742 15:0.66736126 16:0.5096519 17:0.38202524 18:0.38494256 19:0.39318013 20:0.7052297 21:0.016689476 22:0.029925033 23:-0.054082405 24:0.015570988 25:0.3443422 26:0.8014918 27:0.6981433 28:0.72474003 29:0.81625605 30:0.64666229 31:0.62518686 32:0.78949887 33:0.9164688 34:1.0408835 35:1.0808014 36:1.0332874 37:0.90785176 38:0.98401326 39:0.91877031 40:1.3020821 41:0.15032144 42:0.091147445 43:0.037853338 44:0.040066294 45:0.30875167 46:0.72895032 47:0.74556988 48:0.82842392 49:1.0138502 50:0.60792148 51:0.63627636 52:0.72261989 53:0.77395749 54:0.77374327 55:0.86038154 56:0.82679456 57:0.79606396 58:0.74691391 59:0.61537582 60:0.91159171 61:0.011539342 62:-0.095529005 63:-0.17995772 64:-0.30615559 65:-0.40431964 66:-0.25157949 67:-0.3408522 68:-0.031560995 69:0.47066119 70:-0.015566854 71:-0.050100591 72:0.094686799 73:0.14320549 74:0.32887048 75:0.47150943 76:0.59455657 77:0.66107035 78:0.69069046 79:0.67167032 80:1.1178863 81:0.35290638 82:0.2748259 83:0.29995441 84:0.18624066 85:-0.23591274 86:-0.51915121 87:-0.45098516 88:-0.061162367 89:0.49370259 90:0.061939012 91:0.0047771651 92:0.037680265 93:0.11334047 94:0.27349204 95:0.48726177 96:0.61533731 97:0.7179206 98:0.81780058 99:0.837376 100:1.1243212 101:0.59749305 102:0.57835764 103:0.69592988 104:0.6527409 105:0.29026717 106:0.057334304 107:0.18884948 108:0.49690822 109:0.87189573 110:0.61258447 111:0.49834186 112:0.27934897 113:0.10920857 114:0.27511624 115:0.27519122 116:0.38840669 117:0.48344293 118:0.30091733 119:0.22754288 120:0.52794439 121:0.58654654 122:0.6328941 123:0.72925317 124:0.73505545 125:0.67092484 126:0.63266504 127:0.69448221 128:0.85667944 129:1.0835404 130:0.72670484 131:0.52094257 132:0.30601019 133:0.39447126 134:0.40540707 135:0.30993786 136:0.45936164 137:0.36853322 138:0.058555976 139:-0.16323173 140:0.09431421 141:0.69877207 142:0.93462515 143:0.99262381 144:1.0844787 145:1.1096607 146:1.1100124 147:1.0780553 148:1.0495734 149:1.049854 150:0.7526229 151:0.61845315 152:0.60033792 153:0.65777224 154:0.69504941 155:0.8367089 156:1.1729198 157:1.2242054 158:0.99921274 159:0.45574352 160:0.55255955 161:0.44101295 162:0.87654775 163:1.0562581 164:1.1676379 165:1.1770614 166:1.0917844 167:0.96042347 168:0.8835336 169:0.8219499 170:0.62617624 171:0.56350708 172:0.54334593 173:0.56941992 174:0.64237994 175:0.67106706 176:0.83921367 177:0.98402268 178:0.58168763 179:0.050061759 180:-0.11060621 181:-0.64201629 182:-0.1880064 183:0.0066433181 184:0.23575695 185:0.47796655 186:0.52430552 187:0.57586563 188:0.64175427 189:0.62743777 190:0.5071522 191:0.50701535 192:0.50520909 193:0.53398067 194:0.61445737 195:0.65614361 196:0.88957655 197:1.1092678 198:0.9202264 199:0.39083302 200:0.15620039 201:-0.93693149 202:-0.56245142 203:-0.39137638 204:-0.24010569 205:-0.06913805 206:-0.011210591 207:0.16785137 208:0.34543103 209:0.44135526 210:0.40616149 211:0.4622671 212:0.47960308 213:0.48424879 214:0.56294876 215:0.55932218 216:0.74047124 217:0.89323127 218:0.57990187 219:0.1477387 220:0.070447899 221:-1.0485705 222:-0.79378605 223:-0.62085766 224:-0.5200851 225:-0.4220306 226:-0.42123163 227:-0.2033326 228:0.062930495 229:0.26914653 230:0.30420208 231:0.43795046 232:0.45885256 233:0.44197884 234:0.5195353 235:0.47684333 236:0.5716278 237:0.48894539 238:0.15147826 239:-0.041772373 240:-0.051724687 241:-0.85948378 242:-0.77338654 243:-0.7257961 244:-0.65241528 245:-0.56443739 246:-0.57823932 247:-0.31639251 248:0.0020903589 249:0.23991786 250:0.30045405 251:0.4650926 252:0.45835963 253:0.36116946 254:0.42202538 255:0.11855677 256:0.004782028 257:-0.056475837 258:-0.20276366 259:-0.27680969 260:-0.21089129 261:-0.53928769 262:-0.68685246 263:-0.82543671 264:-0.81736326 265:-0.72015685 266:-0.68125498 267:-0.33139247 268:0.11222301 269:0.46512324 270:0.46253654 271:0.68676966 272:0.61513168 273:0.3405557 274:0.21894301 275:-0.56163484 276:-0.55471933 277:-0.48919097 278:-0.50155258 279:-0.56509113 280:-0.48556185 281:-0.25709319 282:-0.67852944 283:-1.0834252 284:-1.2112949 285:-1.0323987 286:-1.0000596 287:-0.53032106 288:0.19698782 289:0.67864782 290:0.64840895 291:0.97623122 292:0.65468252 293:-0.092153326 294:-0.37782615 295:-0.79006958 296:-0.72344762 297:-0.65485531 298:-0.67223942 299:-0.79109353 300:-0.68882149 301:-0.056671258 302:-0.25962526 303:-0.52369905 304:-0.66050452 305:-0.62964565 306:-0.69823289 307:-0.34646225 308:0.22883736 309:0.66761559 310:0.22892715 311:0.29436183 312:-0.40581083 313:-0.8488546 314:-0.72399211 315:-0.84209388 316:-0.76233482 317:-0.67391843 318:-0.62805319 319:-0.72712052 320:-0.60722589 321:-0.13584532 322:-0.1348635 323:-0.077886187 324:-0.05341332 325:-0.1003732 326:-0.05099063 327:0.16202596 328:0.47979411 329:0.73579723 330:0.099576376 331:0.086507335 332:-0.32926816 333:-0.59871131 334:-0.54789191 335:-0.65239155 336:-0.6726222 337:-0.62947184 338:-0.56320798 339:-0.67353237 340:-0.45878887 341:-0.11573781 342:-0.19097005 343:-0.20322792 344:-0.15547839 345:-0.18827578 346:-0.0062922672 347:0.10519382 348:0.35311672 349:0.45072296 350:-0.058411293 351:-0.15539251 352:-0.38144317 353:-0.44227302 354:-0.39467475 355:-0.35443139 356:-0.36063406 357:-0.30642584 358:-0.32283792 359:-0.50349462 360:-0.33530164 361:0.32513583 362:0.23811585 363:0.38549596 364:0.56536275 365:0.71380872 366:1.1401323 367:1.0398356 368:1.0628289 369:1.0156671 370:0.45982587 371:0.11178038 372:-0.056570478 373:-0.14348052 374:-0.1694198 375:-0.081765577 376:-0.07788942 377:-0.048179366 378:-0.11780392 379:-0.33758214 380:-0.30632198 381:0.6279698 382:0.67532635 383:0.90728348 384:1.2551678 385:1.4867246 386:1.8039606 387:1.7363068 388:1.6310939 389:1.5507851 390:1.0000582 391:0.52558333 392:0.27366444 393:0.17559791 394:0.018504083 395:0.11807339 396:0.14933236 397:0.14329141 398:0.084825881 399:-0.085686304 400:-0.14719538 
0 0.001403031881662902 1:-1.0790732 2:-0.95386434 3:-0.93782419 4:-0.91793597 5:-0.96048057 6:-0.97224551 7:-0.83920854 8:-0.55191946 9:-0.48421669 10:-0.14686331 11:-0.30545649 12:-0.53642732 13:-0.54485023 14:-0.69671607 15:-0.72461325 16:-0.59292436 17:-0.59059823 18:-0.44428462 19:-0.38700911 20:-0.24419536 21:-1.1067693 22:-1.0570868 23:-1.0931257 24:-1.1857811 25:-1.2710357 26:-1.312484 27:-1.2084028 28:-0.95455515 29:-0.86107421 30:-0.49564523 31:-0.59867138 32:-0.75997674 33:-0.81626046 34:-0.89437246 35:-0.90218824 36:-0.75196147 37:-0.6899913 38:-0.57090563 39:-0.41666269 40:-0.16522017 41:-0.85268009 42:-0.75697094 43:-0.77182055 44:-0.89799541 45:-1.0532174 46:-1.1396827 47:-0.84698433 48:-0.39228114 49:-0.29465079 50:0.24180323 51:0.049342532 52:-0.13717917 53:-0.28203806 54:-0.5368576 55:-0.70980173 56:-0.7084412 57:-0.75723141 58:-0.70918912 59:-0.70760447 60:-0.55686748 61:-0.80183494 62:-0.74561167 63:-0.65525985 64:-0.91056436 65:-1.1970154 66:-1.3089756 67:-0.89858532 68:-0.20397639 69:0.12136553 70:0.790079 71:0.38247493 72:0.094686799 73:-0.17158972 74:-0.48541933 75:-0.6359365 76:-0.67106533 77:-0.76351678 78:-0.72499388 79:-0.8156395 80:-0.66686785 81:-0.48466769 82:-0.22542287 83:0.039481059 84:-0.15875731 85:-0.54660094 86:-0.58168679 87:-0.076011948 88:0.54026431 89:0.87571484 90:1.5121146 91:1.1499634 92:0.85501516 93:0.64526582 94:0.48268896 95:0.35593027 96:0.3060964 97:0.24767575 98:0.17415211 99:0.020954577 100:0.088196971 101:-0.27243322 102:0.033042356 103:0.3762596 104:0.30481344 105:0.11806236 106:0.20314187 107:0.52614802 108:0.82323945 109:1.1119791 110:1.7527248 111:1.6363554 112:1.3509732 113:1.0267714 114:0.93113834 115:0.79950565 116:0.63167655 117:0.48344293 118:0.22827375 119:0.018863196 120:-0.066748485 121:-0.42723781 122:-0.17717698 123:-0.035961524 124:0.14001057 125:0.34675646 126:0.4430711 127:0.52856016 128:0.575827 129:0.48054105 130:0.66114587 131:0.52094257 132:0.21436264 133:0.18777707 134:0.29795435 135:0.52532506 136:0.77846253 137:0.951469 138:0.67865455 139:0.49415395 140:0.32552856 141:-0.33792949 142:-0.08363834 143:-0.0085472902 144:0.20673181 145:0.41429874 146:0.49855113 147:0.49777406 148:0.4346619 149:0.34847957 150:0.39509663 151:0.3453922 152:0.24912386 153:0.30478373 154:0.40528187 155:0.63175797 156:0.83377594 157:1.1256676 158:0.89986408 159:0.54827219 160:0.29852557 161:-0.77723587 162:-0.63107497 163:-0.58957452 164:-0.39641759 165:-0.24474593 166:-0.12947406 167:0.0065592309 168:0.097578429 169:0.12949328 170:0.30662751 171:0.30650342 172:0.34389085 173:0.34850416 174:0.39184019 175:0.40831506 176:0.49495938 177:0.58121955 178:0.34022701 179:0.050061759 180:-0.16866446 181:-1.0237644 182:-0.89959317 183:-0.86825669 184:-0.85093474 185:-0.86790794 186:-0.72990471 187:-0.42505905 188:-0.19779129 189:-0.022138558 190:0.23630376 191:0.28748235 192:0.41744754 193:0.45809278 194:0.48655081 195:0.60515249 196:0.65466911 197:0.78123719 198:0.69452125 199:0.29803959 200:0.014853248 201:-0.82730907 202:-0.67876625 203:-0.62368226 204:-0.8424117 205:-1.1617668 206:-1.1193513 207:-0.76578677 208:-0.45781618 209:-0.15391193 210:0.1743499 211:0.31762475 212:0.47960308 213:0.61407125 214:0.69178498 215:0.82922405 216:0.95251858 217:1.1391128 218:0.86346728 219:0.3262355 220:0.070447899 221:-0.73006338 222:-0.63670242 223:-0.60290676 224:-0.78806287 225:-1.1009015 226:-1.1079309 227:-0.79899418 228:-0.51907533 229:-0.21941251 230:0.1260294 231:0.28633052 232:0.52314204 233:0.67448759 234:0.81504297 235:1.0456944 236:1.2008451 237:1.1981231 238:0.61215961 239:0.20509683 240:-0.018910097 241:-0.70208216 242:-0.69062638 243:-0.65797001 244:-0.75975633 245:-0.9475894 246:-0.95403379 247:-0.71329576 248:-0.49788687 249:-0.26154751 250:0.085236132 251:0.23799917 252:0.47919735 253:0.68001974 254:0.88854116 255:1.3390752 256:1.1424145 257:0.72496825 258:0.24425456 259:-0.050876085 260:-0.22446898 261:-0.56926507 262:-0.56367826 263:-0.59648198 264:-0.64170361 265:-0.75889963 266:-0.7419222 267:-0.57094884 268:-0.44613162 269:-0.30045509 270:-0.012708956 271:0.13756952 272:0.47915274 273:0.78157401 274:1.0402268 275:1.0583212 276:0.46034071 277:0.20392384 278:-0.0023569546 279:-0.17075519 280:-0.32997811 281:-0.25709319 282:-0.2742275 283:-0.31569251 284:-0.13460071 285:0.032255359 286:0.088177815 287:0.063819751 288:-0.034839272 289:-0.14607356 290:-0.093168147 291:0.10254657 292:0.86652696 293:1.1009246 294:0.61497605 295:0.33486885 296:-0.03740292 297:-0.16605507 298:-0.16917709 299:-0.21033658 300:-0.30242363 301:0.20454744 302:0.29321343 303:0.31798553 304:0.50058985 305:0.81408876 306:0.89401233 307:0.66548252 308:0.40463662 309:-0.13706915 310:-0.36125299 311:-0.26587525 312:0.45544165 313:0.40195563 314:0.085184373 315:-0.075475395 316:-0.28777468 317:-0.38978508 318:-0.31954962 319:-0.31201643 320:-0.33986524 321:0.86416292 322:0.99975169 323:1.1470239 324:1.1769753 325:1.2554766 326:1.2355241 327:1.1961083 328:1.08152 329:0.43722731 330:0.019316658 331:-0.12439794 332:0.015586223 333:-0.12847763 334:-0.43099597 335:-0.45557329 336:-0.64408439 337:-0.73243511 338:-0.56320798 339:-0.50844699 340:-0.55487883 341:0.57835317 342:0.70053393 343:0.96585864 344:0.86377054 345:0.7246021 346:0.59427309 347:0.63415289 348:0.52987468 349:-0.064416945 350:-0.33020052 351:-0.4010565 352:-0.246843 353:-0.23622361 354:-0.47134843 355:-0.56979144 356:-0.69751507 357:-0.89298725 358:-0.64178365 359:-0.50349462 360:-0.46460098 361:0.069106348 362:0.1350178 363:0.38549596 364:0.049143229 365:-0.48617753 366:-0.67844796 367:-0.5915736 368:-0.56592155 369:-0.84072518 370:-1.0602704 371:-1.0079877 372:-0.85487515 373:-0.74332833 374:-0.77522361 375:-0.81269908 376:-0.80916327 377:-0.87268484 378:-0.47161564 379:-0.10362741 380:0.0035451131 381:-0.3138254 382:-0.23022491 383:-0.040145516 384:-0.3242195 385:-0.74419516 386:-0.82980174 387:-0.67723185 388:-0.59354711 389:-0.8652516 390:-1.0295606 391:-0.96993601 392:-0.83272922 393:-0.74156588 394:-0.68332553 395:-0.6688481 396:-0.5784632 397:-0.64681983 398:-0.21980977 399:0.12391125 400:0.1808321 
0.002706906548631818 0 1:-0.58974528 2:-0.68979007 3:-0.90003449 4:-1.0326294 5:-1.0762089 6:-1.1735173 7:-1.3594884 8:-1.2291914 9:-1.0894874 10:-0.83768928 11:-0.40909043 12:-0.80337417 13:-1.2355942 14:-1.0975571 15:-0.67821413 16:-0.46061519 17:-0.25229442 18:-0.16787556 19:0.029091818 20:0.1711781 21:-0.61112577 22:-0.62887001 23:-0.72443295 24:-0.83244222 25:-0.89536643 26:-0.98725694 27:-1.2084028 28:-1.0505149 29:-0.81174093 30:-0.44372216 31:0.09307459 32:-0.17224462 33:-0.44871181 34:-0.34853104 35:-0.099549606 36:0.026223924 37:0.02016118 38:-0.13358469 39:-0.19409052 40:-0.22901592 41:-0.82228613 42:-0.8512063 43:-0.87302977 44:-0.93551785 45:-1.0106559 46:-0.94298446 47:-1.131369 48:-0.88056314 49:-0.48157951 50:-0.063295282 51:0.57758301 52:0.20674047 53:-0.11530191 54:-0.22231339 55:-0.15263993 56:-0.21320385 57:-0.41744804 58:-0.81319648 59:-1.1677715 60:-1.3868661 61:-1.0428348 62:-1.1031572 63:-1.2036854 64:-1.2991129 65:-1.4084009 66:-1.3750628 67:-1.5359946 68:-1.2384688 69:-0.75187367 70:-0.25726059 71:0.310379 72:-0.03896229 73:-0.29750779 74:-0.36909223 75:-0.35907501 76:-0.40739411 77:-0.6108824 78:-0.88229215 79:-0.98089612 80:-1.1850222 81:-0.79488033 82:-0.75902158 83:-0.66751802 84:-0.54688007 85:-0.4430382 86:-0.018866776 87:-0.001017307 88:0.28251001 89:0.58920562 90:0.54533088 91:0.79759836 92:0.36461422 93:0.037351143 94:-0.21463412 95:-0.43205869 96:-0.55977809 97:-0.81037521 98:-1.1131448 99:-1.3203092 100:-1.4084269 101:-0.94160724 102:-0.85309494 103:-0.72482693 104:-0.58433449 105:-0.39855212 106:-0.13707578 107:-0.092232652 108:0.10531074 109:0.23167346 110:0.23253769 111:0.39488611 112:-0.25646317 113:-0.7064029 114:-0.94321054 115:-1.2103664 116:-1.3144822 117:-1.3285065 118:-1.5151724 119:-1.5810143 120:-1.5865192 121:-1.1875761 122:-1.0576891 123:-0.90552366 124:-0.80506074 125:-0.69778609 126:-0.54281735 127:-0.50845283 128:-0.36034793 129:-0.45136708 130:-0.45335698 131:-0.25914943 132:-0.97705549 133:-1.8791647 134:-2.1734581 135:-1.8439339 136:-1.4552438 137:-1.0888062 138:-0.56154263 139:-0.40975136 140:-0.29104304 141:-1.0428865 142:-0.86691791 143:-0.78723592 144:-0.6710152 145:-0.61218792 146:-0.56346053 147:-0.46936134 148:-0.3420684 149:-0.28609738 150:-0.17694539 151:-0.0056861904 152:-0.27769724 153:-0.60290092 154:-0.69583464 155:-0.73458159 156:-0.69237113 157:-0.45093614 158:-0.093622997 159:0.085628837 160:0.044491604 161:-1.0310377 162:-1.0687718 163:-1.212322 164:-1.1182894 165:-1.0076669 166:-0.92329204 167:-0.67477238 168:-0.41820467 169:-0.2628988 170:-0.081395932 171:0.14295565 172:0.11950385 173:0.15520288 174:0.10998294 175:-0.04211688 176:-0.095190875 177:-0.29152045 178:-0.46464172 179:-0.66684395 180:-0.80730522 181:-1.1192014 182:-1.2763156 183:-1.4631888 184:-1.3942807 185:-1.2901431 186:-1.2031916 187:-0.85098445 188:-0.56032234 189:-0.32059255 190:-0.085328773 191:0.1861594 192:0.24192441 193:0.40117687 194:0.42259753 195:0.29920566 196:0.2184125 197:-0.015408612 198:-0.32115176 199:-0.44430789 200:-0.58587217 201:-0.53498244 202:-0.79508114 203:-0.97214109 204:-1.0030266 205:-0.979662 206:-1.0154631 207:-0.79913098 208:-0.56806582 209:-0.34737378 210:-0.12990278 211:0.14405394 212:0.26966551 213:0.51670438 214:0.54454356 215:0.35689574 216:0.22549908 217:-0.13127556 218:-0.51385039 219:-0.5662486 220:-0.5441398 221:-0.23782516 222:-0.56938082 223:-0.81831753 224:-0.89840662 225:-0.92380476 226:-1.0202671 227:-0.85856038 228:-0.69815409 229:-0.48589927 230:-0.230316 231:0.058900569 232:0.26598409 233:0.638717 234:0.66728914 235:0.31431442 236:0.016435945 237:-0.49602365 238:-0.71229923 239:-0.65894538 240:-0.60957271 241:-0.51844698 242:-0.69062638 243:-0.82753515 244:-0.83642852 245:-0.81495988 246:-0.86384308 247:-0.69741964 248:-0.53121871 249:-0.38259089 250:-0.18378627 251:0.10552801 252:0.20830677 253:0.53285807 254:0.35982329 255:-0.47065902 256:-1.1783557 257:-1.0567243 258:-0.88393426 259:-0.64798635 260:-0.49602258 261:-0.86903876 262:-0.95783556 263:-1.0127634 264:-0.97350514 265:-0.91387093 266:-0.88347906 267:-0.70161593 268:-0.46939638 269:-0.32515118 270:-0.11831907 271:0.10866425 272:0.071215898 273:0.29645386 274:-0.42635143 275:-1.8464276 276:-1.7872922 277:-1.3018084 278:-1.0542334 279:-0.7549566 280:-0.52445781 281:-0.78321499 282:-0.78879362 283:-0.81638771 284:-0.75451553 285:-0.73296475 286:-0.75432855 287:-0.67885625 288:-0.614407 289:-0.59967035 290:-0.46395668 291:-0.22508518 292:-0.96945804 293:-1.3704511 294:-1.9001229 295:-1.9150079 296:-1.5810035 297:-1.1649078 298:-0.94979101 299:-0.69939506 300:-0.48846707 301:-0.49203575 302:-0.25962526 303:-0.018688299 304:0.027551411 305:-0.043128524 306:-0.16748449 307:-0.50624299 308:-0.88455808 309:-1.142925 310:-1.2043675 311:-0.73273945 312:-1.9560653 313:-1.9745839 314:-1.8478483 315:-1.575381 316:-1.2632594 317:-0.91433901 318:-0.74374205 319:-0.5646885 320:-0.42898545 321:-0.6543681 322:-0.35446644 323:-0.040767696 324:-0.05341332 325:-0.23158447 326:-0.39735997 327:-1.0444036 328:-1.8602509 329:-2.249902 330:-1.746397 331:-0.96801907 332:-1.6512101 333:-1.7742956 334:-1.5609897 335:-1.3412557 336:-1.0721519 337:-0.78391671 338:-0.65970653 339:-0.53203058 340:-0.3867214 341:-0.74372488 342:-0.53385621 343:-0.13016002 344:-0.11470843 345:-0.52459919 346:-0.82524502 347:-1.5992298 348:-2.2982526 349:-2.29669 350:-1.580431 351:-0.94151723 352:-1.2787777 353:-1.47252 354:-1.4297694 355:-1.2517649 356:-1.1017723 357:-0.8604005 358:-0.8331511 359:-0.72617966 360:-0.4969258 361:-0.82699686 362:-0.68976653 363:-0.21940465 364:-0.25198483 365:-0.63017589 366:-0.82590038 367:-1.430584 368:-1.7660534 369:-1.6657884 370:-1.1802779 371:-0.69908619 372:-0.85487515 373:-1.0057617 374:-1.0024 375:-0.8896395 376:-0.80916327 377:-0.63711184 378:-0.74680257 379:-0.64952177 380:-0.42252216 381:-1.0044752 382:-1.0064117 383:-0.81839079 384:-0.94862849 385:-1.273566 386:-1.3862303 387:-1.6858749 388:-1.8598812 389:-1.7840261 390:-1.4079641 391:-1.0047156 392:-0.90410948 393:-0.77825248 394:-0.56635392 395:-0.33751273 396:-0.15034817 397:0.011606212 398:-0.0022128737 399:-0.0018472831 400:-0.065188505 
0 0.001537216882411728 1:-0.58974528 2:-0.35026601 3:-0.18203086 4:-0.26800671 5:-0.42041463 6:-0.6502105 7:-0.66578192 8:-0.50676799 9:-0.48421669 10:-0.49227628 11:-0.35727346 12:-0.69659543 13:-1.1293259 14:-1.0975571 15:-0.86381072 16:-0.81343961 17:-0.67517418 18:-0.72069365 19:-0.6470722 20:-0.36287349 21:-0.41286832 22:-0.26653275 23:-0.15463498 24:-0.23176621 25:-0.36942944 26:-0.49941638 27:-0.61828136 28:-0.37879682 29:-0.31840852 30:-0.28795293 31:-0.066559099 32:-0.38596541 33:-0.65873963 34:-0.6958847 35:-0.57168996 36:-0.56885904 37:-0.46806866 38:-0.61949688 39:-0.63923484 40:-0.42040315 41:-0.48795226 42:-0.38002944 43:-0.33324718 44:-0.37268084 45:-0.49991748 46:-0.50041348 47:-0.56259966 48:-0.20917538 49:-0.10772208 50:-0.12431498 51:0.10803591 52:-0.30913898 53:-0.72666776 54:-0.90382582 55:-0.9630571 56:-1.0055835 57:-1.0484743 58:-1.2812296 59:-1.3403342 60:-1.259174 61:-0.31983536 62:-0.35556206 63:-0.43588963 64:-0.56518793 65:-0.87993711 66:-0.97853929 67:-1.2969662 68:-1.0660534 69:-1.0138454 70:-1.0629064 71:-0.77105975 72:-1.108155 73:-1.3678116 74:-1.2997092 75:-1.1342871 76:-0.93473661 77:-0.76351678 78:-0.67256111 79:-0.65038282 80:-0.55172241 81:0.38392764 82:0.34152573 83:0.37437534 84:0.27249014 85:-0.028787266 86:-0.081402332 87:-0.45098516 88:-0.57667094 89:-0.84334034 90:-1.1948799 91:-1.2285002 92:-1.5969895 93:-1.7863929 94:-1.5395479 95:-1.0887161 96:-0.62162632 97:-0.34013036 98:-0.0013883741 99:-0.095677055 100:-0.37230268 101:0.32982343 102:0.37386438 103:0.41177851 104:0.42078927 105:0.29026717 106:0.25174439 107:0.13263306 108:0.17057699 109:-0.16846548 110:-0.62256753 111:-0.84658319 112:-1.5424123 113:-1.9298201 114:-1.6929501 115:-1.1229806 116:-0.58467269 117:-0.27153596 118:-0.062300611 119:-0.18981647 120:-0.66144139 121:-0.10137855 122:0.10458687 123:0.31186333 124:0.4200317 125:0.41879389 126:0.40515229 127:0.4041186 128:0.52901822 129:0.5901773 130:0.4644689 131:0.59895176 132:0.12271509 133:-0.43230546 134:-0.34676191 135:0.094550692 136:0.6720956 137:0.56284517 138:0.76724011 139:0.49415395 140:-0.059828687 141:-0.089121118 142:0.30800146 143:0.58473927 144:0.66316026 145:0.61297357 146:0.49855113 147:0.56224978 148:0.66120821 149:0.64906865 150:0.64536506 151:0.81349671 152:0.60033792 153:0.40563759 154:0.40528187 155:0.63175797 156:0.91856188 157:0.92859215 158:0.99921274 159:0.54827219 160:0.044491604 161:-0.11735111 162:0.19568589 163:0.34454671 164:0.36555815 165:0.24074927 166:0.084246166 167:0.22458534 168:0.3923116 169:0.42955783 170:0.5120517 171:0.65696293 172:0.46855029 173:0.34850416 174:0.2665703 175:0.1455631 176:0.003167501 177:-0.29152045 178:-0.78658921 179:-0.81022513 180:-0.69118869 181:-0.54657924 182:-0.39729664 183:-0.37831268 184:-0.39814654 185:-0.41928312 186:-0.49326125 187:-0.21209636 188:0.031175682 189:0.17097872 190:0.32094389 191:0.52390254 192:0.39989522 193:0.34426096 194:0.23073769 195:0.1207367 196:-0.050053108 197:-0.29657772 198:-0.71613574 199:-0.62989473 200:-0.444525 201:-0.31573752 202:-0.41705781 203:-0.53075987 204:-0.60148931 205:-0.68829435 206:-0.77305734 207:-0.54904932 208:-0.31606668 209:-0.12414858 210:0.11639701 211:0.36101747 212:0.31465214 213:0.35442635 214:0.28687114 215:0.17696114 216:0.16491412 217:-0.0083347484 218:-0.230285 219:-0.26875389 220:-0.38480222 221:-0.26678035 222:-0.50205922 223:-0.65675944 224:-0.77229947 225:-0.87953055 226:-1.0348778 227:-0.85856038 228:-0.6683076 229:-0.41187516 230:-0.096686475 231:0.21052054 232:0.23383933 233:0.33466712 234:0.30845842 235:0.1788737 236:0.16448709 237:-0.023238512 238:-0.078862399 239:-0.22692427 240:-0.44549975 241:-0.6758486 242:-0.66993636 243:-0.7088396 244:-0.7444219 245:-0.81495988 246:-0.95403379 247:-0.79267645 248:-0.64788008 249:-0.4171747 250:-0.076177314 251:0.29477254 252:0.35417095 253:0.50833112 254:0.48422751 255:0.28690413 256:0.23230851 257:-0.056475837 258:-0.096330747 259:-0.21225724 260:-0.4145565 261:-1.2287672 262:-1.0317401 263:-0.92950708 264:-0.8954342 265:-0.97198516 266:-1.085703 267:-0.9411723 268:-0.79510325 269:-0.5227198 270:-0.091916539 271:0.42662221 272:0.51314747 273:1.046185 274:1.2162162 275:0.61143678 276:0.24282785 277:0.012719757 278:-0.10932744 279:-0.27299044 280:-0.48556185 281:-1.1069822 282:-0.82554835 283:-0.64948928 284:-0.59138006 285:-0.76623517 286:-0.96495515 287:-0.90165907 288:-0.92350984 289:-0.76461458 290:-0.41760811 291:0.21175714 292:0.16037887 293:0.76004517 294:0.35022879 295:-0.16510378 296:-0.15174371 297:-0.33607253 298:-0.44672871 299:-0.47014889 300:-0.53140014 301:-0.53557223 302:-0.2170992 303:0.14964862 304:0.2425689 305:0.092221573 306:-0.022734918 307:-0.34646225 308:-0.65015906 309:-0.94175386 310:-0.95143312 311:-0.35924807 312:-0.49193606 313:-0.035827957 314:-0.22949536 315:-0.40878779 316:-0.41959694 317:-0.63020563 318:-0.91727531 319:-0.79931253 320:-0.51810569 321:-0.2839947 322:-0.061662521 323:0.21906173 324:0.26410633 325:0.16204934 326:0.097453378 327:-0.29756624 328:-0.6567992 329:-1.0556223 330:-1.1043193 331:-0.61651027 332:-0.61664683 333:-0.26954776 334:-0.31410009 335:-0.42277023 336:-0.44431952 337:-0.6809535 338:-1.0939499 339:-0.95653588 340:-0.48281136 341:0.2147817 342:0.25478193 343:0.38131535 344:0.37453106 345:0.29218626 346:0.32128885 347:0.10519382 348:-0.17715712 349:-0.35060579 350:-0.38455838 351:-0.30279091 352:-0.47117662 353:-0.44227302 354:-0.43301159 355:-0.42621806 356:-0.39432216 357:-0.59970653 358:-1.0564132 359:-0.91705257 360:-0.43227613 361:0.35713953 362:0.30684787 363:0.42330223 364:0.43630788 365:0.37781256 366:0.45202088 367:0.29404852 368:0.20559184 369:0.066844396 370:-0.020204527 371:-0.0040577026 372:-0.170614 373:-0.29344249 374:-0.24514528 375:-0.15870595 376:-0.19335371 377:-0.32301453 378:-0.70749015 379:-0.68851423 380:-0.34505537 381:-0.031286832 382:-0.16554268 383:-0.14165577 384:-0.25075963 385:-0.40388536 386:-0.42175406 387:-0.42507109 388:-0.3881956 389:-0.38885 390:-0.37595454 391:-0.30912516 392:-0.33306757 393:-0.41138694 394:-0.21543911 395:0.035239551 396:0.19214386 397:0.23108155 398:0.084825881 399:-0.085686304 400:-0.1881988 
0.0112768497731109 0 1:0.95351934 2:1.1964548 3:1.4429247 4:1.4906253 5:1.3540877 6:1.2819995 7:1.2852675 8:1.2541393 9:1.4712734 10:1.9256146 11:2.5962937 12:3.2008286 13:3.3870769 14:3.361799 15:2.9409196 16:2.2296708 17:1.5238006 18:1.1220334 19:0.65324318 20:0.052499976 21:0.5123331 22:0.68872005 23:0.91792589 24:1.0049198 25:0.87027919 26:0.8014918 27:0.60735542 28:0.34090111 29:0.37225688 30:0.64666229 31:1.3169328 32:1.911533 33:2.3341563 34:2.579164 35:2.4500084 36:1.7199216 37:0.99662083 38:0.54669231 39:0.19541079 40:-0.29281166 41:-0.062436461 42:0.059735656 43:0.2065354 44:0.26520109 45:0.095943995 46:-0.0086679747 47:-0.33509189 48:-0.69745743 49:-0.66850823 50:-0.4294135 51:0.22542268 52:0.72261989 53:1.2741659 54:1.7173759 55:1.7214499 56:1.2229844 57:0.69898295 58:0.48689553 59:0.32777143 60:0.017747002 61:-0.41021028 62:-0.42057034 63:-0.43588963 64:-0.39249969 65:-0.66855156 66:-0.8463648 67:-1.1376138 68:-1.3246765 69:-1.1011693 70:-0.74064809 71:-0.26638836 72:0.29516044 73:0.64687783 74:0.91050607 75:1.0252324 76:0.9636963 77:0.96633905 78:1.0577197 79:1.1123548 80:0.9451682 81:-0.32956138 82:-0.35882255 83:-0.29541323 84:-0.24500681 85:-0.39125684 86:-0.26900899 87:-0.22600123 88:-0.23299856 89:0.016187256 90:0.061939012 91:0.2690509 92:0.44634771 93:0.41729781 94:0.27349204 95:0.29026452 96:0.67718548 97:1.0118237 98:1.1688815 99:1.1289551 100:1.0091963 101:-0.1051397 102:-0.13736866 103:-0.085486375 104:-0.081772603 105:-0.097193666 106:0.0087317824 107:0.076416634 108:0.23584323 109:0.63181239 110:0.61258447 111:0.60179764 112:0.60083628 113:-0.19664574 114:-0.66205823 115:-0.86082339 116:-0.58467269 117:-0.27153596 118:-0.062300611 119:-0.050696697 120:-0.066748485 121:0.69516629 122:0.73855555 123:0.6944707 124:0.73505545 125:0.70694357 126:0.78434014 127:0.81892377 128:0.99710572 129:1.4124491 130:1.5134127 131:1.5350621 132:1.6807234 133:0.60116541 134:-0.56166732 135:-1.1977724 136:-0.92340899 137:-0.5058704 138:-0.29578608 139:-0.24540494 140:-0.21397159 141:1.4451971 142:1.4437568 143:1.3263475 144:1.1898085 145:1.0434357 146:0.88473719 147:0.78791469 148:0.75829953 149:0.88286012 150:0.82412815 151:0.85250539 152:0.99545372 153:0.50649142 154:0.057560872 155:-0.32467973 156:-0.43801332 157:-0.45093614 158:-0.49101782 159:-0.28448585 160:-0.20954236 161:1.8115429 162:1.7519416 163:1.4565958 164:1.1275339 165:0.83027917 166:0.45062369 167:0.27909186 168:0.24494502 169:0.24490272 170:0.23815279 171:0.32986739 172:0.46855029 173:0.34850416 174:0.23525283 175:0.18309909 176:0.10152587 177:-0.022985065 178:0.17925327 179:0.40851462 180:0.52803451 181:1.1712874 182:0.98401886 183:0.70656335 184:0.41687223 185:0.24045928 186:0.027354315 187:-0.020429939 188:0.012095101 189:0.030529791 190:0.067023478 191:0.20304656 192:0.3472383 193:0.306317 194:0.35864425 195:0.40118796 196:0.3862035 197:0.35948351 198:0.75094754 199:0.94759363 200:0.93360972 201:0.48816061 202:0.36806756 203:0.23584953 204:0.1413548 205:0.1493877 206:0.075362898 207:0.067818724 208:0.10918185 209:0.17348501 210:0.18883812 211:0.25976783 212:0.40462539 213:0.38688198 214:0.43411255 215:0.44686303 216:0.31637651 217:0.19656661 218:0.45837381 219:0.56423128 220:0.48017302 221:-0.035138808 222:-0.0083676865 223:-0.046428937 224:-0.047183271 225:0.020711305 226:0.017087044 227:0.064715125 228:0.13754663 229:0.22473209 230:0.22996347 231:0.30149251 232:0.4267078 233:0.38832298 234:0.47731993 235:0.47684333 236:0.16448709 237:-0.1414348 238:0.093893096 239:0.24624169 240:0.24360661 241:0.11115935 242:0.116285 243:0.10507286 244:0.12964098 245:0.20186663 246:0.23347662 247:0.28690046 248:0.36874032 249:0.41283694 250:0.40806302 251:0.42724368 252:0.52087283 253:0.43475029 254:0.48422751 255:0.49733835 256:-0.086228564 257:-0.30653796 258:-0.053757586 259:0.11050506 260:0.11497303 261:0.50992006 262:0.44634971 263:0.44422159 264:0.47080752 265:0.55835634 266:0.65342361 267:0.71394438 268:0.78690147 269:0.86026043 270:0.72656184 271:0.71567494 272:0.78510535 273:0.64926851 274:0.74691117 275:0.44385514 276:-0.22845002 277:-0.34578791 278:-0.1806411 279:-0.039309867 280:-0.031775955 281:1.0784469 282:1.0856973 283:1.0528743 284:1.137856 285:1.296532 286:1.3870418 287:1.4006366 288:1.2788476 289:1.2559528 290:0.97284889 291:0.81241536 292:1.0077566 293:0.41916579 294:0.28404197 295:0.043218154 296:-0.2374993 297:-0.33607253 298:-0.22121802 299:-0.11863811 300:-0.14500228 301:1.2058858 302:1.2713126 303:1.3280071 304:1.3606598 305:1.4908392 306:1.6177602 307:1.5176466 308:1.3422328 309:1.3381861 310:0.81910729 311:0.29436183 312:0.024815414 313:-0.28599 314:-0.13958687 315:-0.075475395 316:-0.15595241 317:-0.17122096 318:-0.088171937 319:-0.041296348 320:-0.1259767 321:0.71601355 322:0.67034727 323:0.7016021 324:0.81976569 325:0.86184275 326:1.0375987 327:1.0237613 328:0.88094473 329:0.95972466 330:0.34035552 331:0.016205577 332:-0.041889511 333:-0.08145427 334:0.036587644 335:0.10207857 336:0.12643722 337:0.11701156 338:0.11228173 339:0.057560027 340:-0.12247398 341:-0.18184172 342:-0.36241311 343:-0.4589656 344:-0.44086808 345:-0.57264543 346:-0.49766394 347:-0.54131168 348:-0.64851165 349:-0.40784356 350:-0.54763192 351:-0.45018929 352:-0.246843 353:-0.23622361 354:-0.011306372 355:0.14807536 356:0.24575183 357:0.24754882 358:0.21936986 359:0.06912405 360:-0.23832715 361:-0.57096738 362:-0.75849855 363:-0.86211157 364:-0.85424095 365:-1.0621709 366:-0.8750512 367:-0.63818526 368:-0.56592155 369:-0.42819354 370:-0.42022985 371:-0.27434656 372:-0.1325995 373:-0.068499543 374:-0.017968854 375:0.11058535 376:0.23001537 377:0.2266558 378:0.078758143 379:-0.22060478 380:-0.61618906 381:-0.59636396 382:-0.6830005 383:-0.68304378 384:-0.50786918 385:-0.47950977 386:-0.2733731 387:-0.064841449 388:0.056732561 389:0.18963765 390:0.24325119 391:0.31690618 392:0.38073483 393:0.46909034 394:0.36941889 395:0.325158 396:0.36338988 397:0.23108155 398:-0.08925163 399:-0.46296191 400:-0.80325031 
0.001709602238389427 0 1:0.50183213 2:0.44195679 3:0.42260379 4:0.61130929 5:0.7754457 6:0.95996451 7:1.3286241 8:1.7508054 9:1.6109513 10:1.8269252 11:1.922673 12:1.7059263 13:1.4211134 14:1.1070684 15:0.76015955 16:0.37734273 17:0.086009406 18:-0.26001191 19:-0.49103433 20:-0.54089069 21:0.545376 22:0.49108157 23:0.38164544 24:0.47491148 25:0.60731071 26:0.8014918 27:1.1974767 28:1.780297 29:1.6549212 30:1.944739 31:2.0618901 32:1.8581028 33:1.704073 34:1.5371031 35:1.2696575 36:0.98751175 37:0.86346728 38:0.69246596 39:0.64055514 40:0.72792029 41:0.42386732 42:0.31103 43:0.17279899 44:0.26520109 45:0.43643627 46:0.77812487 47:1.48497 48:2.3543053 49:2.197732 50:2.3774929 51:2.2796912 52:1.9263387 53:1.6632168 54:1.4552557 55:1.164288 56:0.92584199 57:0.94168538 58:0.90292495 59:1.0180221 60:1.230822 61:0.011539342 62:-0.1930414 63:-0.36276624 64:-0.43567175 65:-0.40431964 66:-0.18549225 67:0.45590946 68:1.43397 69:1.2565764 70:1.5151602 71:1.3918178 72:0.96340585 73:0.7098369 74:0.79417896 75:0.80374324 76:0.91096205 77:0.91546094 78:0.95285422 79:1.1123548 80:1.3481772 81:-0.050370026 82:-0.19207296 83:-0.33262372 84:-0.46063057 85:-0.4430382 86:-0.26900899 87:-0.076011948 88:0.45434621 89:0.39819953 90:0.54533088 91:0.4452334 92:0.037680265 93:-0.11462753 94:0.34322435 95:0.88125622 96:1.2956673 97:1.1293849 98:0.99334103 99:1.0706393 100:1.1818836 101:0.26290604 102:0.30569997 103:0.26970282 104:0.18883763 105:0.29026717 106:0.25174439 107:0.24506591 108:0.23584323 109:0.15164568 110:0.23253769 111:0.084518768 112:-0.25646317 113:-0.29859716 114:0.27511624 115:0.88689137 116:1.1993062 117:0.70993662 118:0.37356094 119:0.29710275 120:0.39579043 121:0.80378604 122:0.9850989 123:1.1118605 124:1.0150766 125:0.9590745 126:0.70850259 127:0.48707962 128:0.20135702 129:0.041996058 130:0.0055559482 131:0.20890577 132:0.39765772 133:0.8078596 134:0.83521789 135:0.95609945 136:0.99119645 137:0.27137727 138:-0.38437158 139:-0.40975136 140:-0.44518593 141:1.4451971 142:1.7962327 143:1.9937948 144:1.7515665 145:1.5401229 146:1.1421945 147:0.72343898 148:0.33757061 149:0.21488442 150:0.25208613 151:0.3844009 152:0.64423966 153:1.1116146 154:1.1586775 155:1.1782938 156:1.2577057 157:0.63297892 158:-0.093622997 159:-0.28448585 160:-0.46357632 161:1.6085014 162:1.8978405 163:1.9458973 164:1.6488857 165:1.2464179 166:0.90859556 167:0.60613108 168:0.36775053 169:0.33723027 170:0.39792714 171:0.4700512 172:0.56827784 173:0.73510677 174:0.67369741 175:0.63353103 176:0.54413855 177:0.044148784 178:-0.62561548 179:-0.81022513 180:-0.92342168 181:0.69410229 182:0.64915448 183:0.56657934 184:0.41687223 185:0.24045928 186:0.21666907 187:0.21382903 188:0.18382034 189:0.22364707 190:0.38865599 191:0.47324106 192:0.47010449 193:0.60986853 194:0.52918631 195:0.42668352 196:0.35264531 197:0.12517594 198:-0.2082992 199:-0.35151446 200:-0.40918821 201:0.086211555 202:-0.0099557647 203:-0.089378715 204:-0.099567614 205:-0.16019045 206:-0.097784087 207:-0.032213937 208:0.014682181 209:0.099076614 210:0.27576748 211:0.36101747 212:0.3746343 213:0.5004766 214:0.39730218 215:0.37938756 216:0.34666899 217:0.27852717 218:0.053280395 219:-0.0010086567 220:-0.066127136 221:-0.26678035 222:-0.32253504 223:-0.38749599 224:-0.37821457 225:-0.4220306 226:-0.34817854 227:-0.26289877 228:-0.2056876 229:-0.086169131 230:0.11118167 231:0.21052054 232:0.24991171 233:0.37043771 234:0.28735071 235:0.28722629 236:0.31253827 237:0.13435654 238:0.007515349 239:0.04051736 240:-0.0025028035 241:-0.30857822 242:-0.38027588 243:-0.40362242 244:-0.39172986 245:-0.43180785 246:-0.36779445 247:-0.26876411 248:-0.21456644 249:-0.15779607 250:0.031431649 251:0.10552801 252:0.10411809 253:0.23853476 254:-0.01338936 255:-0.26022482 256:-0.31375504 257:-0.27528018 258:-0.18147707 259:-0.083152317 260:-0.061536811 261:-0.089627229 262:-0.19415584 263:-0.22182868 264:-0.21231334 265:-0.25524294 266:-0.15547253 267:-0.070058249 268:-0.05063042 269:-0.078190424 270:0.06649863 271:0.02194844 272:-0.20074199 273:-0.14456445 274:-0.89565647 275:-1.3436826 276:-0.95349288 277:-0.60869354 278:-0.4302389 279:-0.3022005 280:-0.23922093 281:0.107145 282:0.093319736 283:0.018104259 284:0.028534768 285:0.0655258 286:0.15838668 287:0.28662255 288:0.31290138 289:0.10134285 290:0.13857469 291:-0.1158746 292:-0.7576136 293:-0.94435185 294:-1.5691888 295:-1.3317065 296:-0.95212919 297:-0.65485531 298:-0.5334636 299:-0.42429966 300:-0.40260085 301:0.59637547 302:0.63342184 303:0.69674361 304:0.71560735 305:0.85920548 306:1.0387619 307:1.1980851 308:1.283633 309:0.80172968 310:0.65048438 311:0.014243291 312:-1.0086875 313:-0.91139513 314:-0.90380907 315:-0.74210012 316:-0.52505475 317:-0.38978508 318:-0.3388311 319:-0.27592042 320:-0.30421713 321:0.60490155 322:0.70694774 323:0.85007602 324:1.0182155 325:1.4304249 326:1.7798188 327:2.1727417 328:2.6192639 329:2.0047195 330:1.86529 331:0.93012846 332:0.073061958 333:-0.175501 334:-0.23616947 335:-0.16034582 336:-0.01625197 337:0.03978914 338:-0.032466065 339:-0.0603581 340:-0.14649647 341:0.57835317 342:0.59766811 343:0.63705301 344:0.65992075 345:1.0128793 346:1.1948385 347:1.4569781 348:1.6493417 349:1.194814 350:1.0287457 351:0.679865 352:0.29155773 353:0.13466531 354:0.065367304 355:0.0045020026 356:0.043623205 357:0.084615096 358:-0.099575892 359:-0.153561 360:-0.23832715 361:1.0292169 362:1.1659982 363:1.2928469 364:1.2106372 365:1.4338005 366:1.4841881 367:1.5059525 368:1.5343093 369:1.1806798 370:1.139869 371:0.99987227 372:0.70371968 373:0.53134829 374:0.32279578 375:0.033644978 376:-0.19335371 377:-0.20522803 378:-0.43230322 379:-0.49355197 380:-0.53872228 381:1.6325513 382:1.7425832 383:1.7193655 384:1.5490074 385:1.4867246 386:1.3588176 387:1.3040313 388:1.2546161 389:1.1424409 390:1.1720598 391:1.1168351 392:0.95177674 393:0.83595586 394:0.7203337 395:0.44940874 396:0.19214386 397:0.055501278 398:-0.26332915 399:-0.37912288 400:-0.47522286 
0 3.82329131003646e-005 1:-0.3639017 2:-0.048466843 3:0.3092348 4:0.95538944 5:1.5855446 6:1.8858151 7:1.8922607 8:2.1120172 9:1.6575106 10:1.1854439 11:0.9381507 12:0.798307 13:0.46469864 14:0.20517614 15:0.11057145 16:-0.019584708 17:-0.16771846 18:-0.39821643 19:-0.75109744 20:-0.77824694 21:-0.64416867 22:-0.365352 23:-0.15463498 24:0.26290819 25:0.75757843 26:1.0454121 27:1.0612949 28:1.396458 29:1.013589 30:0.69858539 31:0.51876444 32:0.4689177 33:0.33889237 34:0.2965543 35:0.32537675 36:0.25510198 37:0.15331477 38:-0.036402263 39:-0.36101964 40:-0.29281166 41:-0.15361843 42:0.091147445 43:0.24027181 44:0.34024602 45:0.60668242 46:0.77812487 47:0.85932374 48:1.3167059 49:0.88923109 50:0.48588204 51:0.34280947 52:0.37870029 53:0.27374908 54:0.30192694 55:0.45517296 56:0.48012841 57:0.45628059 58:0.48689553 59:0.27025056 60:0.5285154 61:0.28266412 62:0.58705783 63:0.8803317 64:0.81631786 65:0.86399353 66:1.1362529 67:1.6510519 68:2.4684625 69:1.78052 70:1.0317727 71:0.67085856 72:0.36198497 73:0.26912358 74:0.1543798 75:0.25002027 76:0.33088535 77:0.30492359 78:0.27122846 79:0.17590038 80:0.36944103 81:0.073715024 82:0.30817583 83:0.4860068 84:0.40186441 85:0.43724504 86:0.66902435 87:1.0489076 88:1.8290358 89:1.3532301 90:0.54533088 91:0.09286841 92:-0.28925368 93:-0.41858488 94:-0.49356335 95:-0.30072719 96:-0.064992681 97:0.071333915 98:0.11563861 99:0.13758621 100:0.49113417 101:0.49711695 102:0.74876863 103:0.94456232 104:0.88469255 105:0.97908646 106:1.1751924 107:1.4256109 108:1.9980319 109:1.7522014 110:1.1826546 111:0.60179764 112:0.065024123 113:-0.19664574 114:-0.28718844 115:0.013033991 116:0.30731675 117:0.40794504 118:0.44620451 119:0.50578243 120:0.79225236 121:0.51413339 122:0.70333505 123:0.83360064 124:0.84006339 125:0.8870371 126:0.97393411 127:1.1092874 128:1.4183844 129:1.2479948 130:0.92338181 131:0.75497013 132:0.48930529 133:0.29112417 134:0.19050165 135:0.30993786 136:0.5657286 137:0.46568921 138:0.235727 139:0.16546111 140:0.2484571 141:0.076751128 142:0.2296735 143:0.32517639 144:0.45250097 145:0.54674864 146:0.59509766 147:0.65896332 148:0.79066324 149:0.64906865 150:0.5023545 151:0.46241832 152:0.42473087 153:0.50649142 154:0.69504941 155:0.8367089 156:1.0881338 157:1.2242054 158:0.89986408 159:0.45574352 160:0.38320357 161:-0.37115294 162:-0.29064402 163:-0.18923686 164:0.084830247 165:0.13671459 166:0.23690346 167:0.38810495 168:0.51511711 169:0.40647593 170:0.37510222 171:0.44668722 172:0.46855029 173:0.62464887 174:0.76764983 175:0.85874701 176:1.183468 177:1.3868258 178:1.2255826 179:0.76696748 180:0.64415103 181:-0.68973476 182:-0.64844489 183:-0.55329269 184:-0.42833242 185:-0.47206253 186:-0.25661781 187:0.064755142 188:0.31738439 189:0.32898378 190:0.38865599 191:0.52390254 192:0.54031372 193:0.64781249 194:0.69972837 195:0.70713478 196:0.8560183 197:0.96868324 198:0.86380011 199:0.39083302 200:0.40355793 201:-1.0830948 202:-0.96955347 203:-0.87921876 204:-0.80225796 205:-0.81576771 206:-0.63453972 207:-0.24895136 208:0.061932016 209:0.1883667 210:0.33372036 211:0.52012402 212:0.53958523 213:0.63029903 214:0.71019012 215:0.69427311 216:0.86164117 217:0.97519177 218:0.7014299 219:0.35598499 220:0.34359798 221:-0.96170491 222:-0.86110765 223:-0.80036664 224:-0.72500926 225:-0.77622414 226:-0.65500158 227:-0.39692262 228:-0.17584114 229:-0.01214503 230:0.17057256 231:0.40762648 232:0.4267078 233:0.56717587 234:0.70950454 235:0.63937217 236:0.79370451 237:0.76473671 238:0.4394041 239:0.18452439 240:0.14516285 241:-0.88571739 242:-0.83545667 243:-0.82753515 244:-0.8210941 245:-0.90337956 246:-0.86384308 247:-0.68154353 248:-0.51455277 249:-0.34800705 250:-0.094112135 251:0.21907473 252:0.24998225 253:0.48380417 254:0.70193487 255:0.58151203 256:0.59635091 257:0.31861731 258:0.15910824 259:0.029814487 260:-0.034381453 261:-0.83906138 262:-0.81002659 263:-0.76299453 264:-0.75881004 265:-0.83638531 266:-0.80258942 267:-0.63628238 268:-0.49266115 269:-0.34984726 270:-0.091916539 271:0.33990639 272:0.27518433 273:0.56106484 274:0.8055743 275:0.16455236 276:0.097819276 277:0.012719757 278:-0.038013782 279:-0.12694009 280:-0.14846376 281:-1.0260404 282:-1.0093219 283:-0.94990641 284:-0.85239685 285:-0.76623517 286:-0.64901525 287:-0.41891965 288:-0.22802852 289:-0.063601427 290:0.32396898 291:1.0308365 292:0.79591215 293:1.0157048 294:0.87972331 295:0.084882542 296:-0.008817723 297:-0.059794147 298:-0.13448314 299:-0.2561858 300:-0.25949055 301:-0.84032732 302:-0.76993787 303:-0.69203597 304:-0.61750102 305:-0.5394122 306:-0.50523347 307:-0.29320201 308:-0.064161442 309:0.064102031 310:0.4818615 311:1.4148359 312:0.71381742 313:0.46449614 314:0.30995563 315:-0.042144161 316:-0.1032235 317:-0.12750813 318:-0.22314225 319:-0.38420844 320:-0.39333737 321:-0.13584532 322:0.04813895 323:0.14482474 324:0.025966592 325:-0.056636114 326:-0.05099063 327:-0.067770138 328:0.14550197 329:0.064014904 330:0.2600958 331:0.64892143 332:0.073061958 333:0.01259247 334:-0.080308266 335:-0.29155803 336:-0.30163035 337:-0.29484135 338:-0.39433557 339:-0.62636513 340:-0.62694633 341:0.18172975 342:0.52909088 343:0.81972277 344:0.53761089 345:0.48437107 346:0.53967625 347:0.57537967 348:0.70663261 349:0.56519848 350:0.48516718 351:0.679865 352:0.24669102 353:0.052245546 354:-0.049643211 355:-0.21085803 356:-0.36063406 357:-0.40418607 358:-0.54609996 359:-0.88524038 360:-0.82017416 361:0.16511741 362:0.58177596 363:0.99039656 364:0.65139937 365:0.52181089 366:0.50117171 367:0.43388358 368:0.50562483 369:0.35561654 370:0.29981574 371:0.34345654 372:0.20953108 373:0.081462413 374:0.057756618 375:-0.0048252093 376:-0.07788942 377:-0.12670369 378:-0.23574117 379:-0.49355197 380:-0.46125552 381:0.65936297 382:1.1927842 383:1.7193655 384:1.4755476 385:1.373288 386:1.2104367 387:0.97982454 388:0.87813842 389:0.63201058 390:0.41525277 391:0.28212667 392:0.13090397 393:-0.044521406 394:-0.13745806 395:-0.089011207 396:-0.15034817 397:-0.12007899 398:-0.132771 399:-0.21144484 400:-0.14719538 
0 0.001165733648402157 1:0.012504318 2:0.44195679 3:0.8382901 4:1.3759319 5:1.9327298 6:1.9663239 7:1.5454074 8:1.2992908 9:0.77288413 10:0.44527322 11:0.1608962 12:-0.21609107 13:-0.65111852 14:-0.89713657 15:-0.77101243 16:-0.81343961 17:-0.71746218 18:-0.62855732 19:-0.6470722 20:-0.65956879 21:-0.082439244 22:0.22756355 23:0.44868052 24:0.82825035 25:1.3210824 26:1.3299857 27:0.97050703 28:0.77271986 29:0.27359039 30:0.023585478 31:-0.17298156 32:-0.43939561 33:-0.71124655 34:-0.84475052 35:-0.71333212 36:-0.75196147 37:-0.64560676 38:-0.57090563 39:-0.58359182 40:-0.67558616 41:-0.092830449 42:0.091147445 43:0.17279899 44:0.41529095 45:0.86205161 46:0.82729942 47:0.29055437 48:0.09600088 49:-0.41926995 50:-0.67349231 51:-0.6549781 52:-0.82501841 53:-0.89340389 54:-0.79897779 55:-0.60849959 56:-0.55986995 57:-0.46598852 58:-0.29315966 59:-0.36247915 60:-0.3653293 61:0.403164 62:0.55455369 63:0.69752318 64:0.72997373 65:1.075379 66:1.0701656 67:0.37623328 68:-0.031560995 69:-0.5772258 70:-0.90177727 71:-0.69896382 72:-0.64038318 73:-0.549344 74:-0.25276512 75:-0.082213528 76:0.067214116 77:0.15228926 78:0.11393019 79:0.06572929 80:0.08157745 81:0.94231039 82:1.1085739 83:1.2302164 84:1.3506088 85:1.7835606 86:1.8571999 87:1.3488863 88:0.8839367 89:0.39819953 90:-0.13141774 91:-0.17140533 92:-0.2075202 93:-0.038638193 94:0.064295113 95:0.093267284 96:0.18240003 97:0.012553305 98:-0.11841536 99:-0.32894033 100:-0.37230268 101:0.9655388 102:1.0555085 103:1.122157 104:1.3485957 105:1.8401105 106:1.9042301 107:1.5380437 108:1.214837 109:0.79186797 110:0.32754937 111:-0.018937003 112:-0.57795042 113:-0.80835432 114:-0.94321054 115:-1.0355948 116:-0.99012244 117:-0.95101696 118:-1.0793109 119:-1.0940951 120:-0.92574936 121:1.5279177 122:1.5486267 123:1.6335979 124:1.9251453 125:2.3277855 126:2.4148479 127:2.0218589 128:1.7460456 129:1.4672673 130:1.1856178 131:0.91098857 132:0.39765772 133:-0.1222642 134:-0.56166732 135:-0.76699805 136:-0.92340899 137:-0.89449424 138:-0.91588467 139:-0.82061738 140:-0.52225739 141:1.3207929 142:1.326265 143:1.3634279 144:1.6462369 145:1.8381351 146:1.785838 147:1.5938609 148:1.4055748 149:1.1166517 150:1.038644 151:1.0085403 152:0.64423966 153:0.35521066 154:0.057560872 155:-0.1197288 156:-0.43801332 157:-0.64801162 158:-0.49101782 159:-0.28448585 160:-0.29422036 161:0.39025256 162:0.34158486 163:0.34454671 164:0.84680599 165:1.0383486 166:1.0612528 167:1.01493 168:1.0063391 169:0.8450318 170:0.83160037 171:0.9139666 172:0.66800541 173:0.48657653 174:0.36052272 175:0.33324307 176:0.24906343 177:0.58121955 178:1.2255826 179:1.4838732 180:1.2247336 181:-0.35570514 182:-0.52287078 183:-0.55329269 184:-0.12647362 185:0.10851079 186:0.31132644 187:0.49068052 188:0.64175427 189:0.60988164 190:0.60872036 191:0.70966125 192:0.55786604 193:0.47706473 194:0.42259753 195:0.45217907 196:0.58755273 197:0.96868324 198:1.4280629 199:1.3187673 200:0.93360972 201:-0.57152325 202:-0.82415986 203:-0.85598814 204:-0.56133556 205:-0.41513714 206:-0.18435758 207:0.10116294 208:0.34543103 209:0.38182852 210:0.42064971 211:0.53458828 212:0.43461645 213:0.41933757 214:0.43411255 215:0.51433849 216:0.80105621 217:1.1391128 218:1.0255046 219:0.6534797 220:0.38912299 221:-0.70110822 222:-0.90598869 223:-0.96192473 224:-0.72500926 225:-0.62864351 226:-0.42123163 227:-0.11398336 228:0.19723953 229:0.28395137 230:0.34874526 231:0.49859846 232:0.39456308 233:0.38832298 234:0.43510455 235:0.53101963 236:0.94175565 237:0.96173054 238:0.55457443 239:0.26681411 240:0.12875555 241:-0.72831577 242:-0.89752674 243:-0.9292742 244:-0.7444219 245:-0.69706696 246:-0.533144 247:-0.17350733 248:0.16874944 249:0.29179358 250:0.44393265 251:0.67326158 252:0.50003511 253:0.45927724 254:0.48422751 255:0.37107781 256:0.50534028 257:0.25610179 258:0.095248491 259:-0.034737971 260:-0.075114489 261:-0.77910662 262:-0.98247039 263:-1.0335774 264:-0.91495192 265:-0.93324238 266:-0.76214463 267:-0.35317031 268:0.088958234 269:0.29225072 270:0.54174417 271:0.94691706 272:0.68312114 273:0.64926851 274:0.57092178 275:-0.11475041 276:-0.15594573 277:-0.17848432 278:-0.23412634 279:-0.33141059 280:-0.31701282 281:-0.25709319 282:-0.53151053 283:-0.71624869 284:-0.65663427 285:-0.69969434 286:-0.50859755 287:-0.084715448 288:0.35153922 289:0.51370353 290:0.69475752 291:1.2492577 292:0.51345289 293:-0.0069334754 294:-0.44401297 295:-0.79006958 296:-0.63769203 297:-0.50609004 298:-0.46407568 299:-0.51599813 300:-0.47415602 301:0.20454744 302:-0.0044689472 303:-0.18702522 304:-0.14446257 305:-0.088245228 306:0.073764794 307:0.34592101 308:0.81483495 309:0.80172968 310:1.2406645 311:1.975073 312:0.45544165 313:-0.28599 314:-0.54417509 315:-0.77543139 316:-0.78869927 317:-0.71763128 318:-0.66661614 319:-0.78126454 320:-0.71417016 321:0.30860281 322:0.1945409 323:0.10770626 324:0.06565655 325:0.16204934 326:0.24589738 327:0.27692398 328:0.47979411 329:0.21329987 330:0.34035552 331:0.57861966 332:-0.21431671 333:-0.45764121 334:-0.54789191 335:-0.75080073 336:-0.81531137 337:-0.73243511 338:-0.68383116 339:-0.7914505 340:-0.72303629 341:0.5453012 342:0.6319567 343:0.71012092 344:0.65992075 345:1.0609255 346:1.1402416 347:0.81047255 348:0.58879399 349:0.2217719 350:0.050304398 351:0.13940427 352:-0.246843 353:-0.40106314 354:-0.47134843 355:-0.64157808 356:-0.79857939 357:-0.63229328 358:-0.54609996 359:-0.63074321 360:-0.46460098 361:0.70918006 362:0.95980209 363:1.2550405 364:1.2536554 365:1.6257982 366:1.5333389 367:0.99322385 368:0.63421041 369:0.39686969 370:0.25981322 371:0.18900576 372:0.019458538 373:-0.068499543 374:-0.1694198 375:-0.35105687 376:-0.57823473 377:-0.51932538 378:-0.35367841 379:-0.41556704 380:-0.22885521 381:0.75354248 382:1.0634197 383:1.3471613 384:1.0715182 385:0.995166 386:0.76529372 387:0.47550303 388:0.22785878 389:0.087551586 390:0.036849272 391:0.073449552 392:0.059523743 393:-0.0078348536 394:-0.059476983 395:-0.17184505 396:-0.4072172 397:-0.38344941 398:-0.26332915 399:-0.25336435 400:-0.10619194 
0.0001403368032868324 4.145320438700927e-005 1:-0.025136285 2:-0.048466843 3:0.0069174762 4:-0.038619939 5:0.15822744 6:0.47691202 7:0.67827433 8:0.89292753 9:1.1919178 10:0.88937563 11:0.78269982 12:0.53136015 13:0.092759572 14:-0.2958751 15:-0.53901666 16:-0.81343961 17:-0.71746218 18:-0.62855732 19:-0.43902174 20:0.052499976 21:-0.01635343 22:-0.068894222 23:-0.054082405 24:-0.12576455 25:0.04380678 26:0.35430461 27:0.56196141 28:0.77271986 29:1.210922 30:0.80243152 31:0.67839807 32:0.25519693 33:-0.23868403 34:-0.64626276 35:-0.85497421 36:-1.2097176 37:-0.95629847 38:-0.86245292 39:-0.5279488 40:0.089962825 41:0.39347333 42:0.3424418 43:0.34148106 44:0.34024602 45:0.26619014 46:0.23720478 47:0.23367745 48:0.21807139 49:0.39075449 50:0.11976383 51:0.10803591 52:0.034780651 53:-0.0041444879 54:-0.065041289 55:-0.15263993 56:-0.21320385 57:-0.17474565 58:-0.18915232 59:-0.13239563 60:0.27313119 61:0.5537889 62:0.52204955 63:0.51471466 64:0.64362961 65:0.44122246 66:0.27711853 67:-0.022147533 68:-0.29018411 69:-0.40257797 70:-0.49895436 71:-0.33848426 72:-0.23943593 73:-0.045671631 74:0.1543798 75:0.083903357 76:0.11994836 77:-0.0003450824 78:-0.095800824 79:-0.1546129 80:-0.091140695 81:0.38392764 82:0.30817583 83:0.26274392 84:0.40186441 85:0.1783382 86:-0.018866776 87:-0.37599051 88:-0.92034334 89:-1.1298496 90:-1.0015231 91:-0.61186159 92:-0.45272067 93:-0.19061686 94:-0.0054371962 95:-0.038064212 96:-0.0031445026 97:0.071333915 98:0.23266561 99:0.19590202 100:0.030634511 101:0.69786918 102:0.57835764 103:0.66041094 104:0.80737531 105:0.67772806 106:0.59196204 107:0.41371518 108:-0.025221756 109:-0.40854883 110:-0.43254414 111:0.084518768 112:0.27934897 113:0.51701432 114:0.55626857 115:0.36257693 116:0.30731675 117:0.40794504 118:0.5914917 119:0.43622255 120:0.065405488 121:0.47792682 122:0.45679167 123:0.48577577 124:0.59504491 125:0.59888744 126:0.63266504 127:0.65300173 128:0.62263572 129:0.64499545 130:0.4644689 131:0.52094257 132:0.30601019 133:-0.22561128 134:-0.56166732 135:-0.98238522 136:-1.1361428 137:-0.89449424 138:-0.73871362 139:-0.57409775 140:-0.67640024 141:0.28409144 142:0.38632941 143:0.51057845 144:0.52272069 145:0.67919856 146:0.72382635 147:0.85239041 148:0.9524821 149:1.0832529 150:0.78837556 151:0.65746182 152:0.38082913 153:-0.048204742 154:-0.34811363 155:-0.59794766 156:-0.86194307 157:-0.84508705 158:-0.59036654 159:-0.28448585 160:-0.040186383 161:0.39025256 162:0.53611684 163:0.56695652 164:0.36555815 165:0.58753157 166:0.63381243 167:0.74239737 168:0.9080947 169:1.0527688 170:0.76312566 171:0.61023498 172:0.44361842 173:0.21043181 174:0.078665465 175:0.1080271 176:0.19988425 177:0.044148784 178:-0.14269423 179:-0.093319386 180:0.12162679 181:-0.16483107 182:-0.10429031 183:-0.23832868 184:-0.39814654 185:-0.076217078 186:0.12201169 187:0.36290291 188:0.69899601 189:0.92589176 190:0.71028852 191:0.57456398 192:0.45255217 193:0.32528898 194:0.29469097 195:0.40118796 196:0.72178555 197:0.78123719 198:0.58166873 199:0.53002316 200:0.61557865 201:-0.42535999 202:-0.44613653 203:-0.48429874 204:-0.54125869 205:-0.34229523 206:-0.20167227 207:0.051146612 208:0.43993071 209:0.72410715 210:0.56553191 211:0.47673133 212:0.40462539 213:0.38688198 214:0.43411255 215:0.62679762 216:1.0736885 217:1.0161721 218:0.45837381 219:0.2369871 220:0.25254795 221:-0.64319783 222:-0.63670242 223:-0.60290676 224:-0.63042891 225:-0.49582091 226:-0.43584228 227:-0.23311567 228:0.19723953 229:0.52082849 230:0.42298388 231:0.3773025 232:0.37849069 233:0.44197884 234:0.58285838 235:0.88316554 236:1.6079859 237:1.0405281 238:0.15147826 239:-0.062344804 240:-0.051724687 241:-0.64961499 242:-0.62855631 243:-0.55623096 244:-0.5297398 245:-0.46128109 246:-0.47301689 247:-0.30051637 248:0.13541763 249:0.49929649 250:0.37219337 251:0.31369698 252:0.29165772 253:0.36116946 254:0.60863173 255:1.0444673 256:1.6429727 257:0.53742164 258:-0.11761733 259:-0.24453346 260:-0.22446898 261:-0.71915191 262:-0.68685246 263:-0.49241161 264:-0.42700845 265:-0.41021425 266:-0.49925339 267:-0.37494817 268:0.11222301 269:0.53921145 270:0.33052391 271:0.19538006 272:0.10521064 273:0.20825019 274:0.57092178 275:0.83487898 276:1.0041229 277:0.20392384 278:-0.2876116 279:-0.4190408 280:-0.38183936 281:-0.25709319 282:-0.2742275 283:-0.14879413 284:-0.069346517 285:-0.16736728 286:-0.40328425 287:-0.30751824 288:0.31290138 289:0.84359211 290:0.41666609 291:0.047941271 292:-0.33392477 293:-0.43303275 294:-0.11307891 295:0.12654692 296:0.41996023 297:-0.017289776 298:-0.35999382 299:-0.47014889 300:-0.4169119 301:0.90113062 302:0.93110418 303:0.86508054 304:0.84461784 305:0.63362199 306:0.36326393 307:0.50570178 308:1.2250333 309:1.8746426 310:1.1563531 311:0.57448035 312:-0.31968558 313:-0.5986926 314:-0.45426661 315:-0.24213159 316:0.02859877 317:-0.12750813 318:-0.35811257 319:-0.38420844 320:-0.28639311 321:1.086387 322:1.0729526 323:0.81295753 324:0.74038577 325:0.55568314 326:0.29537871 327:0.44927105 328:1.08152 329:1.780792 330:0.98243326 331:0.43801615 332:-0.099365242 333:-0.31657112 334:-0.35306537 335:-0.22595192 336:-0.073327646 337:-0.088914901 338:-0.24958776 339:-0.22544348 340:-0.098451495 341:1.1402364 342:1.1805745 343:0.74665487 344:0.49684092 345:0.19609384 346:-0.0062922672 347:0.046420593 348:0.29419741 349:0.50796074 350:0.21337794 351:0.13940427 352:-0.067376085 353:-0.23622361 354:-0.27966425 355:-0.21085803 356:-0.15850542 357:-0.013145134 358:-0.067681313 359:0.0054997504 360:0.21422051 361:1.2532427 362:1.3721943 363:0.91478401 364:0.65139937 365:0.37781256 366:0.25541762 367:0.20082514 368:0.16272998 369:0.19060388 370:0.1398056 371:0.22761846 372:0.17151657 373:0.043971922 374:-0.017968854 375:-0.12023576 376:-0.27032992 377:-0.048179366 378:0.00013331884 379:0.16931978 380:0.46834576 381:0.84772199 382:0.93405527 383:0.56891602 384:0.44710922 385:0.20110983 386:0.023388864 387:-0.13688737 388:-0.31974512 389:-0.38885 390:-0.2727536 391:-0.030889006 392:0.059523743 393:0.1022248 394:0.057494614 395:-0.089011207 396:-0.32159418 397:-0.12007899 398:0.084825881 399:0.16583076 400:0.3038424 
0 0.0002541761714611337 1:-0.81558895 2:-0.95386434 3:-1.1645621 4:-1.1090916 5:-1.0762089 6:-0.89173675 7:-0.44899866 8:0.12535258 9:0.26073194 10:0.64265209 11:0.31634709 12:-0.1627017 13:-0.43858194 14:-0.69671607 15:-0.8174116 16:-0.68113041 17:-0.59059823 18:-0.58248913 19:-0.6470722 20:-0.71890789 21:-0.97459775 22:-1.0570868 23:-1.2271959 24:-1.2917827 25:-1.2334688 26:-1.1092172 27:-0.7998572 28:-0.28283709 29:-0.1704088 30:0.3351239 31:0.039863359 32:-0.33253521 33:-0.55372572 34:-0.6958847 35:-0.80776018 36:-0.61463463 37:-0.5124532 38:-0.42513201 39:-0.5279488 40:-0.61179042 41:-0.82228613 42:-0.78838271 43:-0.83929336 44:-0.78542799 45:-0.54247904 46:-0.54958802 47:-0.44884577 48:-0.20917538 49:-0.17003165 50:0.18078354 51:0.10803591 52:-0.02253929 53:-0.0041444879 54:0.039806783 55:0.049964376 56:0.13346229 57:0.11649723 58:-0.033141278 59:-0.24743739 60:-0.3653293 61:-0.89220989 62:-0.77811581 63:-0.65525985 64:-0.56518793 65:-0.24578051 66:-0.18549225 67:-0.26117602 68:-0.1177687 69:-0.31525406 70:0.064997733 71:0.021995327 72:0.027862255 73:0.14320549 74:0.1543798 75:0.19464795 76:0.11994836 77:0.10141114 78:-0.043368071 79:-0.37495509 80:-0.43657699 81:-0.63977402 82:-0.29212272 83:0.11390201 84:0.31561491 85:0.59258914 86:0.73155987 87:0.67393446 88:0.62618244 89:0.58920562 90:0.73868763 91:0.70950711 92:0.69154817 93:0.72125518 94:0.7616182 95:0.74992478 96:0.42979276 97:0.24767575 98:0.11563861 99:-0.095677055 100:-0.084490404 101:-0.40626803 102:0.06712456 103:0.58937311 104:0.80737531 105:0.93603528 106:1.0293847 107:0.97587943 108:1.0190382 109:1.0319513 110:1.3726779 111:1.4294438 112:1.4581357 113:1.3326257 114:1.2122906 115:0.97427714 116:0.46949664 117:0.10595348 118:-0.20758779 119:-0.39849615 120:-0.33105645 121:-0.31861806 122:0.13980734 123:0.59012324 124:0.66505015 125:0.67092484 126:0.63266504 127:0.61152118 128:0.6694445 129:0.7546317 130:1.1200588 131:1.2230253 132:1.3141333 133:1.3245951 134:1.1575761 135:0.95609945 136:0.5657286 137:0.17422132 138:0.14714149 139:0.24763431 140:0.47967145 141:-0.13058919 142:0.26883748 143:0.58473927 144:0.55783063 145:0.48052371 146:0.46636894 147:0.49777406 148:0.56411695 149:0.61566985 150:0.8956334 151:0.89151412 152:0.90765023 153:0.96033376 154:0.92686337 155:0.9733429 156:1.0033479 157:1.0271299 158:0.99921274 159:0.82585824 160:0.89127147 161:-0.62495476 162:-0.48517597 163:-0.45612866 164:-0.35631362 165:-0.3487806 166:-0.19053698 167:0.11557229 168:0.2940672 169:0.42955783 170:0.67182606 171:0.63359898 172:0.66800541 173:0.70749229 174:0.70501488 175:0.82121104 176:1.0359304 177:1.4539596 178:1.4670433 179:1.0537298 180:0.64415103 181:-1.0237644 182:-1.0251673 183:-1.0432367 184:-1.0018642 185:-0.94707704 186:-0.72990471 187:-0.29728144 188:0.012095101 189:0.20609096 190:0.47329614 191:0.49012822 192:0.54031372 193:0.60986853 194:0.65709287 195:0.80911702 196:1.0909257 197:1.5778829 198:1.5973418 199:0.9939903 200:0.50956827 201:-1.046554 202:-1.0277109 203:-1.0186023 204:-1.0431803 205:-1.1435564 206:-0.99814838 207:-0.59906566 208:-0.26881683 209:-0.019976821 210:0.27576748 211:0.34655324 212:0.46460754 213:0.54916 214:0.65497464 215:0.89669955 216:1.1948584 217:1.753817 218:1.30907 219:0.56423128 220:0.093210407 221:-0.84588414 222:-0.79378605 223:-0.80036664 224:-0.88264322 225:-1.0271112 226:-0.96182472 227:-0.65007877 228:-0.3698431 229:-0.10097395 230:0.20026802 231:0.28633052 232:0.41063544 233:0.53140527 234:0.68839681 235:0.96442997 236:1.3118836 237:1.5133132 238:0.81370765 239:0.30795899 240:-0.018910097 241:-0.57091421 242:-0.463036 243:-0.43753543 244:-0.59107751 245:-0.81495988 246:-0.803716 247:-0.57041061 248:-0.36455962 249:-0.15779607 250:0.12110578 251:0.20015027 252:0.3958464 253:0.50833112 254:0.70193487 255:1.128641 256:1.0058986 257:0.78748375 258:0.30811432 259:0.029814487 260:-0.18373594 261:-0.3894009 262:-0.2434255 263:-0.15938647 264:-0.30990204 265:-0.56518555 266:-0.6003654 267:-0.39672601 268:-0.2600134 269:-0.12758258 270:0.17210874 271:0.25319061 272:0.445158 273:0.60516667 274:0.8055743 275:0.89073956 276:0.38783643 277:0.27562538 278:0.068956703 279:-0.12694009 280:-0.25218624 281:-0.45944774 282:-0.16396332 283:0.018104259 284:0.15904315 285:0.19860756 286:0.2988044 287:0.36089015 288:0.39017707 289:0.47246748 290:0.83380324 291:0.92162591 292:1.2902157 293:1.3565842 294:0.87972331 295:0.50152642 296:0.16269346 297:0.088971145 298:-0.03040128 299:-0.1950535 300:-0.28811261 301:-0.056671258 302:0.25068736 303:0.57049096 304:0.75861084 305:0.94943887 306:1.0870118 307:1.0383043 308:0.9906342 309:0.86878675 310:1.2406645 311:1.1347175 312:1.1444436 313:0.7146582 314:0.30995563 315:0.15784326 316:-0.076859042 317:-0.14936455 318:-0.18457931 319:-0.27592042 320:-0.30421713 321:0.86416292 322:1.1461537 323:1.4810903 324:1.454805 325:1.3866879 326:1.3839681 327:1.3684554 328:1.2820953 329:0.73579723 330:0.50087494 331:0.22711086 332:0.3029649 333:0.059615839 334:-0.23616947 335:-0.38996717 336:-0.58700871 337:-0.73243511 338:-0.51495874 339:-0.4376961 340:-0.3867214 341:0.61140513 342:0.80339974 343:1.1485283 344:1.0268503 345:0.86874068 346:0.75806367 347:0.63415289 348:0.52987468 349:-0.0071791755 350:-0.27584267 351:-0.25365812 352:-0.022509357 353:-0.071384095 354:-0.27966425 355:-0.42621806 356:-0.663827 357:-0.925574 358:-0.64178365 359:-0.43987033 360:-0.33530164 361:-0.090912081 362:-0.0024462501 363:0.19646451 364:0.0061249346 365:-0.29417974 366:-0.38354304 367:-0.45173851 368:-0.43733597 369:-0.79947197 370:-0.94026279 371:-0.77631158 372:-0.47473007 373:-0.33093297 374:-0.35873348 375:-0.38952705 376:-0.53974658 377:-0.79416054 378:-0.51092803 379:-0.29858968 380:-0.19012181 381:-0.40800491 382:-0.35958937 383:-0.14165577 384:-0.28748956 385:-0.51732194 386:-0.57013506 387:-0.53314 388:-0.5250966 389:-0.79719424 390:-0.96076 391:-0.7612589 392:-0.51151818 393:-0.30132729 394:-0.21543911 395:-0.17184505 396:-0.32159418 397:-0.55902964 398:-0.26332915 399:-0.085686304 400:-0.10619194 
0 0.0004448421363523934 1:0.012504318 2:-0.010741947 3:0.3092348 4:0.57307816 5:0.58256501 6:0.47691202 7:0.41813442 8:-0.055253293 9:-0.29797953 10:-0.39358687 11:-0.35727346 12:-0.32286981 13:-0.22604533 14:-0.095454596 15:-0.1214243 16:-0.1959969 17:-0.2945824 18:-0.30608007 19:-0.23097126 20:-0.18485628 21:0.545376 22:0.75459957 23:0.85089082 24:1.0049198 25:0.90784615 26:0.72018504 27:0.60735542 28:0.0050420733 29:-0.31840852 30:-0.44372216 31:-0.33261523 32:-0.065384239 33:0.07635764 34:0.1973104 35:0.23094866 36:0.11777515 37:-0.068607882 38:-0.1821759 39:-0.13844748 40:-0.16522017 41:0.84938312 42:1.1905602 43:1.2523642 44:1.4283975 45:1.3302284 46:1.1223468 47:1.0299546 48:0.27910665 49:-0.29465079 50:-0.49043319 51:-0.42020455 52:-0.13717917 53:-0.059723202 54:-0.012617253 55:-0.15263993 56:-0.36177504 57:-0.70869094 58:-0.86520016 59:-0.8226462 60:-0.93994379 61:0.43328899 62:0.74957848 63:0.7340849 64:0.85948992 65:0.81114709 66:0.60755479 67:0.61526179 68:-0.29018411 69:-0.83919758 70:-0.98234183 71:-0.91525161 72:-0.70720774 73:-0.61230302 74:-0.60174644 75:-0.6913088 76:-0.8292681 77:-1.0687854 78:-1.0395904 79:-0.87072504 80:-0.89715868 81:0.35290638 82:0.641675 83:0.59763825 84:0.70373762 85:0.74793327 86:0.73155987 87:0.97391307 88:0.36842811 89:-0.27032194 90:-0.51813126 91:-0.78804404 92:-0.6979211 93:-0.79853153 94:-0.77249259 95:-0.89171892 96:-1.1164117 97:-1.3394006 98:-1.3471987 99:-1.2036775 100:-1.0630522 101:0.22944734 102:0.40794659 103:0.3762596 104:0.45944786 105:0.54857439 106:0.68916708 107:0.97587943 108:0.62744069 109:0.23167346 110:-0.052497379 111:-0.32930434 112:-0.57795042 113:-0.9103058 114:-1.0369279 115:-1.2103664 116:-1.4766622 117:-1.7814938 118:-1.8057468 119:-1.7201341 120:-1.7186732 121:-0.17379172 122:-0.24761795 123:-0.17509148 124:-0.070005283 125:0.022588087 126:0.25347716 127:0.44559911 128:0.24816577 129:0.15163231 130:0.071114942 131:-0.25914943 132:-0.42717022 133:-0.63899964 134:-0.77657276 135:-0.76699805 136:-1.029776 137:-1.0888062 138:-1.0930557 139:-1.1493102 140:-1.2159004 141:-0.42086563 142:-0.5927701 143:-0.34227097 144:-0.24969663 145:-0.016163399 146:0.20891158 147:0.40106052 148:0.27284306 149:0.28168198 150:0.25208613 151:0.11133993 152:0.073516823 153:0.15350296 154:0.28937489 155:0.49512401 156:0.66420406 157:0.8300544 158:0.80051535 159:0.36321485 160:0.044491604 161:-0.21887185 162:-0.48517597 163:-0.18923686 164:-0.19589765 165:0.067358129 166:0.35902929 167:0.46986473 168:0.3923116 169:0.38339403 170:0.37510222 171:0.23641151 172:0.16936763 173:0.18281735 174:0.20393535 175:0.29570708 176:0.24906343 177:0.37981802 178:-0.062207356 179:-0.59515339 180:-1.0975964 181:-0.68973476 182:-0.8577351 183:-0.6932767 184:-0.70000535 185:-0.36650375 186:-0.019974373 187:0.19253275 188:0.24106207 189:0.32898378 190:0.37172797 191:0.23682088 192:0.20681979 193:0.21145716 194:0.23073769 195:0.29920566 196:0.2855289 197:0.40634504 198:0.13025847 199:-0.39791116 200:-0.76255608 201:-0.71768659 202:-0.76600242 203:-0.67014343 204:-0.72195053 205:-0.48797908 206:-0.16704288 207:0.051146612 208:0.18793158 209:0.35206518 210:0.44962615 211:0.33208898 212:0.31465214 213:0.28951514 214:0.30527633 215:0.37938756 216:0.34666899 217:0.44244826 218:0.13429908 219:-0.32825282 220:-0.58966482 221:-0.70110822 222:-0.70402396 223:-0.71061218 224:-0.80382621 225:-0.62864351 226:-0.30434665 227:-0.084200278 228:0.13754663 229:0.3875851 230:0.52691793 231:0.40762648 232:0.4427802 233:0.37043771 234:0.37178147 235:0.50393146 236:0.34955105 237:0.25255284 238:-0.050069816 239:-0.3709313 240:-0.62597996 241:-0.51844698 242:-0.56648618 243:-0.60710049 244:-0.69841856 245:-0.5497008 246:-0.32269913 247:-0.1576312 248:0.068753988 249:0.36096123 250:0.53360677 251:0.44616815 252:0.52087283 253:0.41022336 254:0.23541906 255:0.16064361 256:-0.26824975 257:-0.27528018 258:-0.30919656 259:-0.42205271 260:-0.57748866 261:-0.26949143 262:-0.36659965 263:-0.3467131 264:-0.38797298 265:-0.31335717 266:-0.23636214 267:-0.2225032 268:-0.027365647 269:0.26755464 270:0.48893908 271:0.48443276 272:0.75111061 273:0.38465753 274:-0.3676883 275:-0.84093761 276:-0.91724074 277:-0.72819608 278:-0.5550378 279:-0.50667101 280:-0.56335372 281:0.14761591 282:-0.016944434 283:-0.015275421 284:0.028534768 285:-0.0010150794 286:-0.12244878 287:-0.38178584 288:-0.18939067 289:0.06010678 290:0.32396898 291:0.37557301 292:1.0077566 293:-0.0069334754 294:-1.2382548 295:-1.2067134 296:-1.06647 297:-0.90988153 298:-0.74162728 299:-0.6229797 300:-0.64588839 301:0.68344837 302:0.6759479 303:0.57049096 304:0.58659685 305:0.54338861 306:0.26676422 307:0.0263595 308:-0.064161442 309:-0.070012085 310:-0.10831865 311:-0.73273945 312:-0.40581083 313:-1.0990167 314:-1.4882143 315:-1.3420625 316:-1.1050727 317:-0.93619543 318:-0.82086796 319:-0.70907253 320:-0.78546631 321:0.71601355 322:0.81674922 323:0.7016021 324:0.81976569 325:0.8181057 326:0.6912294 327:0.56416911 328:0.27921882 329:0.13865738 330:-0.060943056 331:-0.61651027 332:-0.55917108 333:-0.97489828 334:-1.3271979 335:-1.3084526 336:-1.0721519 337:-0.96410239 338:-0.90095282 339:-0.88578498 340:-1.0353286 341:0.38004145 342:0.42622501 343:0.19864558 344:0.29299116 345:0.19609384 346:-0.11548597 347:-0.24744555 348:-0.58959234 349:-0.75127017 350:-0.76506329 351:-0.89238441 352:-0.83011049 353:-0.9367916 354:-1.1614115 355:-1.1440848 356:-0.89964372 357:-0.73005348 358:-0.67367822 359:-0.75799179 360:-0.94947344 361:0.48515427 362:0.61614197 363:0.46110854 364:0.65139937 365:0.61780983 366:0.25541762 367:0.10760176 368:-0.22302671 369:-0.38694039 370:-0.54023749 371:-0.69908619 372:-0.70281714 373:-0.78081882 374:-0.92667454 375:-0.92810965 376:-0.65521091 377:-0.4800632 378:-0.43230322 379:-0.53254443 380:-0.77112263 381:0.43961078 382:0.54596186 383:0.36589548 384:0.48383915 385:0.35235864 386:0.023388864 387:-0.13688737 388:-0.2855199 389:-0.42287871 390:-0.47915551 391:-0.5178023 392:-0.51151818 393:-0.55813313 394:-0.60534447 395:-0.6688481 396:-0.4072172 397:-0.20786913 398:-0.17629039 399:-0.37912288 400:-0.59823316 
0 0.0009391599531414008 1:0.99115998 2:1.3473543 3:1.5940834 4:1.6817809 5:1.7398492 6:1.5637802 7:1.3286241 8:1.2089878 9:0.86600274 10:0.64265209 11:0.52361494 12:0.42458138 13:0.30529618 14:0.054860778 15:0.01777315 16:-0.1959969 17:-0.040854525 18:0.33887437 19:0.75726843 20:0.8832469 21:1.7018777 22:2.0392499 23:2.2251093 24:2.170938 25:2.1851218 26:1.9804399 27:1.5152345 28:1.2045386 29:0.76692283 30:0.43897003 31:0.35913074 32:0.25519693 33:0.18137154 34:0.098066501 35:0.18373463 36:0.071999535 37:0.19769929 38:0.40091869 39:0.58491206 40:0.72792029 41:1.4876568 42:1.7245606 43:1.8596196 44:1.8036222 45:1.8835285 46:1.7124413 47:1.2574623 48:0.95049441 49:0.39075449 50:0.11976383 51:0.049342532 52:-0.079859227 53:-0.11530191 54:-0.11746532 55:0.15126653 56:0.23250975 57:0.35919961 58:0.33088449 59:0.27025056 60:0.5285154 61:0.88516361 62:0.91209912 63:0.99001682 64:0.90266198 65:0.9168399 66:0.87190384 67:0.69493794 68:0.74430829 69:0.38333729 70:0.064997733 71:0.094091244 72:0.027862255 73:0.017287415 74:0.096216239 75:0.36076483 76:0.59455657 77:0.50843602 78:0.27122846 79:-0.044441804 80:0.13915017 81:0.72516155 82:0.70837486 83:0.70926964 84:0.61748815 85:0.74793327 86:0.85663098 87:1.1239023 88:1.5712816 89:1.5442363 90:1.3187579 91:1.3261459 92:0.85501516 93:0.49328715 94:0.48268896 95:0.61859328 96:0.8008818 97:0.48279819 98:-0.11841536 99:-0.73715103 100:-0.66011494 101:0.46365824 102:0.40794659 103:0.3762596 104:0.30481344 105:0.41942081 106:0.494757 107:0.69479734 108:1.0190382 109:1.0319513 110:1.0876429 111:1.3259881 112:0.60083628 113:0.10920857 114:-0.19347098 115:-0.24912323 116:-0.17922294 117:-0.42253175 118:-0.57080573 119:-0.6767357 120:-0.72751838 121:0.58654654 122:0.66811454 123:0.6944707 124:0.73505545 125:0.77898097 126:0.78434014 127:0.86040431 128:1.0907232 129:1.0835404 130:1.1856178 131:1.5350621 132:1.2224857 133:0.91120672 134:0.51285976 135:0.20224428 136:-0.072473206 137:0.077065356 138:0.50148356 139:0.90502 140:0.78795725 141:0.9475804 142:1.012953 143:1.0297042 144:1.0493689 145:0.91098583 146:0.85255504 147:0.88462824 148:0.9524821 149:0.84946138 150:0.8956334 151:1.0865576 152:0.95155197 153:0.90990686 154:0.8689099 155:0.70007497 156:0.57941812 157:0.73151666 158:1.1979102 159:1.3810302 160:0.97594947 161:0.94861662 162:0.92518073 163:0.78936636 164:0.80670202 165:0.62220979 166:0.5727495 167:0.60613108 168:0.63792259 169:0.56804913 170:0.64900112 171:0.79714674 172:0.74280107 173:0.81795019 174:0.89291972 175:0.89628303 176:0.98675126 177:1.3196919 178:1.7085038 179:1.4838732 180:0.99250054 181:0.12148004 182:-0.062432267 183:-0.20333269 184:-0.066101857 185:-0.10260677 186:0.0036899711 187:0.19253275 188:0.33646497 189:0.38165212 190:0.49022418 191:0.67588693 192:0.66317993 193:0.72370034 194:0.82763493 195:0.88560373 196:1.0909257 197:1.4841599 198:1.6537681 199:1.1795772 200:0.86293614 201:-0.4619008 202:-0.64968753 203:-0.71660459 204:-0.52118182 205:-0.46976858 206:-0.30556047 207:-0.032213937 208:0.15643169 209:0.26277509 210:0.40616149 211:0.60690945 212:0.55458081 213:0.61407125 214:0.67337978 215:0.71676493 216:0.98281109 217:1.0161721 218:0.53939253 219:-0.0010086567 220:0.002160382 221:-0.90379453 222:-1.0406319 223:-1.0516793 224:-0.81958961 225:-0.74670798 226:-0.56733787 227:-0.29268184 228:-0.026608868 229:0.13590316 230:0.31904981 231:0.55924642 232:0.50706965 233:0.53140527 234:0.60396606 235:0.63937217 236:0.94175565 237:0.56774294 238:-0.19403273 239:-0.59722805 240:-0.39627787 241:-0.72831577 242:-0.83545667 243:-0.84449166 244:-0.65241528 245:-0.56443739 246:-0.42792156 247:-0.17350733 248:0.085419901 249:0.20533404 250:0.3901282 251:0.59756374 252:0.47919735 253:0.41022336 254:0.39092433 255:0.37107781 256:0.59635091 257:0.099812977 258:-0.35176972 259:-0.61571008 260:-0.42813417 261:-0.56926507 262:-0.66221762 263:-0.67973822 264:-0.50507945 265:-0.42958567 266:-0.27680695 267:0.017053157 268:0.29834121 269:0.39103502 270:0.48893908 271:0.71567494 272:0.37716854 273:0.20825019 274:-0.015709503 275:-0.22647151 276:0.061567131 277:-0.15458381 278:-0.48372415 279:-0.72574651 280:-0.53742307 281:0.026203178 282:-0.20071805 283:-0.28231284 284:-0.10197362 285:-0.034285519 286:0.12328225 287:0.36089015 288:0.58336633 289:0.55493963 290:0.55571181 291:0.70320475 292:-0.12208035 293:-0.77391213 294:-0.84113389 295:-0.54008323 296:-0.15174371 297:-0.25106382 298:-0.48142266 299:-0.72996122 300:-0.57433325 301:0.98820353 302:0.93110418 303:0.86508054 304:0.84461784 305:0.90432221 306:0.94226217 307:0.985044 308:1.1078337 309:0.73467261 310:0.39755005 311:0.29436183 312:-0.9225623 313:-1.0364761 314:-0.85885483 315:-0.54211271 316:-0.15595241 317:-0.12750813 318:-0.28098667 319:-0.51054448 320:-0.39333737 321:1.2345364 322:1.2559551 323:1.2954979 324:1.2166653 325:1.3429508 326:1.3839681 327:1.3110064 328:1.4158121 329:0.88508219 330:0.34035552 331:0.15680909 332:-0.44421965 333:-0.59871131 334:-0.50892657 335:-0.19314888 336:0.069361538 337:0.14275236 338:-0.0083414335 339:-0.2490271 340:-0.14649647 341:0.87582076 342:0.80339974 343:0.74665487 344:0.45607099 345:0.48437107 346:0.3758857 347:0.10519382 348:0.058520146 349:-0.35060579 350:-0.43891621 351:-0.3519237 352:-0.51604337 353:-0.4834829 354:-0.31800106 355:-0.031391338 356:0.27943993 357:0.34530905 358:0.21936986 359:-0.026312398 360:0.052596353 361:1.0612206 362:1.1316322 363:1.1038154 364:0.78045422 365:0.66580927 366:0.50117171 367:0.20082514 368:0.077006273 369:-0.098168246 370:-0.18021466 371:-0.15850846 372:-0.170614 373:-0.18097101 374:-0.13155706 375:0.11058535 376:0.30699158 377:0.42296663 378:0.35394505 379:0.091334872 380:0.081011884 381:0.97329473 382:0.96639639 383:0.90728348 384:0.59402895 385:0.42798302 386:0.28305557 387:0.11527338 388:0.056732561 389:-0.048563156 390:-0.066351682 391:-0.030889006 392:-0.011856498 393:-0.0078348536 394:0.057494614 395:0.1594903 396:0.14933236 397:0.27497661 398:0.17186464 399:-0.0018472831 400:-0.065188505 
0.0008755129611344802 0 1:0.87823814 2:1.1587298 3:1.3295557 4:1.4523941 5:1.2769355 6:1.2417451 7:0.93841428 8:0.39626136 9:0.027935503 10:-0.29489744 11:-0.4609074 12:-0.37625918 13:-0.17291118 14:-0.045349471 15:0.01777315 16:0.024518341 17:-0.040854525 18:-0.12180738 19:-0.33499649 20:-0.54089069 21:0.545376 22:0.65578032 23:0.75033826 24:0.82825035 25:0.75757843 26:0.8014918 27:0.56196141 28:-0.042937789 29:-0.31840852 30:-0.65141439 31:-0.75830507 32:-0.70654655 33:-0.44871181 34:-0.2989091 35:-0.19397768 36:-0.065327302 37:-0.11299241 38:-0.1821759 39:-0.30537659 40:-0.54799467 41:0.36307934 42:0.31103 43:0.27400821 44:0.26520109 45:0.26619014 46:0.43390298 47:0.17680052 48:-0.3312459 49:-0.41926995 50:-0.73451203 51:-0.77236485 52:-0.71037859 53:-0.44877419 54:-0.32716146 55:-0.10198884 56:0.13346229 57:0.16503771 58:0.2788808 59:0.50033408 60:0.59236145 61:0.37303904 62:0.26201648 63:0.14909762 64:0.16873702 65:0.28268331 66:0.73972929 67:0.7746141 68:0.39947751 69:0.47066119 70:-0.096131437 71:-0.41058019 72:-0.43990955 73:-0.48638493 74:-0.48541933 75:-0.41444731 76:-0.3019256 77:-0.20385753 78:0.11393019 79:0.39624259 80:0.5421592 81:-0.2364976 82:-0.45887232 83:-0.70472848 84:-0.84875327 85:-0.80550778 86:-0.45661566 87:-0.37599051 88:-0.49075285 89:-0.17481887 90:-0.51813126 91:-0.69995278 92:-0.6979211 93:-0.9505102 94:-1.0514218 95:-0.95738465 96:-0.74532264 97:-0.69281399 98:-0.41098285 99:0.020954577 100:0.20332187 101:-0.43972671 102:-0.64860171 103:-0.86690265 104:-0.9709205 105:-0.87211537 106:-0.623101 107:-0.48574764 108:-0.35155299 109:0.071617886 110:-0.14750907 111:-0.12239278 112:-0.14930072 113:-0.50250006 114:-0.75577563 115:-0.77343768 116:-0.74685258 117:-0.64902544 118:-0.42551857 119:-0.050696697 120:0.13148248 121:-0.28241146 122:-0.42372036 123:-0.62726378 124:-0.66505015 125:-0.48167384 126:-0.31530464 127:-0.17660868 128:-0.032686699 129:0.3709048 130:0.53002787 131:0.75497013 132:1.1308382 133:0.8078596 134:0.40540707 135:0.094550692 136:-0.28520715 137:-0.60302633 138:-0.65012813 139:-0.49192458 140:-0.44518593 141:-0.29646143 142:-0.3186222 143:-0.49059263 144:-0.56568551 145:-0.3804006 146:-0.30600318 147:-0.17922071 148:0.013932971 149:0.31508076 150:0.39509663 151:0.65746182 152:1.0393555 153:0.96033376 154:0.8689099 155:0.76839191 156:0.32506025 157:-0.3523984 158:-0.78906393 159:-1.1172439 160:-1.3103563 161:-0.72647554 162:-0.7769739 163:-0.90094829 164:-0.91776943 165:-0.59152824 166:-0.49585158 167:-0.29322669 168:-0.04978817 169:0.22182083 170:0.35227731 171:0.61023498 172:0.9173243 173:0.90079355 174:0.98687214 175:1.008891 176:0.79003447 177:0.51408571 178:0.17925327 179:-0.23670053 180:-0.51701397 181:-0.83289033 182:-0.89959317 183:-0.93824869 184:-0.9113065 185:-0.63040072 186:-0.51692563 187:-0.31857771 188:-0.04514664 189:0.20609096 190:0.30401587 191:0.49012822 192:0.71583688 193:0.66678447 194:0.65709287 195:0.5796569 196:0.2855289 197:-0.10913164 198:-0.49043062 199:-0.67629147 200:-0.79789287 201:-1.0830948 202:-1.0277109 203:-1.0418328 204:-1.0030266 205:-0.74292576 206:-0.63453972 207:-0.44901669 208:-0.15856722 209:0.099076614 210:0.24679102 211:0.41887438 212:0.6295585 213:0.51670438 214:0.48932806 215:0.35689574 216:-0.047133241 217:-0.58205855 218:-0.79741579 219:-0.71499592 220:-0.72623986 221:-1.0485705 222:-0.97331029 223:-0.96192473 224:-0.89840662 225:-0.68767577 226:-0.59655911 227:-0.42670569 228:-0.16091791 229:0.12109835 230:0.24481119 231:0.43795046 232:0.63564867 233:0.44197884 234:0.35067379 235:0.097609252 236:-0.53875589 237:-1.0870051 238:-0.91384733 239:-0.67951781 240:-0.65879458 241:-1.0168854 242:-0.93890685 243:-0.91231769 244:-0.88243181 245:-0.69706696 246:-0.60830289 247:-0.44340155 248:-0.18123463 249:0.11887449 250:0.26458439 251:0.4650926 252:0.70841247 253:0.38569641 254:0.11101485 255:-0.47065902 256:-1.4513874 257:-1.4318174 258:-1.0116538 259:-0.77709126 260:-0.74042082 261:-0.95897084 262:-0.93320072 263:-0.95032114 264:-0.91495192 265:-0.73952824 266:-0.64081019 267:-0.50561529 268:-0.23674862 269:0.11937818 270:0.19851127 271:0.36881167 272:0.64912641 273:-0.012258958 274:-0.77833021 275:-1.5112642 276:-1.6785358 277:-1.4213109 278:-1.0720619 279:-0.85719186 280:-0.83562529 281:-0.82368588 282:-0.78879362 283:-0.78300804 284:-0.75451553 285:-0.46680123 286:-0.2628665 287:-0.12184925 288:-0.034839272 289:0.06010678 290:-0.13951671 291:-0.38890105 292:-0.54576921 293:-2.3078694 294:-2.561991 295:-1.9566723 296:-1.6381739 297:-1.313673 298:-0.98448497 299:-0.79109353 300:-0.76037669 301:-0.84032732 302:-0.72741181 303:-0.69203597 304:-0.48849055 305:-0.13336192 306:0.31501406 307:0.39918125 308:0.11163783 309:0.064102031 310:-0.95143312 311:-1.8532135 312:-2.2144411 313:-2.5999889 314:-2.2524366 315:-1.842031 316:-1.5005395 317:-1.2421852 318:-0.93655682 319:-0.74516851 320:-0.73199421 321:-0.83955485 322:-0.86687332 323:-0.89449292 324:-0.80752248 325:-0.58148122 326:-0.19943464 327:-0.29756624 328:-0.85737449 329:-1.1302648 330:-2.2279553 331:-2.5849595 332:-2.3409188 333:-2.3385761 334:-2.0675387 335:-1.7020892 336:-1.3860681 337:-1.1442881 338:-0.87682819 339:-0.69711596 340:-0.67499131 341:-0.67762101 342:-0.80816507 343:-0.86083913 344:-0.7262578 345:-0.66873783 346:-0.17008282 347:-0.30621877 348:-0.88418895 349:-1.1519345 350:-1.6891466 351:-1.9733059 352:-1.9966455 353:-1.9258287 354:-1.7748009 355:-1.5030183 356:-1.1691486 357:-0.99074745 358:-0.76936197 359:-0.63074321 360:-0.59390032 361:-0.79499316 362:-0.96469462 363:-1.0511429 364:-0.98329586 365:-0.9181726 366:-0.43269384 367:-0.45173851 368:-0.73736894 369:-0.88197833 370:-1.2202805 371:-1.4327273 372:-1.4250928 373:-1.3806667 374:-1.2674391 375:-1.1204606 376:-0.88613951 377:-0.75489837 378:-0.58955288 379:-0.4545595 380:-0.46125552 381:-0.97308201 382:-1.1681173 383:-1.190595 384:-1.2057381 385:-1.1601293 386:-0.90399224 387:-0.89336967 388:-1.0384753 389:-1.1374811 390:-1.2015622 391:-1.2481722 392:-1.1896304 393:-1.0350584 394:-0.91726869 395:-0.79309881 396:-0.62127471 397:-0.47123954 398:-0.39388728 399:-0.37912288 400:-0.39321598 
0.002870972246517156 0 1:0.16306673 2:0.026982948 3:0.082496807 4:0.037842322 5:0.11965131 6:0.31589451 7:0.63491768 8:0.21565551 9:-0.018623786 10:-0.24555273 11:-0.61635828 12:-0.91015291 13:-0.54485023 14:-0.14555973 15:0.15697061 16:0.15682748 17:0.086009406 18:-0.029671026 19:-0.33499649 20:-0.71890789 21:0.1158182 22:-0.068894222 23:-0.054082405 24:-0.090430669 25:0.0062398501 26:0.27299786 27:0.78893119 28:0.29292125 29:0.026924165 30:-0.28795293 31:-0.81151628 32:-1.3477089 33:-1.0262883 34:-0.49739689 35:-0.19397768 36:0.071999535 37:0.15331477 38:0.10937139 39:-0.082804434 40:-0.4841989 41:0.36307934 42:0.12255924 43:0.0041169273 44:-0.11002357 45:-0.074302144 46:0.18803023 47:0.80244678 48:0.21807139 49:-0.045412511 50:-0.30737409 51:-0.88975161 52:-1.2835779 53:-0.83782518 54:-0.27473742 55:0.15126653 56:0.38108096 57:0.55336154 58:0.59090286 59:0.44281319 60:0.1454391 61:0.73453873 62:0.58705783 63:0.33190614 64:0.25508112 65:0.38837606 66:0.87190384 67:1.8104042 68:1.2615545 69:0.9072808 70:0.38725606 71:-0.48267609 72:-0.9745059 73:-0.67526203 74:-0.25276512 75:0.19464795 76:0.27815109 77:0.30492359 78:0.32366121 79:0.12081484 80:-0.091140695 81:1.0353742 82:0.87512445 83:0.4860068 84:0.22936541 85:0.022994101 86:0.04366878 87:0.29896125 88:-0.061162367 89:-0.46132806 90:-0.80816638 91:-1.140409 92:-1.351789 93:-0.79853153 94:-0.075169504 95:0.48726177 96:0.12055185 97:-0.10500792 98:-0.23544236 99:-0.27062452 100:-0.37230268 101:2.0362172 102:1.9757279 103:1.4418272 104:1.0779855 105:0.76383042 106:0.44615448 107:0.18884948 108:-0.28628674 109:-0.56860441 110:-0.8125909 111:-0.74312741 112:-0.470788 113:0.51701432 114:1.493443 115:2.1102917 116:0.95603633 117:-0.12054019 118:-0.49816215 119:-0.46805605 120:-0.5292874 121:2.0348098 122:2.0064929 123:1.6335979 124:1.365103 125:1.139168 126:0.8980965 127:0.65300173 128:0.43540075 129:0.26126856 130:0.071114942 131:-0.025121829 132:0.031067535 133:0.29112417 134:0.51285976 135:0.74071223 136:-0.17884018 137:-0.99165022 138:-1.2702267 139:-1.3958299 140:-1.5241861 141:1.3622611 142:1.4045929 143:1.4005083 144:1.2951381 145:1.2421106 146:1.1421945 147:1.0458175 148:0.85539079 149:0.78266376 150:0.64536506 151:0.30638346 152:0.029615063 153:-0.3507663 154:-0.81174165 155:-1.3494344 156:-1.4554447 157:-1.3377757 158:-1.3851562 159:-1.672416 160:-1.8184241 161:0.6948148 162:0.82791477 163:1.1897041 164:1.2879498 165:1.2810961 166:1.2139102 167:1.1239431 168:0.8835336 169:0.798868 170:0.69465095 171:0.42332324 172:0.29402706 173:0.017130528 174:-0.39109662 175:-0.79283679 176:-0.73452032 177:-0.42578816 178:-0.38415486 179:-0.73853457 180:-0.86536348 181:-0.30798662 182:-0.2717225 183:0.21661933 184:0.44705811 185:0.63630474 186:0.78461331 187:0.81012458 188:0.69899601 189:0.6801061 190:0.65950447 191:0.52390254 192:0.50520909 193:0.40117687 194:0.25205544 195:0.14623226 196:0.1177379 197:0.17203745 198:0.13025847 199:-0.16592759 200:-0.33851463 201:-1.1196356 202:-0.96955347 203:-0.46106812 204:-0.15979822 205:0.094756261 206:0.31776869 207:0.45127726 208:0.50293052 209:0.54552698 210:0.59450835 211:0.54905248 212:0.61456293 213:0.54916 214:0.48932806 215:0.49184668 216:0.43754643 217:0.48342851 218:0.41786447 219:0.1477387 220:-0.043364633 221:-0.78797376 222:-0.65914291 223:-0.35159421 224:-0.15752703 225:0.0059532402 226:0.14858265 227:0.2434136 228:0.31662536 229:0.40238991 230:0.46752706 231:0.43795046 232:0.52314204 233:0.45986414 234:0.39288917 235:0.36849073 236:0.23851268 237:0.094957776 238:0.036307931 239:-0.02119994 240:-0.13376115 241:-0.5446806 242:-0.463036 243:-0.28492683 244:-0.17704774 245:-0.078129068 246:-0.00703181 247:0.01700623 248:0.10208581 249:0.20533404 250:0.28251922 251:0.27584809 252:0.41668415 253:0.31211558 254:0.17321695 255:0.16064361 256:-0.31375504 257:-0.36905348 258:-0.24533682 259:-0.22839534 260:-0.27877969 261:-0.17955932 262:-0.095616527 263:0.0071260943 264:0.11948822 265:0.17092812 266:0.18830833 267:0.14772026 268:0.15875256 269:0.21816248 270:0.25131634 271:0.10866425 272:0.20719485 273:-0.056360789 274:-0.42635143 275:-0.61749542 276:-0.8809886 277:-0.82379812 278:-0.60852307 279:-0.46285591 280:-0.44666591 281:0.22855772 282:0.3873575 283:0.51879942 284:0.68107671 285:0.76420504 286:0.75516206 287:0.58369297 288:0.42881492 289:0.38999534 290:0.2776204 291:-0.1158746 292:-0.19269516 293:-0.85913199 294:-0.97350752 295:-0.66507638 296:-1.0092996 297:-1.1436555 298:-0.93244404 299:-0.71467817 300:-0.67451048 301:0.63991195 302:0.80352604 303:0.90716475 304:1.1026388 305:1.1299057 306:0.89401233 307:0.66548252 308:0.28743711 309:0.1311591 310:-0.27694154 311:-1.1996037 312:-1.180938 313:-1.2240977 314:-0.99371755 315:-0.74210012 316:-1.0259794 317:-1.2203288 318:-1.0908086 319:-0.87150455 320:-0.83893847 321:0.90120029 322:1.0729526 323:0.9614315 324:1.1372854 325:1.0805283 326:0.79019207 327:0.56416911 328:-0.055073325 329:-0.45848247 330:-0.86354023 331:-1.3898296 332:-1.3063556 333:-1.3040619 334:-1.210302 335:-1.0460281 336:-1.0721519 337:-1.1700288 338:-1.0939499 339:-0.88578498 340:-0.89119375 341:0.90887266 342:1.1119972 343:0.96585864 344:1.1491603 345:1.1570179 346:0.81266052 347:0.57537967 348:0.058520146 349:-0.17889248 350:-0.43891621 351:-0.84325165 352:-0.91984391 353:-1.0192113 354:-1.1230747 355:-1.0722982 356:-1.000708 357:-1.055921 358:-0.96072942 359:-0.85342824 360:-0.8848238 361:0.54916161 362:0.684874 363:0.38549596 364:0.43630788 365:0.28181365 366:-0.088638119 367:-0.26529175 368:-0.43733597 369:-0.42819354 370:-0.46023238 371:-0.58324808 372:-0.58877361 373:-0.66834736 374:-0.81308633 375:-0.85116929 376:-0.57823473 377:-0.44080102 378:-0.39299083 379:-0.33758214 380:-0.46125552 381:0.69075614 382:0.8370319 383:0.56891602 384:0.59402895 385:0.35235864 386:0.060484108 387:-0.13688737 388:-0.21706939 389:-0.28676397 390:-0.2727536 391:-0.37868419 392:-0.44013792 393:-0.59481972 394:-0.80029714 395:-0.95876652 396:-0.4928402 397:-0.032288857 398:0.12834527 399:0.040072229 400:-0.10619194 
0.0001853768353653288 0 1:-0.3639017 2:-0.68979007 3:-0.48434818 4:-0.38270012 5:-0.34326237 6:-0.40868425 7:-0.405642 8:-0.3261621 9:-0.20486094 10:0.14920495 11:0.31634709 12:0.10424516 13:-0.11977703 14:-0.19566485 15:-0.21422261 16:-0.37240911 17:-0.040854525 18:0.38494256 19:0.80928105 20:0.7052297 21:-0.18156797 22:-0.53005075 23:-0.32222262 24:-0.23176621 25:-0.10646094 26:-0.29614949 27:-0.39131159 28:-0.37879682 29:-0.41707501 30:-0.1841068 31:-0.01334787 32:-0.065384239 33:-0.081163198 34:-0.0011774007 35:0.04209251 36:-0.065327302 37:0.15331477 38:0.44950989 39:0.69619817 40:0.53653306 41:-0.2144064 42:-0.53708839 43:-0.36698359 44:-0.072501108 45:0.2236286 46:-0.057842527 47:-0.16446109 48:-0.20917538 49:-0.54388911 50:-0.49043319 51:-0.36151117 52:-0.42377886 53:-0.33761677 54:-0.32716146 55:-0.35524422 56:-0.51034623 57:-0.41744804 58:-0.29315966 59:-0.30495828 60:-0.74840564 61:-0.47046024 62:-0.90813231 63:-0.91119182 64:-0.73787612 65:-0.56285882 66:-0.97853929 67:-0.97826147 68:-0.9798457 69:-1.450465 70:-1.3851647 71:-1.1315393 72:-1.0413305 73:-0.99005729 74:-0.89256424 75:-0.85742569 76:-0.93473661 77:-0.81439489 78:-0.7774266 79:-0.8156395 80:-1.1274495 81:-0.54671025 82:-1.025821 83:-1.1884646 84:-1.3231255 85:-1.4268842 86:-1.6447912 87:-1.5759048 88:-1.52177 89:-1.9893771 90:-1.6782718 91:-1.492774 92:-1.515256 93:-1.3304569 94:-1.2606187 95:-1.1543819 96:-0.99271536 97:-0.98671705 98:-0.93760431 99:-0.97041428 100:-1.1206146 101:-0.071680993 102:-0.47819069 103:-0.68930805 104:-0.77762747 105:-0.82906419 106:-0.81751108 107:-0.59818047 108:-0.48208547 109:-0.72865999 110:-0.71757919 111:-0.74312741 112:-0.89943773 113:-0.80835432 114:-0.84949309 115:-0.86082339 116:-0.74685258 117:-0.95101696 118:-1.2245981 119:-1.3723346 120:-1.4543653 121:-0.28241146 122:-0.81114566 123:-0.83595872 124:-0.80506074 125:-0.80584222 126:-0.65657371 127:-0.42549178 128:-0.31353918 129:-0.39654893 130:-0.19112103 131:-0.025121829 132:-0.24387512 133:-0.43230546 134:-0.88402545 135:-1.5208532 136:-1.9870787 137:-2.1575217 138:-2.4218383 139:-2.4640815 140:-2.4490435 141:-0.66967398 142:-1.2977217 143:-1.0467988 144:-0.88167447 145:-0.74463779 146:-0.46691403 147:-0.27593425 148:-0.11552208 149:-0.052305873 150:0.28783876 151:0.42340961 152:0.33692735 153:0.45606452 154:0.17346787 155:-0.25636277 156:-0.86194307 157:-1.3377757 158:-1.6832023 159:-1.8574733 160:-1.4797122 161:-0.87875664 162:-1.5551018 163:-1.256804 164:-1.0380814 165:-0.90363228 166:-0.52638304 167:-0.29322669 168:-0.17259367 169:-0.0089980476 170:0.30662751 171:0.44668722 172:0.44361842 173:0.59703439 174:0.51711005 175:0.25817108 176:-0.14437006 177:-0.56005585 178:-1.1085367 179:-1.3837497 180:-1.0975964 181:-1.0237644 182:-1.3600316 183:-1.1482247 184:-1.062236 185:-1.0262462 186:-0.70624036 187:-0.53154039 188:-0.36951652 189:-0.12747526 190:0.16859165 191:0.35503095 192:0.43499985 193:0.66678447 194:0.59313959 195:0.35019681 196:0.15129609 197:-0.34343922 198:-0.94184083 199:-1.2794487 200:-1.0452504 201:-1.1196356 202:-1.2021832 203:-1.088294 204:-1.0833341 205:-1.0889249 206:-0.84231615 207:-0.74911463 208:-0.56806582 209:-0.2580837 210:0.08742056 211:0.28869629 212:0.41962093 213:0.69521028 214:0.65497464 215:0.42437121 216:0.25579154 217:-0.21323611 218:-0.67588776 219:-0.89349276 220:-0.77176487 221:-0.93274975 222:-0.95086974 223:-0.85421938 224:-0.83535302 225:-0.85001445 226:-0.65500158 227:-0.59051263 228:-0.44445923 229:-0.18980287 230:0.11118167 231:0.30149251 232:0.39456308 233:0.65660226 234:0.58285838 235:0.26013812 236:-0.020576842 237:-0.49602365 238:-0.68350667 239:-0.72066265 240:-0.60957271 241:-0.80701655 242:-0.83545667 243:-0.79362214 244:-0.8210941 245:-0.84443307 246:-0.65339822 247:-0.60216284 248:-0.49788687 249:-0.24425562 250:0.12110578 251:0.29477254 252:0.35417095 253:0.65549278 254:0.48422751 255:-0.13396429 256:-0.54128152 257:-0.74414665 258:-0.7562148 259:-0.76095313 260:-0.68611008 261:-0.56926507 262:-0.63758278 263:-0.6381101 264:-0.66122133 265:-0.68141401 266:-0.51947576 267:-0.46205956 268:-0.37633729 269:-0.2016708 270:0.092901155 271:0.16647479 272:-0.030768307 273:0.12004653 274:-0.48501456 275:-1.3995432 276:-1.1347536 277:-0.89549965 278:-0.78680718 279:-0.74035156 280:-0.66707623 281:-0.17615137 282:-0.42124638 283:-0.31569251 284:-0.33036327 285:-0.30044904 286:-0.01713548 287:0.17522115 288:0.19698782 289:0.06010678 290:0.13857469 291:-0.22508518 292:-1.2519172 293:-1.9669901 294:-2.3634305 295:-1.9150079 296:-1.4380776 297:-1.0161425 298:-0.77632123 299:-0.68411201 300:-0.56002223 301:-0.10020771 302:-0.25962526 303:-0.14494099 304:-0.058455579 305:0.18245497 306:0.45976365 307:0.9317838 308:1.049234 309:0.39938733 310:0.14461569 311:-1.012858 312:-2.5589421 313:-2.5374484 314:-2.2524366 315:-1.9086934 316:-1.526904 317:-1.0673339 318:-0.80158651 319:-0.67297649 320:-0.50028163 321:-0.20992 322:-0.24466497 323:-0.44907108 324:-0.52969277 325:-0.5377441 326:-0.54580396 327:-0.35501525 328:-0.58994079 329:-1.6527622 330:-2.2279553 331:-2.5849595 332:-2.9156761 333:-2.7147629 334:-2.3402958 335:-1.9645135 336:-1.6143708 337:-1.1442881 338:-0.82857895 339:-0.72069961 340:-0.53085637 341:-0.18184172 342:-0.019526972 343:-0.34936374 344:-0.52240801 345:-0.6206916 346:-0.87984192 347:-0.83517784 348:-1.0609468 349:-1.8960255 350:-2.1783674 351:-2.4155011 352:-2.6696463 353:-2.6676066 354:-2.4265273 355:-2.113205 356:-1.7755344 357:-1.3166149 358:-0.96072942 359:-0.82161611 360:-0.65854996 361:-0.4749563 362:-0.20864233 363:-0.74869269 364:-1.0263141 365:-1.2061692 366:-1.4157102 367:-1.2441372 368:-1.2088493 369:-1.6245352 370:-1.780316 371:-1.8960797 372:-1.9953104 373:-2.0554955 374:-1.9111056 375:-1.6975133 376:-1.5019491 377:-1.1475201 378:-0.9040522 379:-0.84448409 380:-0.77112263 381:-0.72193664 382:-0.5859772 383:-1.055248 384:-1.3159279 385:-1.4626269 386:-1.5717067 387:-1.5057601 388:-1.4491782 389:-1.579854 390:-1.6487664 391:-1.6655264 392:-1.5822217 393:-1.5486701 394:-1.3851551 395:-1.207268 396:-1.0065782 397:-0.82240009 398:-0.7420423 399:-0.79831803 400:-0.80325031 
0 0.001059531623368626 1:2.3462217 2:1.460529 3:0.42260379 4:-0.00038880995 5:-0.034653246 6:-0.24766675 7:-0.405642 8:-0.37131357 9:-0.62389457 10:-0.73899984 11:-0.8754431 12:-1.1770997 13:-1.3418624 14:-1.1476622 15:-1.0958065 16:-0.81343961 17:-0.54831028 18:-0.35214826 19:-0.12694603 20:0.11183904 21:1.6688348 22:1.0839971 23:0.38164544 24:0.15690653 25:0.15650757 26:0.15103771 27:0.24420376 28:0.53282058 29:0.12559065 30:-0.13218373 31:-0.54546016 32:-1.1874183 33:-1.7088785 34:-1.6387017 35:-1.704827 36:-1.3470445 37:-0.86752939 38:-0.66808808 39:-0.36101964 40:-0.10142442 41:0.87977713 42:0.59373611 43:0.2065354 44:0.040066294 45:0.010820927 46:-0.057842527 47:0.063046642 48:0.46221241 49:0.079206631 50:-0.18533468 51:-0.42020455 52:-0.82501841 53:-1.1712974 54:-1.061098 55:-1.1656615 56:-0.95605981 57:-0.66015047 58:-0.44917071 59:-0.13239563 60:0.081593052 61:0.403164 62:0.39203301 63:0.40502954 64:0.29825318 65:0.22983693 66:0.14494403 67:0.1372048 68:0.57189292 69:0.20868945 70:0.14556231 71:0.16618717 72:0.094686799 73:0.080246456 74:-0.078274429 75:-0.19295813 76:-0.3019256 77:-0.45824808 78:-0.51526284 79:-0.43004066 80:-0.37900427 81:0.04269376 82:0.20812607 83:0.4860068 84:0.44498914 85:0.28190094 86:0.23127545 87:0.14897197 88:0.19659193 89:-0.17481887 90:-0.3247745 91:-0.17140533 92:-0.044053223 93:0.11334047 94:-0.0054371962 95:-0.10372996 96:-0.25053722 97:-0.51647216 98:-0.52800983 99:-0.32894033 100:-0.31474021 101:0.26290604 102:0.57835764 103:1.0156002 104:1.0393269 105:0.84993285 106:0.7377696 107:0.41371518 108:0.10531074 109:-0.24849327 110:-0.62256753 111:-0.5362159 112:-0.25646317 113:0.10920857 114:0.18139879 115:0.36257693 116:0.22622681 117:0.030455593 118:0.010342977 119:0.36666265 120:0.59402138 121:0.47792682 122:0.70333505 123:0.90316564 124:0.84006339 125:0.67092484 126:0.55682743 127:0.4041186 128:0.34178326 129:0.15163231 130:0.071114942 131:0.052887369 132:0.21436264 133:0.29112417 134:0.29795435 135:0.41763148 136:0.2466277 137:-0.0200906 138:-0.030029537 139:0.083287895 140:0.17138566 141:0.49143174 142:0.26883748 143:-0.0085472902 144:-0.074147224 145:-0.11550082 146:-0.11291014 147:0.078682065 148:0.27284306 149:0.28168198 150:0.46660191 151:0.50142699 152:0.38082913 153:0.30478373 154:0.23142138 155:0.2218561 156:0.15548834 157:0.238828 158:0.30377182 159:-0.0068998355 160:-0.29422036 161:0.23797147 162:-0.19337803 163:-0.72302043 164:-0.75735348 165:-0.66088468 166:-0.49585158 167:-0.075200565 168:0.22038393 169:0.33723027 170:0.55770147 171:0.58687103 172:0.44361842 173:0.37611863 174:0.36052272 175:0.40831506 176:0.49495938 177:0.78262115 178:0.74266142 179:0.050061759 180:-0.51701397 181:-0.78517181 182:-1.0670253 183:-1.2882087 184:-1.2131653 185:-1.1581947 186:-0.94288379 187:-0.36117026 188:0.069336846 189:0.27631542 190:0.54100823 191:0.59145117 192:0.47010449 193:0.4391208 194:0.44391528 195:0.52866578 196:0.62111092 197:0.92182171 198:0.9202264 199:0.019659277 200:-0.58587217 201:-1.1561764 202:-1.1731045 203:-1.1812164 204:-1.1234878 205:-1.1253458 206:-1.0327778 207:-0.54904932 208:-0.15856722 209:0.099076614 210:0.43513793 211:0.54905248 212:0.44961199 213:0.46802098 214:0.48932806 215:0.62679762 216:0.80105621 217:1.0161721 218:0.82295793 219:0.028740814 220:-0.49861476 221:-0.99066013 222:-0.95086974 223:-0.89012116 224:-0.92993337 225:-1.0418693 226:-1.0640991 227:-0.75431961 228:-0.47430566 229:-0.18980287 230:0.18542029 231:0.3773025 232:0.39456308 233:0.4956347 234:0.5195353 235:0.8019011 236:0.94175565 237:0.8041355 238:0.41061151 239:-0.18577941 240:-0.57675809 241:-0.75454938 242:-0.79407656 243:-0.79362214 244:-0.86709738 245:-1.0360091 246:-1.1043515 247:-0.87205708 248:-0.66454595 249:-0.34800705 250:0.031431649 251:0.27584809 252:0.35417095 253:0.55738503 254:0.57753068 255:0.87611991 256:0.64185619 257:0.16232851 258:-0.075044163 259:-0.37363839 260:-0.65895474 261:-0.23951405 262:-0.53904349 263:-0.76299453 264:-0.87591648 265:-1.010728 266:-1.0654807 267:-0.87583876 268:-0.67877936 269:-0.39923939 270:0.0400961 271:0.33990639 272:0.51314747 273:0.91387951 274:0.62958491 275:0.33213401 276:-0.22845002 277:-0.51309144 278:-0.5728662 279:-0.69653648 280:-0.8745212 281:0.26902863 282:-0.23747277 283:-0.71624869 284:-0.85239685 285:-0.93258739 286:-1.0000596 287:-0.82739145 288:-0.6916827 289:-0.4759621 290:-0.00047101054 291:0.37557301 292:0.72529733 293:1.4418041 294:0.085481539 295:-0.29009694 296:-0.60910684 297:-0.78236842 298:-0.84570915 299:-0.85222584 300:-1.0036643 301:0.55283904 302:0.42079157 303:0.23381709 304:0.2425689 305:0.49827188 306:0.65276307 307:0.61222225 308:0.52183616 309:0.26527321 310:0.31323859 311:0.38773465 312:0.45544165 313:0.52703667 314:-0.40931237 315:-0.64210641 316:-0.78869927 317:-0.91433901 318:-0.91727531 319:-0.72712052 320:-0.71417016 321:0.56786418 322:0.59714627 323:0.66448361 324:0.81976569 325:1.1680024 326:1.4334494 327:1.4259045 328:1.2820953 329:0.81043971 330:0.50087494 331:0.22711086 332:0.18801342 333:0.20068595 334:-0.39203069 335:-0.75080073 336:-0.87238705 337:-1.015584 338:-0.99745136 339:-0.64994872 340:-0.45878887 341:0.9749766 342:0.90626562 343:0.96585864 344:0.82300061 345:0.6285097 346:0.48507941 347:0.16396704 348:0.058520146 349:-0.23613025 350:-0.22148483 351:-0.25365812 352:-0.29170972 353:-0.23622361 354:-0.58635896 355:-0.89283144 356:-0.89964372 357:-0.9581607 358:-0.96072942 359:-0.69436753 360:-0.56157547 361:1.3812574 362:1.3034623 363:1.3684595 364:1.1246005 365:0.52181089 366:0.10796516 367:-0.17206837 368:-0.30875042 369:-0.34568721 370:-0.26021972 371:-0.27434656 372:-0.36068654 373:-0.44340444 374:-0.6616354 375:-0.92810965 376:-0.9246276 377:-0.91194701 378:-0.86473978 379:-0.68851423 380:-0.65492249 381:0.91050839 382:0.6106441 383:0.50124252 384:0.15326971 385:-0.32826096 386:-0.57013506 387:-0.71325481 388:-0.8331238 389:-0.8652516 390:-0.75435805 391:-0.69169986 392:-0.65427864 393:-0.59481972 394:-0.64433497 395:-0.75168192 396:-0.70689774 397:-0.64681983 398:-0.61148417 399:-0.42104238 400:-0.35221255 
