svm_type nu_svc
kernel_type linear
nr_class 3
total_sv 34
rho -0.56892 -0.853699 -0.414009
label 1 2 3
probA -3.77149 -3.69633 -3.72433
probB 0.0445461 -0.264243 -0.0207272
nr_sv 13 14 7
SV
0 0.002309517495458712 1:-0.94190538 2:-0.56735522 3:-0.10224473 4:0.34404454 5:0.61804694 6:0.55672288 7:0.36801133 8:0.50685912 9:1.039618 10:0.72032881 11:0.45739478 12:0.36929259 13:0.26760131 14:0.25723189 15:0.28817892 16:0.4183324 17:0.49344644 18:0.37190467 19:0.27725178 20:-0.095658764 21:-0.94427156 22:-0.74391407 23:-0.36233971 24:0.13136412 25:0.50722986 26:0.42977488 27:0.23491885 28:0.35695103 29:0.60309881 30:0.2407176 31:0.17132658 32:0.17405763 33:0.13548796 34:0.13345085 35:0.19881082 36:0.26340097 37:0.30592373 38:0.24206212 39:0.14097351 40:-0.092769139 41:-0.87622327 42:-0.7790553 43:-0.48182508 44:-0.0025434105 45:0.40656766 46:0.38758594 47:0.27425995 48:0.35987702 49:-0.045405511 50:-0.22535698 51:-0.12726794 52:-0.086494505 53:-0.084760711 54:-0.058215529 55:-0.0027495276 56:0.12139992 57:0.18042415 58:0.062480208 59:-0.10541689 60:-0.27635863 61:-0.86787361 62:-0.89539152 63:-0.6799776 64:-0.19114865 65:0.28497663 66:0.34445199 67:0.49170837 68:0.50884306 69:-0.43033561 70:-0.623034 71:-0.47577691 72:-0.40818706 73:-0.43716824 74:-0.43208343 75:-0.37022367 76:-0.28991792 77:-0.30067509 78:-0.5455842 79:-1.0758821 80:-1.1799843 81:-0.60401589 82:-0.67251927 83:-0.47827357 84:-0.012975642 85:0.39583874 86:0.51128626 87:0.41517651 88:-0.39091963 89:-0.65875024 90:-0.69561559 91:-0.58540469 92:-0.55349165 93:-0.58565563 94:-0.57749099 95:-0.46893153 96:-0.32095137 97:-0.28804654 98:-0.60773772 99:-1.2472721 100:-1.5179149 101:-0.32147557 102:-0.26774821 103:0.057921112 104:0.38077918 105:0.68772119 106:1.3662393 107:0.29949775 108:-0.70045459 109:-0.76736426 110:-0.68445832 111:-0.61443675 112:-0.60963035 113:-0.69821244 114:-0.69292027 115:-0.49226555 116:-0.20596427 117:-0.035350472 118:-0.27135721 119:-0.69066447 120:-1.0700172 121:0.18625835 122:0.22838296 123:0.44657126 124:0.50022 125:0.32912585 126:0.26118869 127:-0.30905733 128:-0.81327188 129:-0.89590776 130:-0.71574861 131:-0.51522756 132:-0.52478373 133:-0.61888635 134:-0.69135565 135:-0.46107844 136:-0.23143058 137:-0.21205437 138:-0.47350639 139:-0.96505648 140:-1.3822026 141:0.6689415 142:0.79378587 143:1.1493641 144:1.1830153 145:0.51840907 146:0.1559948 147:-0.36190858 148:-0.82144541 149:-1.0091081 150:-0.80715829 151:-0.27440521 152:-0.29001197 153:-0.37680456 154:-0.50585109 155:-0.41806039 156:-0.4121834 157:-0.54601914 158:-0.93758857 159:-1.4076231 160:-1.6034826 161:0.82037437 162:1.0213393 163:1.1162658 164:0.63330132 165:-0.051544815 166:-0.28556135 167:-0.44102651 168:-0.6253249 169:-0.64059114 170:-0.35451323 171:0.031219661 172:-0.06083034 173:-0.25910515 174:-0.38271457 175:-0.37355882 176:-0.27770668 177:-0.42482135 178:-0.69619364 179:-0.93801057 180:-0.98422027 181:1.291923 182:1.5605688 183:1.3233138 184:0.58909148 185:-0.29242247 186:-0.63578635 187:-0.70053542 188:-0.61293095 189:-0.21170358 190:0.16449773 191:0.22419335 192:0.057305876 193:-0.088935137 194:-0.17364328 195:-0.21013246 196:-0.13835497 197:-0.073351897 198:-0.34158635 199:-0.49954128 200:-0.34215754 
0.003403453251082413 0 1:-0.63504499 2:-0.25309491 3:0.20934811 4:0.34404454 5:0.36833104 6:0.40320516 7:0.31547222 8:0.18197116 9:-0.0012829041 10:-0.14277826 11:-0.33702773 12:-0.43305764 13:-0.36058751 14:-0.16324356 15:-0.025039745 16:0.035247419 17:0.035239402 18:0.10285638 19:0.10530515 20:0.17977367 21:-0.74618942 22:-0.51998079 23:-0.14087114 24:0.055019755 25:0.21914208 26:0.50269765 27:0.35487613 28:-0.088460468 29:-0.79128045 30:-0.5216074 31:-0.56479365 32:-0.62005019 33:-0.56955051 34:-0.39001188 35:-0.22928546 36:-0.15695761 37:-0.1258826 38:-0.14948456 39:-0.11260705 40:0.02984241 41:-0.85255021 42:-0.66616851 43:-0.3081679 44:-0.079102725 45:0.15226088 46:0.54147267 47:0.25247571 48:-0.79324031 49:-1.2101551 50:-0.61621773 51:-0.59473187 52:-0.61532092 53:-0.57788688 54:-0.43297085 55:-0.27926058 56:-0.19385535 57:-0.15432513 58:-0.15468206 59:-0.075195335 60:0.12970854 61:-0.96746427 62:-0.76864463 63:-0.33543378 64:0.0016996642 65:0.22132082 66:0.4181917 67:-0.30390093 68:-2.2032545 69:-1.1762171 70:-0.57902527 71:-0.52631855 72:-0.54068619 73:-0.4986825 74:-0.4136076 75:-0.32564571 76:-0.34396264 77:-0.33327311 78:-0.11282435 79:0.097706206 80:0.32258564 81:-1.476812 82:-1.2459888 83:-0.64481783 84:-0.074715339 85:0.25845939 86:0.19900988 87:-1.8257298 88:-2.1596501 89:-1.1627432 90:-0.66598076 91:-0.61343724 92:-0.64749283 93:-0.66378719 94:-0.70552337 95:-0.83227509 96:-1.1595756 97:-1.4349309 98:-0.99551564 99:-0.70170617 100:-0.1792455 101:-0.82974881 102:-1.081195 103:-0.64307135 104:-0.22018276 105:-0.18060309 106:-1.3256488 107:-2.5393932 108:-1.7883601 109:-1.1074543 110:-0.73685396 111:-0.7050209 112:-0.73702651 113:-0.75428998 114:-0.77466851 115:-0.93686813 116:-1.1693076 117:-1.2479534 118:-0.91991347 119:-0.69066447 120:-0.44660366 121:-0.0023011765 122:-0.38479561 123:-0.32515624 124:-0.046091918 125:-0.321953 126:-1.4395492 127:-1.7455891 128:-1.3961406 129:-1.0705725 130:-0.83109099 131:-0.86677057 132:-0.7803883 133:-0.76579565 134:-0.74688244 135:-0.69148749 136:-0.59170496 137:-0.40877154 138:-0.47350639 139:-0.64989966 140:-0.64770746 141:0.32723111 142:-0.12197163 143:-0.32019383 144:-0.18264943 145:-0.33019617 146:-0.96890295 147:-1.0781564 148:-0.96568727 149:-0.94405413 150:-0.87176597 151:-0.91955668 152:-0.78845114 153:-0.73250806 154:-0.70024025 155:-0.59411722 156:-0.10173041 157:0.22785138 158:-0.15563369 159:-0.66780591 160:-0.79764384 161:0.6208604 162:0.13765837 163:-0.24093983 164:-0.40697354 165:-0.43274665 166:-0.60270268 167:-0.55670774 168:-0.50712484 169:-0.59996897 170:-0.60000944 171:-0.65850133 172:-0.59222955 173:-0.61820054 174:-0.75143039 175:-0.66821086 176:0.051744297 177:0.48910606 178:0.089401878 179:-0.52821702 180:-0.88995242 181:1.4825134 182:1.3148334 183:0.82815248 184:0.30367672 185:-0.084221572 186:-0.24145791 187:-0.28096414 188:-0.31300148 189:-0.4397991 190:-0.50207973 191:-0.46473417 192:-0.42320448 193:-0.63780278 194:-0.85968941 195:-0.689924 196:0.068301894 197:0.51949251 198:0.035821747 199:-0.58561879 200:-0.87580955 
0.00677923458452468 0 1:-0.98026294 2:-0.64592028 3:-0.1645633 4:0.075780749 5:0.25908032 6:0.43390867 7:0.68324596 8:1.0316782 9:1.3708137 10:0.61675596 11:0.048146818 12:-0.16560757 13:-0.36058751 14:-0.55898511 15:-0.67757863 16:-0.59410644 17:-0.3943297 18:-0.1064034 19:-0.037983701 20:0.0044984873 21:-0.83108175 22:-0.55730295 23:-0.23578624 24:-0.0060557332 25:0.26235527 26:0.42977488 27:0.57765394 28:0.82856321 29:0.82097054 30:0.21761684 31:-0.12981352 32:-0.31828922 33:-0.4520441 34:-0.49831453 35:-0.48225144 36:-0.53528035 37:-0.53496224 38:-0.34525791 39:-0.3154715 40:-0.26442531 41:-0.7815311 42:-0.6016618 43:-0.39499649 44:-0.18628576 45:0.23173176 46:0.37048742 47:0.44853395 48:0.59050047 49:0.1258812 50:-0.072411485 51:-0.31425351 52:-0.496335 53:-0.5923906 54:-0.56332052 55:-0.46360129 56:-0.57216167 57:-0.79991305 58:-0.75187826 59:-0.77029103 60:-0.74489766 61:-0.5193063 62:-0.35219055 63:-0.16316189 64:0.020984495 65:0.39106962 66:0.4181917 67:0.34705213 68:0.037173919 69:-0.23143388 70:-0.21228604 71:-0.38732898 72:-0.55393606 73:-0.63708961 74:-0.57988989 75:-0.39251265 76:-0.45205212 77:-0.65925312 78:-0.58492601 79:-0.65339029 80:-0.72921336 81:-0.20118693 82:0.064798757 83:0.3266902 84:0.54268163 85:0.91101134 86:0.68972987 87:0.26063123 88:-0.30248311 89:-0.32275486 90:-0.32517982 91:-0.52933967 92:-0.741494 93:-0.83958322 94:-0.78234279 95:-0.50196278 96:-0.4048138 97:-0.44443986 98:-0.34921914 99:-0.46789217 100:-0.59757972 101:0.059729371 102:0.46435395 103:0.75891358 104:0.93166095 105:1.0598601 106:0.53082579 107:-0.39291468 108:-0.39448112 109:-0.36350727 110:-0.40501505 111:-0.63255358 112:-0.82195729 113:-0.95056123 114:-0.93816501 115:-0.65899152 116:-0.34358475 117:0.045489725 118:0.19189723 119:0.0050536976 120:-0.23879914 121:0.26168215 122:0.57329589 123:0.94592434 124:1.0465319 125:0.16635613 126:-0.55220771 127:-0.54847926 128:-0.45707431 129:-0.37191334 130:-0.39278981 131:-0.49011731 132:-0.49638319 133:-0.50870442 134:-0.46924847 135:-0.30747241 136:0.21891242 137:1.0666072 138:1.4312804 139:1.2410411 140:0.82128292 141:0.088033855 142:0.33590713 143:0.89599204 144:0.93471259 145:-0.2695815 146:-0.40645409 147:-0.2355119 148:-0.3165988 149:-0.32604155 150:-0.35490438 151:-0.27440521 152:-0.14760077 153:-0.11002696 154:0.012519966 155:-0.065946758 156:0.62265992 157:1.8861454 158:2.3019388 159:1.9743984 160:1.5191427 161:-0.60947561 162:-0.82635725 163:-0.74360853 164:-0.59611446 165:-0.81394845 166:-0.48377469 167:-0.17110361 168:-0.23132478 169:-0.31561375 170:-0.35451323 171:-0.21221128 172:-0.019953478 173:0.099990204 174:0.059744444 175:-0.17712413 176:0.49101225 177:1.6315154 178:1.9972768 179:1.9305445 180:1.5610118 181:-0.61398101 182:-0.86168045 183:-0.80968904 184:-0.76662862 185:-0.81292474 186:-0.52824223 187:-0.39539266 188:-0.61293095 189:-0.75913286 190:-0.67983371 191:-0.33556026 192:0.057305876 193:0.1854987 194:-0.021188576 195:-0.40204909 196:0.068301894 197:1.1123369 198:1.262398 199:1.3941637 200:1.3350344 
0 0.0007499459714202903 1:-0.48161477 2:-0.56735522 3:-0.37229186 4:0.18308626 5:0.50879622 6:0.57207465 7:0.66573292 8:0.78176433 9:0.80304956 10:0.23698884 11:0.096293636 12:0.14641751 13:0.2210688 14:0.13356264 15:0.15767114 16:0.36360595 17:0.3216188 18:0.43169317 19:0.50651395 20:-0.020540826 21:-0.60470217 22:-0.65060854 23:-0.53635073 24:-0.14347558 25:0.27675965 26:0.53186679 27:0.69761121 28:0.88096458 29:0.51595008 30:-0.17509604 31:-0.26365358 32:-0.20711412 33:-0.14988476 34:-0.15535618 35:-0.11253193 36:-0.03085004 37:-0.1258826 38:-0.10054123 39:0.039541285 40:-0.21538068 41:-0.7815311 42:-0.74680191 43:-0.64101082 44:-0.32409254 45:0.15226088 46:0.50727558 47:0.73172915 48:0.9364357 49:-0.011148168 50:-0.36130854 51:-0.40774632 52:-0.36412838 53:-0.28781268 54:-0.20485891 55:-0.11335395 56:-0.088770248 57:-0.22605711 58:-0.26326317 59:-0.16586 60:-0.27635863 61:-1.1666456 62:-0.94971162 63:-0.6799776 64:-0.15257899 65:0.32741383 66:0.5410912 67:0.60020053 68:0.1550912 69:-0.48006105 70:-0.47633827 71:-0.42523524 72:-0.36843732 73:-0.28338259 74:-0.1179947 75:0.12013383 76:0.11541758 77:-0.10508709 78:-0.27019158 79:-0.18395498 80:-0.27844238 81:-1.3089665 82:-0.94560003 83:-0.47827357 84:0.23398314 85:0.67059749 86:0.51128626 87:-0.12573192 88:-0.83310223 89:-0.72174937 90:-0.56225872 91:-0.45925832 92:-0.38115621 93:-0.33172807 94:-0.11657457 95:0.25775561 96:0.30801681 97:0.024740124 98:-0.21995984 99:-0.23407817 100:-0.43024603 101:-0.49089998 102:0.26099223 103:0.84653765 104:1.4324626 105:1.4940224 106:0.43800205 107:-1.1545683 108:-1.2104104 109:-0.87364239 110:-0.56220192 111:-0.34268436 112:-0.22744177 113:-0.22155368 114:-0.12068254 115:0.34136432 116:0.61975855 117:0.6113711 118:0.65515167 119:0.50199527 120:0.072907642 121:0.073122628 122:0.9182089 123:1.1275072 124:1.2286358 125:0.73605013 126:-0.62615287 127:-1.362514 128:-1.363759 129:-0.9707641 130:-0.53120071 131:-0.18879473 132:-0.07037551 133:-0.14143127 134:-0.2471413 135:-0.00026031298 136:0.48911822 137:0.77153146 138:1.1138159 139:0.92588425 140:0.40157136 141:0.60059941 142:1.4042909 143:1.0480152 144:0.0035775728 145:-0.81511343 146:-1.1734298 147:-1.4573464 148:-1.4705338 149:-1.0091081 150:-0.41951209 151:-0.0027624725 152:0.066016011 153:-0.11002696 154:-0.57064748 155:-0.85820246 156:-0.30869907 157:0.55951017 158:1.2965682 159:1.128893 160:0.71330392 161:0.22183251 162:0.65983349 163:-0.24093983 164:-1.0216814 165:-1.1951503 166:-1.276628 167:-1.2507952 168:-1.255725 169:-0.8030799 170:-0.19084908 171:0.19350696 172:0.26618454 173:0.099990204 174:-0.16148506 175:-0.37355882 176:0.051744297 177:0.603347 178:1.3239092 179:1.1109573 180:0.80686891 181:-0.20103513 182:-0.26489443 183:-1.1144037 184:-1.373135 185:-1.4375275 186:-1.5678355 187:-1.3489637 188:-1.21279 189:-0.62227553 190:-0.013256248 191:0.26725131 192:0.36308521 193:0.45993254 194:0.66485757 195:0.84540898 196:0.68827248 197:0.81591469 198:0.97934198 199:0.70554376 200:0.57267445 
0.001227461806465944 0 1:-0.90354782 2:-0.90780389 3:-0.68388474 4:-0.26402003 5:0.040578928 6:0.24968742 7:0.29795918 8:0.05701426 9:-0.47441965 10:-0.5225454 11:-0.40924796 12:-0.25475758 13:-0.19772373 14:-0.2374451 15:-0.41656306 16:-0.51201683 17:-0.59479529 18:-0.67439425 19:-0.55382359 20:-0.57140571 21:-0.83108175 22:-0.74391407 23:-0.55216992 24:-0.23508881 25:0.10390696 26:0.34226754 27:0.42342314 28:0.12114494 29:-0.70413178 30:-0.54470813 31:-0.3974936 32:-0.19123197 33:-0.099524871 34:-0.083154418 35:-0.15144977 36:-0.2830652 37:-0.37587571 38:-0.4920879 39:-0.51833594 40:-0.5832153 41:-0.82887721 42:-0.74680191 43:-0.58312511 44:-0.35471627 45:0.072790012 46:0.42178297 47:0.57923943 48:0.052379072 49:-0.93609643 50:-0.63321167 51:-0.48788297 52:-0.24514243 53:-0.084760711 54:-0.0093343994 55:-0.021183597 56:-0.1518213 57:-0.32169977 58:-0.48042545 59:-0.61918324 60:-0.7761336 61:-0.46951094 62:-0.33408386 63:-0.19761626 64:-0.13329415 65:0.072790645 66:0.22155251 67:0.13006778 68:-1.2599162 69:-1.0021781 70:-0.623034 71:-0.43787065 72:-0.14318885 73:0.11646008 74:0.34390047 75:0.47675747 76:0.43968597 77:0.28608891 78:0.1625683 79:-0.043124393 80:-0.32852805 81:0.067365713 82:0.41980374 83:0.65977865 84:0.38833237 85:0.12108003 86:-0.38093191 87:-1.8257298 88:-1.8943405 89:-1.0787444 90:-0.66598076 91:-0.43122581 92:-0.052152093 93:0.43005463 94:0.98450363 95:1.3808175 96:1.524022 97:1.4844112 98:1.4604111 99:1.3246819 100:0.7410897 101:0.61035872 102:1.1151115 103:1.372282 104:0.53101963 105:-0.61476523 106:-2.5323572 107:-2.9548407 108:-1.8223572 109:-1.12871 110:-0.75431913 111:-0.45138532 112:0.069815986 113:0.81588018 114:1.8412753 115:2.7311032 116:2.9593067 117:2.7940564 118:2.5081694 119:2.1915965 120:1.423637 121:0.82736069 122:0.95653254 123:0.90052861 124:-0.10679324 125:-2.0310349 126:-3.0663421 127:-2.5596237 128:-1.8171014 129:-1.1953331 130:-0.85415947 131:-0.4650071 132:0.24203013 133:1.1072974 134:2.362618 135:3.3790727 136:3.3713133 137:2.9354203 138:2.5953166 139:2.1865115 140:1.4508501 141:0.6689415 142:0.48853338 143:0.2372247 144:-0.67925477 145:-1.784948 146:-2.1960642 147:-2.1314619 148:-1.7229573 149:-1.3018509 150:-0.96867752 151:-0.44418192 152:0.38644117 153:1.2238611 154:2.3451898 155:3.3671613 156:3.2097683 157:2.7705688 158:2.4136465 159:2.0800865 160:1.5191427 161:0.12207554 162:-0.70585525 163:-1.5478785 164:-1.6363894 165:-1.7034193 166:-1.7126973 167:-1.5592786 168:-1.3345251 169:-1.1280574 170:-0.88642174 171:-0.37449858 172:0.38881513 173:1.2285756 174:2.3457825 175:3.3587003 176:3.1266201 177:2.8881655 178:2.6706443 179:2.5452347 180:2.1266189 181:0.21191075 182:-0.79147035 183:-1.6095651 184:-1.373135 185:-1.3681272 186:-1.4244432 187:-1.4633923 188:-1.3841783 189:-1.2153239 190:-0.94646466 191:-0.42167619 192:0.23203692 193:0.95391345 194:2.0369499 195:2.7645752 196:2.5481842 197:2.1992183 198:2.3002703 199:2.4270937 200:2.0211585 
0 0.001305801294667616 1:-0.59668744 2:-0.69829702 3:-0.68388474 4:-0.58593655 5:0.13422239 6:0.52601933 7:0.38552436 8:0.48186776 9:1.181559 10:-0.34992397 11:-0.4814682 12:-0.32162011 13:-0.26752248 14:-0.089042008 15:-0.18164907 16:-0.48465359 17:-0.59479529 18:-0.52492297 19:-0.46785024 20:-0.52132708 21:-0.7744869 22:-0.81855851 23:-0.83691525 24:-0.84584373 25:-0.18418084 26:0.32768297 27:0.37201288 28:0.77616185 29:1.6488832 30:-0.15199527 31:-0.49787363 32:-0.44534647 33:-0.33453768 34:-0.2095075 35:-0.20982654 36:-0.3671369 37:-0.4667823 38:-0.56550288 39:-0.74655843 40:-0.90200531 41:-0.92356932 42:-0.8596887 43:-0.72783941 44:-0.75282472 45:-0.18151678 46:0.33629036 47:0.36139694 48:0.66737497 49:0.67399865 50:-0.29333276 51:-0.50123912 52:-0.36412838 53:-0.099264421 54:0.088427857 55:0.16315711 56:0.12139992 57:0.060870834 58:-0.10039148 59:-0.49829707 60:-0.80736953 61:-1.1915432 62:-1.0221384 63:-0.69720477 64:-0.67326945 65:-0.096958138 66:0.44277158 67:0.38321617 68:0.096132562 69:-0.18170846 70:-0.54968613 71:-0.62740189 72:-0.36843732 73:0.085702948 74:0.38085207 75:0.58820236 76:0.65586489 77:0.64466691 78:0.39861915 79:-0.27784204 80:-0.82938468 81:-0.70472312 82:-0.56328696 83:-0.22845724 84:-0.25993443 85:0.1897697 86:0.64511895 87:-0.048459288 88:-0.92153877 89:-0.72174937 90:-0.72525042 91:-0.62745351 92:-0.28715503 93:0.27379152 94:0.85647124 95:1.2817239 96:1.4401596 97:1.4844112 98:1.2665222 99:0.31148785 100:-0.59757972 101:0.22915378 102:0.46435395 103:0.71510154 104:0.73134029 105:0.99783701 106:1.4590631 107:-0.18519095 108:-1.1084192 109:-1.12871 110:-0.92897117 111:-0.61443675 112:-0.12127829 113:0.59157014 114:1.6777788 115:2.4532266 116:2.4776349 117:2.4706955 118:2.2302167 119:0.89954847 120:-0.13489687 121:0.52566546 122:0.9182089 123:0.80973715 124:0.37881735 125:-0.48472273 126:-0.70009798 127:-0.69213247 128:-1.0399431 129:-1.2452374 130:-1.0387074 131:-0.59055817 132:-0.041974999 133:0.74002427 134:2.4181449 135:3.3790727 136:2.8309019 137:2.6403446 138:2.5953166 139:1.5561979 140:0.50649923 141:0.60059941 142:1.2898211 143:1.0480152 144:0.065653242 145:-1.3000307 146:-1.3779566 147:-0.74109858 148:-0.82144541 149:-1.2693239 150:-1.097893 151:-0.58000326 152:-0.040792383 153:0.77923179 154:2.6691716 155:3.4551895 156:2.4853778 157:2.2178042 158:2.74877 159:2.1857748 160:1.0154935 161:0.15532787 162:0.49916422 163:-0.34147355 164:-1.0216814 165:-1.5339963 166:-1.4351987 167:-0.94231194 168:-0.82232493 169:-1.1280574 170:-0.92733777 171:-0.53678584 172:-0.18346092 173:0.45908555 174:2.0508099 175:2.6711788 176:1.8088162 177:1.5172744 178:2.3339605 179:2.340338 180:1.5610118 181:0.021320343 182:0.015946085 183:-0.92395705 184:-1.2661045 185:-1.4722277 186:-1.5319874 187:-1.3871065 188:-1.21279 189:-0.98722833 190:-0.72427219 191:-0.55085009 192:-0.37952173 193:0.075725161 194:0.89353961 195:1.3252006 196:0.89492935 197:0.81591469 198:1.451102 199:1.9967062 200:1.6399784 
0 0.001845065820122674 1:-0.17475437 2:-0.41022506 3:-0.33074614 4:-0.12094602 5:0.16543688 6:0.43390867 7:0.66573292 8:0.73178154 9:0.85036325 10:0.27151313 11:-0.096293636 12:-0.21018258 13:-0.12792498 14:0.059361085 15:0.1837727 16:0.1994267 17:0.12115322 18:0.013173616 19:0.50651395 20:1.0311103 21:-0.54810727 22:-0.66926962 23:-0.55216992 24:-0.31143317 25:0.046289403 26:0.3860212 27:0.6290642 28:0.77616185 29:0.90811926 30:0.31001988 31:-0.062893495 32:-0.23887843 33:-0.21703129 34:0.025148215 35:0.25718758 36:0.3474727 37:0.28319708 38:0.095232114 39:0.62277657 40:1.1333463 41:-0.92356932 42:-0.82743531 43:-0.58312511 44:-0.24753322 45:0.12047254 46:0.38758594 47:0.51388669 48:0.70581222 49:0.60548401 50:0.13151585 51:-0.22076073 52:-0.46989366 53:-0.49086463 54:-0.23744634 55:0.070986755 56:0.28953606 57:0.39562011 58:0.33393303 59:0.58967876 60:0.91060692 61:-0.91766894 62:-0.85917813 63:-0.55938727 64:-0.17186382 65:0.20010222 66:0.39361179 67:0.34705213 68:0.39092577 69:0.19123228 70:-0.05092077 71:-0.39996442 72:-0.68643516 73:-0.76011813 74:-0.54293823 75:-0.14733389 76:0.22350703 77:0.41648093 78:0.39861915 79:0.56714153 80:0.62309963 81:-0.13404876 82:-0.26289815 83:-0.089670382 84:0.23398314 85:0.43018359 86:0.55589712 87:0.95608491 88:0.1396995 89:-0.091758057 90:-0.14737065 91:-0.44524208 92:-0.72582716 93:-0.80051744 94:-0.6030975 95:-0.20468166 96:0.18222316 97:0.3375268 98:0.29707736 99:0.70117784 100:0.6574229 101:0.86449534 102:0.62704331 103:0.62747753 104:0.63117999 105:0.56367487 106:0.80929697 107:1.0611514 108:0.1154746 109:-0.23597348 110:-0.26529342 111:-0.57820308 112:-0.86442268 113:-0.92252249 114:-0.85641676 115:-0.6034162 116:-0.4812052 117:-0.52039164 118:-0.6419608 119:0.20383032 120:-0.13489687 121:1.2799035 122:0.8798852 123:0.44657126 124:-0.046091918 125:-0.89164698 126:-0.99587846 127:-0.11751974 128:-0.26278475 129:-0.44676968 130:-0.34665284 131:-0.54033774 132:-0.58158475 133:-0.43524981 134:-0.41372168 135:-0.61468452 136:-0.86191076 137:-0.99892306 138:-0.68514937 139:0.61072749 140:0.61142713 141:1.4890463 142:1.1753515 143:0.64261997 144:-0.30680078 145:-1.1788014 146:-1.1222981 147:-0.40404081 148:-0.49690115 149:-0.78141922 150:-0.54872751 151:-0.44418192 152:-0.14760077 153:0.2012136 154:0.14211273 155:-0.6821456 156:-1.3435423 157:-1.4304426 158:-0.82588071 159:0.81182849 160:1.1162233 161:0.25508484 162:-0.18368016 163:-0.74360853 164:-1.0689666 165:-1.1104388 166:-1.038772 167:-0.71094942 168:-0.58592486 169:-0.64059114 170:-0.64092547 171:-0.53678584 172:-0.1017072 173:0.25388822 174:0.059744444 175:-0.86464554 176:-1.3758765 177:-0.88178504 178:0.089401878 179:0.29137015 180:0.14699396 181:-0.45515567 182:-0.7563653 183:-0.88586771 184:-0.80230546 185:-0.8476249 186:-0.99426681 187:-1.1963923 188:-0.99855465 189:-0.71351373 190:-0.8575877 191:-0.72308195 192:-0.29215619 193:0.020838395 194:-0.24987061 195:-1.0737573 196:-1.2749677 197:-0.36977407 198:0.50758183 199:-0.58561879 200:-0.72333753 
0.03115479353099487 0.003591829256780664 1:1.2828326 2:0.71587431 3:0.37553096 4:0.18308626 5:0.19665135 6:0.32644629 7:0.42055044 8:0.48186776 9:0.56648123 10:0.75485307 11:0.52961498 12:0.25785506 13:0.034938786 14:-0.064308159 15:-0.077242859 16:-0.019479003 17:-0.1079503 18:-0.22598042 19:-0.61113912 20:-1.4978603 21:0.58379084 22:0.30110797 23:0.22297008 24:0.1924396 25:0.24795087 26:0.35685208 27:0.45769665 28:0.51415509 29:0.47237575 30:0.47172517 31:0.30516663 32:-0.00064608507 33:-0.25060454 34:-0.35391101 35:-0.346039 36:-0.2200114 37:-0.1258826 38:-0.051597893 39:-0.21403927 40:-0.92652762 41:0.44946674 42:0.28530562 43:0.28516081 44:0.31900573 45:0.37477931 46:0.42178297 47:0.4703182 48:0.55206323 49:0.19439588 50:0.31844923 51:0.20663486 52:-0.086494505 53:-0.31682009 54:-0.38408971 55:-0.35299686 56:-0.17283832 57:0.013049509 58:0.2524972 59:0.28746328 60:-0.37006643 61:0.75047475 62:0.58935773 63:0.62928885 64:0.67666876 65:0.66691136 66:0.61483091 67:0.67252862 68:0.6267603 69:0.017193273 70:0.19846191 71:0.06754595 72:-0.24918813 73:-0.48330393 74:-0.56141406 75:-0.50395751 76:-0.34396264 77:-0.0072930916 78:0.47730276 79:0.8018592 80:0.2224143 81:1.3765599 82:1.1844298 83:1.2981982 84:1.283558 85:1.0483907 86:0.82356256 87:0.95608491 88:0.27235427 89:-0.028758926 90:0.1193431 91:-0.038770363 92:-0.44382364 93:-0.72238588 94:-0.85916215 95:-0.86530632 96:-0.74026352 97:-0.34017766 98:0.361707 99:1.2467439 100:0.6574229 101:1.7963296 102:1.7251965 103:1.8104023 104:1.5326228 105:1.1218834 106:0.43800205 107:0.091774017 108:0.14947164 109:0.12537226 110:0.22373229 111:0.019652179 112:-0.35483795 113:-0.52997994 114:-0.52942377 115:-0.43669021 116:-0.4812052 117:-0.27787107 118:0.37719902 119:1.3964901 120:1.008028 121:1.2799035 122:1.1864744 123:1.3090903 124:1.2893372 125:0.9802047 126:0.26118869 127:0.21767102 128:0.41722879 129:0.45150647 130:0.4376756 131:0.11252785 132:-0.29757962 133:-0.21488591 134:0.086019464 135:0.30695179 136:-0.32149917 137:-0.60548872 138:-0.050220437 139:0.71577972 140:0.92621076 141:0.224718 142:-0.045658506 143:-0.1681706 144:-0.18264943 145:-0.2695815 146:-0.15079549 147:0.22794256 148:0.62097347 149:0.7798757 150:0.61421108 151:0.16701424 152:-0.25440916 153:-0.021101085 154:0.530891 155:0.72630894 156:-0.10173041 157:-0.76712501 158:-0.60246503 159:0.072011314 160:0.71330392 161:-0.27695236 162:-0.54518598 163:-0.64307481 164:-0.40697354 165:-0.17861208 166:0.11086529 167:0.40730262 168:0.79307556 169:0.98429596 170:0.54563957 171:-0.049923986 172:-0.30609149 173:0.15128954 174:0.94466245 175:1.1979187 176:0.1615613 177:-1.1102669 178:-1.3695613 179:-0.73311377 180:0.42979753 181:-0.20103513 182:-0.26489443 183:-0.085991606 184:0.26799986 185:0.50568104 186:0.76228726 187:0.97774965 188:1.1009519 189:1.0656313 190:0.38669023 191:-0.20638634 192:-0.42320448 193:-0.034048371 194:0.66485757 195:0.84540898 196:-0.13835497 197:-1.1602333 198:-1.3794585 199:-0.84385127 200:0.039022442 
0.003179347550886471 0 1:1.4746203 2:0.55874419 3:0.37553096 4:0.39769727 5:0.4619745 6:0.57207465 7:0.5606547 8:0.33191946 9:0.046030771 10:-0.073729701 11:-0.2407341 12:-0.43305764 13:-0.54671752 14:-0.6331867 15:-0.62537551 16:-0.51201683 17:-0.30841589 18:-0.16619191 19:-0.037983701 20:0.35504887 21:0.66868317 22:0.09583579 23:0.064778253 24:0.1924396 25:0.36318597 26:0.54645133 27:0.61192745 28:0.48795441 29:0.12378092 30:-0.10579376 31:-0.24692357 32:-0.38181785 33:-0.4520441 34:-0.51636493 35:-0.50171036 36:-0.3671369 37:-0.19406253 38:-0.0026545576 39:0.14097351 40:0.42219937 41:0.23640941 42:-0.11786139 43:-0.13451073 44:-0.033167139 45:0.18404923 46:0.47307855 47:0.68816066 48:0.70581222 49:0.19439588 50:-0.038423594 51:-0.23411684 52:-0.43023169 53:-0.50536835 54:-0.56332052 55:-0.53733754 56:-0.42504254 57:-0.22605711 58:0.0081896437 59:0.22702017 60:0.53577572 61:0.37700975 62:0.028050104 63:-0.094253123 64:-0.075439662 65:0.072790645 66:0.39361179 67:0.78102082 68:0.7446776 69:0.066918701 70:-0.094929479 71:-0.27361026 72:-0.46118671 73:-0.54481822 74:-0.59836566 75:-0.6154024 76:-0.47907448 77:-0.2354791 78:0.083884686 79:0.47325447 80:0.82344234 81:1.040869 82:0.6928845 83:0.35444757 84:0.14137359 85:0.12108003 86:0.37745351 87:0.95608491 88:0.31657255 89:0.013240494 90:-0.13255322 91:-0.3050794 92:-0.44382364 93:-0.54658985 94:-0.67991692 95:-0.70015019 96:-0.6564011 97:-0.39230877 98:0.038558763 99:0.54530185 100:0.99209023 101:1.7116174 102:1.4811624 103:0.80272561 104:0.330699 105:0.067489557 106:0.15953086 107:0.2302565 108:0.047480498 109:-0.065928429 110:-0.23036303 111:-0.41515166 112:-0.43976876 113:-0.52997994 114:-0.73379439 115:-0.93686813 116:-0.89406663 117:-0.60123181 118:-0.086055435 119:0.40260693 120:0.90412575 121:1.7701583 122:1.6463585 123:1.2182988 124:0.98583055 125:0.57328039 126:0.11329843 127:-0.11751974 128:-0.16563995 129:-0.297057 130:-0.57733768 131:-0.71610928 132:-0.24077858 133:-0.21488591 134:-0.41372168 135:-0.61468452 136:-0.68177354 137:-0.40877154 138:-0.050220437 139:0.61072749 140:1.1360666 141:1.4207042 142:1.3279778 143:1.0986897 144:0.93471259 145:0.4577944 146:0.10486308 147:-0.066983007 148:-0.1723569 149:-0.29351458 150:-0.64563906 151:-0.74978 152:-0.14760077 153:-0.065564021 154:-0.24666557 155:-0.41806039 156:-0.61915207 157:-0.43546623 158:-0.043925855 159:0.60045218 160:1.0154935 161:1.3524115 162:1.2623433 163:1.0659989 164:0.68058658 165:0.20258974 166:-0.20627603 167:-0.40246609 168:-0.38892481 169:-0.23436938 170:-0.3135972 171:-0.37449858 172:-0.18346092 173:-0.25910515 174:-0.38271457 175:-0.66821086 176:-0.71697462 177:-0.42482135 178:-0.022826053 179:0.49626693 180:0.90113676 181:1.3236881 182:1.1744132 183:1.0947778 184:0.91018307 185:0.50568104 186:0.045326419 187:-0.28096414 188:-0.27015439 189:-0.12046538 190:0.075620741 191:-0.034154464 192:-0.33583897 193:-0.41825575 194:-0.55478001 195:-0.689924 196:-0.75832558 197:-0.46858147 198:-0.24723431 199:0.27515626 200:0.49643844 
0 0.004304820793615568 1:-0.67340255 2:-0.54116684 3:-0.41383758 4:0.14731775 5:0.38393828 6:0.52601933 7:0.63070685 8:0.73178154 9:0.99230427 10:0.5822317 11:0.45739478 12:0.34700507 13:0.2210688 14:0.13356264 15:0.26207736 16:0.28151631 17:0.26434293 18:0.22243339 19:0.39188284 20:0.17977367 21:-0.85937923 22:-0.72525293 23:-0.63126582 24:-0.11293784 25:0.26235527 26:0.50269765 27:0.61192745 28:0.69755983 29:0.86454493 30:0.37932214 31:0.30516663 32:0.22170411 33:0.15227458 34:0.11540041 35:0.19881082 36:0.24238305 37:0.23774378 38:0.19311878 39:0.3184799 40:0.15245396 41:-0.7815311 42:-0.73067528 43:-0.713368 44:-0.40065184 45:-0.0066808597 46:0.33629036 47:0.55745518 48:0.66737497 49:0.39993992 50:0.11452191 51:-0.033775155 52:-0.15259781 53:-0.18628669 54:-0.090802945 55:-0.058051739 56:-0.025719197 57:-0.082593143 58:-0.20897262 59:-0.13563845 60:-0.24512269 61:-0.74338526 62:-0.76864463 63:-0.83502233 64:-0.63469976 65:-0.24548833 66:0.22155251 67:0.52787244 68:0.33196712 69:0.017193273 70:-0.094929479 71:-0.28624567 72:-0.43468687 73:-0.46792537 74:-0.33970439 75:-0.32564571 76:-0.34396264 77:-0.4636651 78:-0.70295143 79:-0.74727738 80:-0.82938468 81:-0.77186126 82:-0.78175157 83:-0.70033252 84:-0.41428366 85:0.018045506 86:0.51128626 87:0.72426701 88:-0.037173539 89:-0.13375747 90:-0.19182295 91:-0.36114448 92:-0.44382364 93:-0.44892541 94:-0.37263927 95:-0.30377537 96:-0.15322654 97:-0.18378432 98:-0.47847843 99:-0.23407817 100:-0.43024603 101:-0.87210488 102:-0.79648864 103:-0.51163524 104:-0.12002244 105:0.43962854 106:1.3662393 107:0.7149452 108:-0.054510649 109:-0.17220658 110:-0.33515424 111:-0.50573581 112:-0.54593223 113:-0.55801868 114:-0.65204614 115:-0.54784089 116:-0.34358475 117:-0.27787107 118:-0.54930991 119:-0.19372292 120:-0.23879914 121:-0.19086069 122:-0.078206323 123:-0.23436476 124:-0.10679324 125:0.24774098 126:0.40907896 127:-0.021750955 128:-0.29516634 129:-0.32200912 130:-0.50813222 131:-0.6407786 132:-0.52478373 133:-0.3985225 134:-0.52477527 135:-0.46107844 136:-0.23143058 137:-0.31041294 138:-0.89679235 139:-0.64989966 140:-0.7526353 141:0.3955732 142:0.67931616 143:0.54127115 144:0.68640995 145:0.70025301 146:0.46278509 147:0.017281437 148:-0.3165988 149:-0.48867643 150:-0.77485442 151:-0.81769067 152:-0.43242314 153:-0.19895282 154:-0.4410547 155:-0.59411722 156:-0.30869907 157:-0.6565721 158:-1.3844199 159:-1.1962467 160:-1.0998334 161:0.45459878 162:0.86067009 163:0.61359704 164:0.53873092 165:0.41436851 166:0.26943594 167:0.098819301 168:-0.034324713 169:-0.15312502 170:-0.43634531 171:-0.41507038 172:-0.019953478 173:0.20258889 174:-0.087741889 175:-0.27534148 176:-0.16788968 177:-0.53906226 178:-1.3695613 179:-1.3478042 180:-0.88995242 181:1.0060375 182:1.5956739 183:1.2852246 184:0.94585991 185:0.57508129 186:0.22456662 187:-0.013964252 188:-0.055919036 189:0.016391929 190:-0.057694744 191:0.0089035043 192:0.36308521 193:0.51481932 194:0.20749347 195:-0.11417415 196:-0.13835497 197:-0.56738889 198:-1.3794585 199:-1.1881613 200:-0.64710152 
0 0.0008492280008712545 1:-0.78847516 2:-0.75067371 3:-0.39306474 4:0.25462326 5:0.69608313 6:0.47996399 7:0.31547222 8:0.55684191 9:0.94499063 10:0.54770738 11:0.45739478 12:0.19099253 13:0.29086757 14:0.55403805 15:0.73190534 16:0.91087019 17:1.152119 18:1.2986265 19:1.2229582 20:1.2314248 21:-0.91597414 22:-0.79989737 23:-0.56798911 24:-0.021324605 25:0.49282551 26:0.40060577 27:0.38914964 28:0.85476387 29:1.0388423 30:0.10211306 31:-0.01270348 32:-0.14358549 33:-0.065951608 34:0.097349972 35:0.27664652 36:0.49459818 37:0.76045668 38:1.0006838 39:1.1045797 40:1.2314355 41:-0.99458843 42:-0.82743531 43:-0.69889659 44:-0.2628451 45:0.34299096 46:0.28499478 47:0.40496543 48:1.3208081 49:0.67399865 50:-0.1913691 51:-0.31425351 52:-0.33768708 53:-0.27330896 54:-0.13968408 55:0.052552681 56:0.31055307 57:0.63472676 58:1.0397104 59:1.314996 60:1.5353256 61:-0.99236196 62:-0.71432453 63:-0.66275042 64:-0.30685765 65:0.34863243 66:0.17239271 67:0.31088805 68:1.4521813 69:0.216095 70:-0.38832086 71:-0.45050606 72:-0.36843732 73:-0.28338259 74:-0.13647051 75:0.053266902 76:0.27755177 77:0.64466691 78:1.1461135 79:1.5529557 80:1.7249843 81:-1.0068449 82:-0.61790311 83:-0.70033252 84:-0.38341382 85:0.36149392 86:-0.068655573 87:-0.048459288 88:0.62610036 89:-0.049758635 90:-0.56225872 91:-0.65548605 92:-0.52215797 93:-0.44892541 94:-0.32142633 95:-0.13861918 96:0.056429524 97:0.3375268 98:0.7494849 99:1.0129299 100:1.075757 101:0.059729371 102:0.098302871 103:-0.16113904 104:0.18045853 105:1.0598601 106:-0.026116587 107:-0.66987962 108:-0.054510649 109:-0.19346221 110:-0.52727151 111:-0.59631991 112:-0.56716496 113:-0.47390246 114:-0.28417903 115:0.063487701 116:0.4821381 117:0.69221127 118:0.84045345 119:0.80016017 120:0.69632119 121:0.75193691 122:0.61161959 123:0.31038406 124:0.68232393 125:1.7126684 126:0.33513382 127:-0.45271051 128:-0.23040314 129:-0.27210489 130:-0.46199527 131:-0.49011731 132:-0.60998523 133:-0.54543173 134:-0.30266809 135:0.15334573 136:0.66925538 137:0.77153146 138:0.69052994 139:0.2955707 140:0.19171561 141:0.87396771 142:0.41222024 143:-0.11749619 144:0.0035775728 145:0.39717972 146:0.0025996533 147:-0.36190858 148:-0.3165988 149:-0.29351458 150:-0.32260054 151:-0.24044986 152:-0.68164271 153:-0.68804514 154:-0.37625831 155:0.11011006 156:0.62265992 157:0.89116895 158:0.84973687 159:0.60045218 160:0.51184422 161:1.1196452 162:0.70000082 163:0.21146204 164:0.065878667 165:0.11787821 166:0.071222633 167:-0.20966402 168:-0.46772483 169:-0.47810245 170:-0.23176512 171:-0.09049581 172:-0.71486008 173:-0.82339787 174:-0.5302009 175:0.019310556 176:0.49101225 177:0.71758789 178:0.76276946 179:0.70116371 180:0.80686891 181:0.68838674 182:0.40210178 183:-0.085991606 184:-0.44553703 185:-0.57002372 186:-0.27730596 187:-0.20467846 188:-0.57008392 189:-0.62227553 190:-0.36876422 191:-0.20638634 192:-0.33583897 193:-0.36336896 194:-0.17364328 195:0.17370078 196:0.3782872 197:0.32187769 198:0.31887782 199:0.36123374 200:0.49643844 
0.01224098251638717 0 1:-1.1336931 2:-1.0911224 3:-0.76697612 4:-0.37132555 5:0.11861514 6:0.47996399 7:0.57816774 8:0.35691085 9:-0.52173334 10:-0.8677882 11:-0.89071614 12:-0.94567031 13:-0.91897756 14:-0.90525901 15:-0.93859416 16:-0.89510179 17:-0.93845057 18:-1.2124908 19:-1.6428188 20:-1.5980176 21:-1.1423538 22:-1.0238307 23:-0.75781929 24:-0.4030464 25:0.10390696 26:0.45894399 27:0.49197015 28:0.12114494 29:-0.9655779 30:-0.77571571 31:-0.68190372 32:-0.68357885 33:-0.67027032 34:-0.66076845 35:-0.67684066 36:-0.66138792 37:-0.67132217 38:-0.85916293 39:-1.1776454 40:-1.1962731 41:-1.0419345 42:-0.92419541 43:-0.68442512 44:-0.37002814 45:0.12047254 46:0.49017707 47:0.42674971 48:-0.37043062 49:-1.2444125 50:-0.75216925 51:-0.60808802 52:-0.54921764 53:-0.56338322 54:-0.54702681 55:-0.51890349 56:-0.42504254 57:-0.41734242 58:-0.56186128 59:-0.89117724 60:-0.9635492 61:-1.0172596 62:-0.96781832 63:-0.74888635 64:-0.44185147 65:0.094009243 66:0.51651126 67:0.23855995 68:-1.4957508 69:-1.3005307 70:-0.88708621 71:-0.72848523 72:-0.64668548 73:-0.7139824 74:-0.70922053 75:-0.65998036 76:-0.5331192 77:-0.52886111 78:-0.74229324 79:-1.1697692 80:-1.1298987 81:-0.83899945 82:-0.78175157 83:-0.47827357 84:-0.19819473 85:0.018045506 86:-0.11326648 87:-1.7484572 88:-1.982777 89:-1.2257423 90:-0.81415504 91:-0.66950232 92:-0.56915855 93:-0.64425433 94:-0.70552337 95:-0.66711897 96:-0.48867622 97:-0.39230877 98:-0.60773772 99:-1.0913962 100:-0.84858024 101:-0.78739268 102:-0.63379925 103:-0.029702947 104:0.2305387 105:-0.18060309 106:-1.7897674 107:-2.8163581 108:-1.8223572 109:-1.1499656 110:-0.77178437 111:-0.63255358 112:-0.50346684 113:-0.58605748 114:-0.81554264 115:-0.88129282 116:-0.6876359 117:-0.52039164 118:-0.6419608 119:-0.98882943 120:-0.44660366 121:-0.86967498 122:-0.80635589 123:-0.37055197 124:-0.34959853 125:-1.5427258 126:-2.6966164 127:-2.3680863 128:-1.687575 129:-1.0955247 130:-0.76188558 131:-0.61566842 132:-0.35438064 133:-0.43524981 134:-0.74688244 135:-0.99869961 136:-0.77184218 137:-0.60548872 138:-0.68514937 139:-0.75495195 140:-0.01814015 141:-0.80041313 142:-0.8469463 143:-0.52289146 144:-0.6171791 145:-1.5424893 146:-2.1960642 147:-2.0050652 148:-1.5065944 149:-1.0091081 150:-0.74255061 151:-0.47813725 152:-0.18320356 153:-0.33234164 154:-0.57064748 155:-0.94623083 156:-0.92960507 157:-0.6565721 158:-0.60246503 159:-0.5621177 160:0.31038454 161:-0.90874648 162:-1.0271938 163:-0.74360853 164:-0.59611446 165:-1.1104388 166:-1.4748414 167:-1.4050369 168:-1.1375251 169:-0.76245773 170:-0.60000944 171:-0.41507038 172:-0.18346092 173:-0.31040448 174:-0.60394406 175:-0.96286285 176:-0.93660861 177:-0.76754415 178:-0.58396572 179:-0.42576858 180:0.24126182 181:-1.1222221 182:-1.2829412 183:-1.0763143 184:-0.9806897 185:-1.2293266 186:-1.2810512 187:-1.0819638 188:-0.82716632 189:-0.5766564 190:-0.50207973 191:-0.50779212 192:-0.46688724 193:-0.52802926 194:-0.78346205 195:-0.97779894 196:-0.86165398 197:-0.66619629 198:-0.81334645 199:-0.84385127 200:-0.34215754 
0.004381765508070976 0.00095990757019054 1:1.2828326 2:0.55874419 3:-0.019153306 4:-0.22825153 5:0.009364441 6:0.43390867 7:0.68324596 8:0.75677294 9:0.99230427 10:0.37508598 11:-0.096293636 12:-0.21018258 13:0.058205035 14:0.23249803 15:0.34038204 16:0.58251166 17:0.49344644 18:0.37190467 19:0.33456731 20:0.054577112 21:0.69698066 22:0.077174686 23:-0.29906297 24:-0.35723978 25:-0.097754501 26:0.21100652 27:0.40628639 28:0.8023625 29:1.0824167 30:-0.2443983 31:-0.38076362 32:-0.44534647 33:-0.23381792 34:-0.047053542 35:0.023680525 36:0.15831132 37:0.26047042 38:0.29100546 39:0.19168963 40:0.02984241 41:0.42579371 42:-0.06948135 43:-0.36605364 44:-0.35471627 45:-0.10204591 46:0.028516933 47:0.01284897 48:1.0517474 49:0.84528542 50:-0.65020561 51:-0.62144411 52:-0.7078656 53:-0.5488795 54:-0.31891489 55:-0.2055243 56:-0.17283832 57:0.013049509 58:0.2253519 59:0.045690864 60:-0.02647114 61:0.50149804 62:0.13669029 63:-0.094253123 64:-0.075439662 65:0.094009243 66:0.074073121 67:-0.086916573 68:0.98051214 69:0.41499674 70:-0.49100783 71:-0.48841232 72:-0.59368581 73:-0.45254681 74:-0.15494631 75:0.097844854 76:0.30457413 77:0.28608891 78:0.31993553 79:0.28548035 80:0.27249998 81:0.87302363 82:0.7748087 83:0.6042639 84:0.57355148 85:0.46452844 86:0.19900988 87:-0.43482244 88:0.1396995 89:0.11823905 90:-0.4140844 91:-0.45925832 92:-0.61615914 93:-0.50752407 94:-0.14218104 95:0.25775561 96:0.68539768 97:0.49392012 98:0.361707 99:0.54530185 100:0.57375604 101:1.0339197 102:1.8065412 103:1.8542143 104:1.7329435 105:1.1218834 106:0.34517834 107:-0.53139716 108:-0.22449589 109:-0.10843969 110:-0.35261944 111:-0.48761898 112:-0.75825924 113:-0.72625124 114:-0.36592728 115:0.11906303 116:0.82618928 117:0.3688505 118:0.19189723 119:0.60138357 120:1.008028 121:0.48795357 122:1.6846821 123:1.9900262 124:1.835649 125:0.49189556 126:-0.55220771 127:-0.50059491 128:-0.42469272 129:-0.24715276 130:-0.23131043 131:-0.41478667 132:-0.66678625 133:-0.65561366 134:-0.58030206 135:-0.53788149 136:-0.23143058 137:0.083021387 138:0.90217292 139:1.5561979 140:1.9754896 141:-0.11699237 142:1.137195 143:1.5040849 144:0.87263697 145:-0.69388413 146:-0.86663949 147:-0.40404081 148:-0.35265926 149:-0.19593364 150:0.065045655 151:-0.13858384 152:-0.36121756 153:-0.37680456 154:-0.63544387 155:-1.1222876 156:-1.2400581 157:-0.21436036 158:1.5199839 159:2.1857748 160:2.4257114 161:-0.34345698 162:0.41882959 163:0.46279639 164:-0.45425877 165:-1.237506 166:-0.9991293 167:-0.32534528 168:-0.19192477 169:0.0093636923 170:0.50472355 171:0.31522241 172:0.18443082 173:0.20258889 174:-0.30897141 175:-1.1592976 176:-1.4856936 177:-0.082098573 178:1.6605929 179:2.2378895 180:2.1266189 181:-0.2328002 182:-0.12447417 183:-0.2764383 184:-0.80230546 185:-1.1599263 186:-0.8508746 187:-0.12839277 188:0.11546925 189:0.33572567 190:0.74219817 191:0.65477306 192:0.7125473 193:0.84413987 194:0.4361755 195:-0.30609077 196:-0.24168341 197:0.51949251 198:1.6398062 199:1.7384738 200:1.2587985 
-0.0005680104852996614 0.002115885833151815 1:1.7431232 2:1.8943504 3:1.7049938 4:1.1488359 5:0.71169037 6:0.58742642 7:0.71827203 8:0.88172984 9:0.80304956 10:-0.10825398 11:-0.31295434 12:-0.21018258 13:-0.081392474 14:-0.064308159 15:0.1837727 16:0.4183324 17:0.5507223 18:0.82031846 19:1.0223538 20:1.006071 21:1.5459042 22:1.5700634 23:1.5201432 24:1.1849163 25:0.76650894 26:0.50269765 27:0.68047446 28:1.0119679 29:0.86454493 30:-0.17509604 31:-0.48114365 32:-0.47711077 33:-0.38489759 34:-0.31781012 35:-0.09307301 36:0.11627547 37:0.28319708 38:0.51125044 39:0.77492493 40:0.86360091 41:1.3016961 42:1.3174132 43:1.3415754 44:1.17647 45:0.83571041 46:0.43888152 47:0.7099449 48:1.3592453 49:0.57122666 50:-0.20836304 51:-0.50123912 52:-0.53599697 53:-0.44735351 54:-0.367796 55:-0.15022209 56:0.058348875 57:0.25215614 58:0.55109531 59:0.92211586 60:1.0667866 61:1.0243491 62:1.0239185 63:1.1116502 64:1.0237957 65:0.81544155 66:0.39361179 67:0.81718487 68:1.6880158 69:0.3652713 70:-0.18294689 71:-0.41259983 72:-0.42143697 73:-0.31413972 74:-0.22884955 75:-0.080466963 76:0.061372843 77:0.31868693 78:0.63466996 79:1.1774075 80:1.4244703 81:1.1080072 82:1.1025056 83:1.1871687 84:1.0057293 85:0.70494229 86:0.24362078 87:1.1879028 88:1.0240647 89:0.22323759 90:-0.20664038 91:-0.41720954 92:-0.38115621 93:-0.23406363 94:-0.21900044 95:-0.10558796 96:0.14029194 97:0.441789 98:0.81411457 99:1.3246819 100:1.4940913 101:0.94920754 102:1.0337667 103:1.0217857 104:0.58109981 105:0.37760538 106:0.34517834 107:1.1996338 108:0.82941264 109:0.23165041 110:-0.21289782 111:-0.37891802 112:-0.22744177 113:-0.053321164 114:-0.16155666 115:0.23021367 116:0.75737906 117:1.0964123 118:1.3963588 119:1.4958783 120:1.3197348 121:0.26168215 122:0.3816776 123:0.40117553 124:-0.22819588 125:-0.56610757 126:-0.18248208 127:0.55286175 128:0.5143736 129:0.15208107 130:-0.20824194 131:-0.36456624 132:-0.12717654 133:0.18911456 134:0.19707306 135:0.6909669 136:1.2997355 137:1.4600416 138:1.4312804 139:1.2410411 140:1.0311387 141:-0.082821332 142:0.22143744 143:0.64261997 144:0.065653242 145:-0.45142549 146:-0.15079549 147:0.14367811 148:-0.064175494 149:-0.16340667 150:-0.19338514 151:-0.37627125 152:-0.25440916 153:0.37906533 154:0.98446572 155:1.2544794 156:1.7609875 157:1.6650395 158:1.1848603 159:0.91751671 160:0.91476363 161:-0.67598021 162:-0.54518598 163:-0.29120669 164:-0.69068491 165:-0.77159268 166:-0.48377469 167:0.021698471 168:0.044475313 169:0.0093636923 170:0.054647144 171:-0.13106763 172:-0.18346092 173:0.25388822 174:0.57594663 175:1.1979187 176:1.6989992 177:1.6315154 178:1.0994533 179:0.80361211 180:0.80686891 181:-0.99516183 182:-1.0021007 183:-0.92395705 184:-1.1233971 185:-1.1946265 186:-1.1018109 187:-0.35724983 188:0.11546925 189:0.33572567 190:0.34225172 191:0.18113539 192:0.013623117 193:-0.088935137 194:-0.70723468 195:0.2696591 196:1.2049147 197:1.1123369 198:0.6019339 199:0.44731125 200:0.42020243 
-5.120721189183191e-005 0.0001599005598517221 1:1.6664081 2:1.789597 3:1.6842209 4:1.3455626 5:0.89897728 6:0.61812997 7:0.50811559 8:0.73178154 9:0.80304956 10:0.064367428 11:0.26480749 12:0.41386759 13:0.15127005 14:-0.2374451 15:-0.33825842 16:-0.21102148 17:-0.19386412 18:-0.34555742 19:-0.26724586 20:-0.14573739 21:1.659094 22:1.5140799 23:1.4410473 24:1.2765296 25:0.93936157 26:0.6193741 27:0.50910693 28:0.77616185 29:0.69024748 30:-0.036491483 31:0.2382466 32:0.5075829 33:0.3201409 34:-0.10120486 35:-0.28766224 36:-0.2200114 37:-0.23951583 38:-0.36972958 39:-0.34082955 40:-0.19085838 41:1.988214 42:1.5915668 43:1.4139326 44:1.2836531 45:0.99465215 46:0.66116232 47:0.51388669 48:0.89799845 49:0.26291057 50:-0.15738121 51:0.26005933 52:0.6274212 53:0.49538776 54:0.0069593103 55:-0.37143093 56:-0.42504254 57:-0.44125307 58:-0.58900654 59:-0.52851862 60:-0.37006643 61:1.9704604 62:1.6214396 63:1.4045124 64:1.2937834 65:1.0912833 66:0.73773038 67:0.67252862 68:1.0984294 69:-0.057394877 70:-0.10959905 71:0.44660839 72:0.98305357 73:0.94690257 74:0.34390047 75:-0.28106776 76:-0.5331192 77:-0.52886111 78:-0.58492601 79:-0.51255971 80:-0.27844238 81:1.8800961 82:1.7032832 83:1.4092276 84:1.2218183 85:1.1514252 86:1.0020062 87:1.4197206 88:0.89140993 89:-0.21775632 90:0.00080365839 91:0.80220556 92:1.639869 93:1.8364227 94:1.061323 95:-0.13861918 96:-0.78219473 97:-0.75722653 98:-0.54310811 99:-0.38995418 100:-0.095578663 101:1.3304125 102:1.4811624 103:1.1532218 104:1.0318213 105:1.2459297 106:1.3662393 107:1.0611514 108:0.72742146 109:-0.25722912 110:0.13640627 111:1.2515965 112:2.4478781 113:2.974864 114:2.1682684 115:0.34136432 116:-0.75644612 117:-0.68207204 118:-0.3640081 119:-0.19372292 120:0.17680991 121:0.073122628 122:0.26670662 123:0.12880111 124:0.37881735 125:1.2243593 126:1.1485302 127:1.0317057 128:1.0000975 129:-0.19724853 130:0.34540167 131:1.870243 132:3.3092854 133:3.9353006 134:3.1399932 135:0.92137593 136:-0.23143058 137:-0.31041294 138:-0.15604192 139:-0.019586094 140:0.2966435 141:-0.082821332 142:0.1451243 143:0.2372247 144:0.68640995 145:1.063941 146:0.61618024 147:0.85992593 148:1.2340015 149:-0.29351458 150:0.3557803 151:2.1703794 152:3.412679 153:3.7582486 154:2.7987645 155:0.90236574 156:0.0017539249 157:-0.32491329 158:-0.60246503 159:-0.66780591 160:-0.29399458 161:0.25508484 162:0.74016815 163:1.2167995 164:1.4371501 165:1.2614837 166:0.66586262 167:0.75434637 168:1.2264757 169:-0.59996897 170:0.095563181 171:1.8163799 172:2.80055 173:2.972753 174:1.9770668 175:0.51039726 176:0.1615613 177:-0.42482135 178:-1.1451054 179:-1.3478042 180:-0.88995242 181:0.33897102 182:0.54252201 183:0.82815248 184:0.91018307 185:0.78328222 186:0.58304703 187:0.59632123 188:0.62963414 189:-0.53103733 190:0.12005924 191:1.3006426 192:1.8919818 193:2.0516489 194:1.3509036 195:0.36561739 196:0.17163032 197:-0.17215928 198:-0.81334645 199:-1.0160064 200:-0.64710152 
-0.002923924878606792 0 1:0.055390947 2:0.58493257 3:0.35475811 4:0.20097052 5:0.22786584 6:0.4185569 7:0.50811559 8:0.38190222 9:0.046030771 10:-0.10825398 11:-0.31295434 12:-0.5890702 13:-0.84917879 14:-0.88052517 15:-0.91249263 16:-0.84037536 17:-0.68070912 18:-0.5548172 19:-0.84040129 20:-0.97203469 21:0.38570866 22:0.82361901 23:0.74500316 24:0.5130859 25:0.36318597 26:0.53186679 27:0.54338044 28:0.25214833 29:-0.3991113 30:-0.33680132 31:-0.43095362 32:-0.63593233 33:-0.83813661 34:-0.84127289 35:-0.81305313 36:-0.74545962 37:-0.67132217 38:-0.4920879 39:-0.64512622 40:-0.8039161 41:0.63885105 42:1.0110062 43:0.99426097 44:0.73242605 45:0.45425019 46:0.64406377 47:0.60102367 48:-0.1013699 49:-0.83332437 50:-0.51425403 51:-0.55466354 52:-0.76074821 53:-0.9404797 54:-0.93807584 55:-0.85071677 56:-0.84538287 57:-0.77600235 58:-0.56186128 59:-0.67962635 60:-0.74489766 61:0.37700975 62:0.80663812 63:0.74987918 64:0.48382047 65:0.32741383 66:0.61483091 67:0.60020053 68:-0.49345383 69:-0.65410006 70:-0.40299043 71:-0.43787065 72:-0.62018561 73:-0.76011813 74:-0.6907447 75:-0.63769138 76:-0.69525343 77:-0.7244491 78:-0.46690062 79:-0.55950326 80:-0.62904203 81:0.033796635 82:0.52903605 83:0.24341808 84:-0.13645503 85:-0.11933386 86:0.55589712 87:0.80153966 88:-0.30248311 89:-0.44875312 90:-0.33999726 91:-0.40319327 92:-0.60049224 93:-0.70285296 94:-0.52627808 95:-0.56802523 96:-0.78219473 97:-1.0178821 98:-0.86625636 99:-0.93552017 100:-0.76491338 101:-0.36383167 102:0.098302871 103:-0.2487631 104:-0.62082404 105:-0.55274206 106:-0.30458778 107:-0.39291468 108:-0.53046936 109:-0.46978542 110:-0.40501505 111:-0.45138532 112:-0.56716496 113:-0.64213496 114:-0.5702979 115:-0.71456683 116:-1.1004974 117:-1.3287936 118:-1.1978661 119:-0.79005277 120:-0.44660366 121:-0.94509876 122:-0.76803225 123:-0.86990505 124:-0.65310514 125:-0.40333787 126:-0.55220771 127:-0.4048261 128:-0.42469272 129:-0.44676968 130:-0.53120071 131:-0.54033774 132:-0.49638319 133:-0.3985225 134:-0.69135565 135:-1.0755026 136:-1.4023223 137:-1.5890746 138:-1.2142568 139:-0.33474287 140:0.19171561 141:-1.4838339 142:-1.6863908 143:-1.8404262 144:-1.6724654 145:-1.3000307 146:-0.96890295 147:-0.61470193 148:-0.46084067 149:-0.48867643 150:-0.64563906 151:-0.54604793 152:-0.32561475 153:-0.19895282 154:-0.57064748 155:-0.77017403 156:-0.92960507 157:-0.98823088 158:-0.82588071 159:-0.033676855 160:0.31038454 161:-1.5405407 162:-1.8305402 163:-1.6986791 164:-1.4945337 165:-1.4916406 166:-1.1180574 167:-0.8651911 168:-0.78292495 169:-0.88432425 170:-0.92733777 171:-0.57735771 172:-0.18346092 173:-0.002608469 174:-0.38271457 175:0.11752789 176:0.38119528 177:0.14638329 178:-0.022826053 179:0.39381856 180:0.33552969 181:-1.4398727 182:-1.4935716 183:-1.1144037 184:-0.94501287 185:-1.0558258 186:-0.81502658 187:-0.66239256 188:-0.74147218 189:-0.89599013 190:-0.81314915 191:-0.42167619 192:-0.16110793 193:-0.14382191 194:-0.63100737 195:-0.018215841 196:0.27495876 197:0.1242629 198:-0.15288229 199:-0.069153763 200:-0.11344956 
-0.004292297568599801 0 1:0.43896645 2:0.74206269 3:0.72866952 4:0.61230832 5:0.50879622 6:0.46461222 7:0.45557651 8:0.25694531 9:-0.47441965 10:-0.79873961 11:-0.62590867 12:-0.56678271 13:-0.50018501 14:-0.53425127 15:-0.70368016 16:-0.94982821 17:-1.0816402 18:-1.1527023 19:-1.49953 20:-1.6731354 21:0.44230357 22:0.65566903 23:0.77664155 24:0.71158129 25:0.52163428 26:0.47352853 27:0.40628639 28:0.094944268 29:-0.74770612 30:-0.66021192 31:-0.5480637 32:-0.47711077 33:-0.40168422 34:-0.39001188 35:-0.54062819 36:-0.76647758 37:-0.83040869 38:-0.83469123 39:-1.0762131 40:-1.3434069 41:0.61517799 42:0.80135942 43:1.0087324 44:0.94679213 45:0.61319196 46:0.50727558 47:0.33961269 48:-0.33199337 49:-1.1416404 50:-0.75216925 51:-0.6348002 52:-0.60210031 53:-0.53437579 54:-0.48185197 55:-0.55577165 56:-0.69826376 57:-0.70427036 58:-0.61615187 59:-0.83073413 60:-1.1509649 61:0.75047475 62:0.95149171 63:1.2494677 64:1.216644 65:0.75178576 66:0.59025097 67:0.20239589 68:-1.2009575 69:-1.1513544 70:-0.87241668 71:-0.79166228 72:-0.79243445 73:-0.7139824 74:-0.6907447 75:-0.72684729 76:-0.80334288 77:-0.82224315 78:-0.66360962 79:-0.79422092 80:-1.1799843 81:0.16807295 82:0.55634409 83:0.88183761 84:1.1292087 85:1.1170805 86:0.86817348 87:0.028813343 88:-0.96575701 89:-0.93174648 90:-0.82897246 91:-0.79564869 92:-0.80416149 93:-0.76145166 94:-0.75673628 95:-0.73318142 96:-0.61446989 97:-0.54870212 98:-0.15533018 99:-0.15614016 100:-0.59757972 101:-0.82974881 102:-0.63379925 103:-0.4240112 104:0.38077918 105:1.4940224 106:1.4590631 107:0.022532776 108:-0.59846342 109:-0.76736426 110:-0.84164518 111:-0.90430599 112:-0.92812079 113:-0.866445 114:-1.1016614 115:-0.93686813 116:-0.55001545 117:-0.52039164 118:0.099246345 119:0.20383032 120:0.17680991 121:-0.83196306 122:-0.84467953 123:-0.68832213 124:-0.34959853 125:0.0035864175 126:-0.034591824 127:-0.21328853 128:-0.45707431 129:-0.62143451 130:-0.7388171 131:-0.81655014 132:-0.66678625 133:-0.54543173 134:-0.80240923 135:-0.84509355 136:-0.50163639 137:-0.50713015 138:-0.050220437 139:-0.019586094 140:-0.01814015 141:-0.76624209 142:-0.96141601 143:-0.67491472 144:-0.49302778 145:-0.69388413 146:-0.20192721 147:-0.066983007 148:-0.1723569 149:-0.42362249 150:-0.58103132 151:-0.51209259 152:-0.29001197 153:-0.11002696 154:-0.37625831 155:-0.59411722 156:-0.51566774 157:-0.6565721 158:-0.37904936 159:-0.35074136 160:-0.19326472 161:-1.2080175 162:-1.5895362 163:-1.1457435 164:-0.87982577 165:-1.1527945 166:-0.56305999 167:-0.28678486 168:-0.31012478 169:-0.5593468 170:-0.64092547 171:-0.41507038 172:-0.06083034 173:0.048690867 174:-0.23522823 175:-0.27534148 176:-0.058072694 177:-0.42482135 178:-0.24728192 179:-0.11842342 180:0.14699396 181:-1.0269269 182:-1.1074159 183:-0.42879564 184:-0.5168907 185:-1.1599263 186:-0.77917856 187:-0.66239256 188:-0.82716632 189:-1.0784665 190:-0.90202618 191:-0.42167619 192:0.013623117 193:0.13061193 194:-0.17364328 195:-0.11417415 196:0.17163032 197:-0.17215928 198:-0.24723431 199:-0.24130878 200:0.34396642 
-0.003128488935782973 0 1:0.093748495 2:0.40161404 3:0.43784955 4:0.43346578 5:0.49318898 6:0.6027782 7:0.66573292 8:0.73178154 9:0.32991284 10:-0.41897252 11:-0.50554162 12:-0.47763267 13:-0.40711999 14:-0.38584819 15:-0.41656306 16:-0.23838469 17:0.1784291 18:0.22243339 19:0.42054063 20:0.35504887 21:0.8384679 22:1.159519 23:1.2037596 24:1.0627654 25:0.79531771 26:0.64854324 27:0.61192745 28:0.69755983 29:-0.094090842 30:-0.66021192 31:-0.69863373 32:-0.68357885 33:-0.65348369 34:-0.62466758 35:-0.57954603 36:-0.53528035 37:-0.62586886 38:-0.7123329 39:-0.41690373 40:-0.28894761 41:0.92292744 42:1.2851598 43:1.3705182 44:1.2530293 45:0.91518128 46:0.66116232 47:0.64459217 48:0.89799845 49:-0.31946424 50:-0.65020561 51:-0.71493691 52:-0.73430687 53:-0.72292405 54:-0.70996392 55:-0.64794201 56:-0.6141957 57:-0.87164503 58:-1.023331 59:-0.80051255 60:-0.61995393 61:0.35211208 62:0.67989123 63:0.76710641 64:0.65738392 65:0.49716261 66:0.5410912 67:0.99800515 68:1.8059331 69:-0.032532159 70:-0.47633827 71:-0.57686025 72:-0.62018561 73:-0.66784674 74:-0.6907447 75:-0.65998036 76:-0.47907448 77:-0.26807711 78:-0.388217 79:-0.23089853 80:-0.2283567 81:0.0002275553 82:0.25595528 83:0.29893282 84:0.017894205 85:-0.11933386 86:0.42206442 87:1.8833565 88:1.422029 89:0.076239623 90:-0.38444954 91:-0.54335594 92:-0.60049224 93:-0.68332011 94:-0.80794924 95:-0.83227509 96:-0.53060746 97:-0.027390987 98:-0.15533018 99:-0.078202158 100:-0.26291233 101:-0.61796826 102:-0.43043756 103:-0.55544728 104:-0.921305 105:-0.80083472 106:0.80929697 107:1.9612875 108:0.99939787 109:0.21039478 110:-0.24782823 111:-0.41515166 112:-0.43976876 113:-0.47390246 114:-0.69292027 115:-0.7701422 116:-0.6876359 117:-0.92459261 118:-1.290517 119:-0.98882943 120:-1.2778218 121:-0.3417083 122:-0.46144295 123:-0.77911359 124:-1.381521 125:-1.6241107 126:0.039353304 127:0.93593693 128:0.61151838 129:0.2019853 130:-0.23131043 131:-0.41478667 132:-0.35438064 133:-0.36179516 134:-0.63582885 135:-0.92189658 136:-0.86191076 137:-1.2939988 138:-1.3200783 139:-1.0701087 140:-1.3822026 141:0.80562562 142:0.7556293 143:0.54127115 144:-0.12057377 145:-0.69388413 146:-0.30419064 147:0.14367811 148:-0.064175494 149:-0.13087969 150:-0.54872751 151:-0.68186933 152:-0.50362873 153:-0.51019341 154:-0.89462936 155:-1.2983445 156:-1.1365737 157:-0.6565721 158:-0.37904936 159:-0.2450532 160:-0.69691396 161:0.72061735 162:0.057323743 163:-0.69334167 164:-1.0689666 165:-1.068083 166:-0.681988 167:-0.28678486 168:-0.15252475 169:-0.15312502 170:-0.55909342 171:-0.65850133 172:-0.46959895 173:-0.51560181 174:-0.82517356 175:-1.0610802 176:-0.82679164 177:-0.42482135 178:-0.022826053 179:-0.015975026 180:-0.79568452 181:0.43426621 182:-0.96699566 183:-1.9523691 184:-2.0153182 185:-1.6457285 186:-1.3168992 187:-0.8912496 188:-0.31300148 189:-0.21170358 190:-0.45764121 191:-0.50779212 192:-0.42320448 193:-0.41825575 194:-0.47855267 195:-0.40204909 196:-0.24168341 197:-0.46858147 198:-0.24723431 199:-0.32738629 200:-0.95204556 
-0 0.0005114349125387053 1:1.7047657 2:1.8157854 3:1.4141738 4:0.88057208 5:0.68047589 6:0.64883351 7:0.57816774 8:0.45687637 9:0.09334445 10:-0.48802108 11:-0.62590867 12:-0.56678271 13:-0.38385373 14:-0.16324356 15:0.0010618095 16:0.17206348 17:0.40753263 18:0.70074147 19:0.99369603 20:1.2314248 21:1.7439864 22:1.7380133 23:1.4885048 24:1.1391097 25:0.82412648 26:0.6339587 27:0.56051719 28:0.61895782 29:0.16735527 30:-0.61401039 31:-0.76555371 32:-0.71534312 33:-0.56955051 34:-0.39001188 35:-0.22928546 36:-0.051867969 37:0.19229048 38:0.4867788 39:0.74956685 40:1.0107348 41:1.5857724 42:1.4948066 43:1.3560468 44:1.17647 45:0.86749876 46:0.62696528 47:0.66637641 48:1.1286219 49:0.22865322 50:-0.63321167 51:-0.84849805 52:-0.82685155 53:-0.75193143 54:-0.62849534 55:-0.51890349 56:-0.40402552 57:-0.22605711 58:0.0081896437 59:0.25724173 60:0.81689912 61:0.85006541 62:0.86095822 63:0.76710641 64:0.67666876 65:0.51838118 66:0.4673515 67:0.88951302 68:1.9828091 69:0.34040859 70:-0.44699913 71:-0.67794353 72:-0.65993536 73:-0.62171102 74:-0.56141406 75:-0.48166853 76:-0.42502975 77:-0.3658711 78:-0.23084977 79:0.050762672 80:0.67318529 81:0.0002275553 82:0.010182608 83:-0.20069987 84:-0.35254398 85:-0.25671321 86:0.15439896 87:1.6515386 88:1.6431204 89:0.47523412 90:-0.29554495 91:-0.55737221 92:-0.52215797 93:-0.48799118 94:-0.47506514 95:-0.46893153 96:-0.53060746 97:-0.65296429 98:-0.80162668 99:-0.77964419 100:-0.095578663 101:0.3985782 102:0.34233692 103:0.014109083 104:-0.52066374 105:-0.36667258 106:0.62364948 107:1.2688751 108:0.86340964 109:0.27416167 110:-0.31768903 111:-0.56008631 112:-0.50346684 113:-0.47390246 114:-0.4068014 115:-0.32553956 116:-0.27477449 117:-0.35871124 118:-0.45665902 119:-0.59127617 120:-0.23879914 121:0.52566546 122:0.49664861 123:0.21959259 124:-0.53170252 125:-0.24056815 126:0.70485944 127:0.74439937 128:0.48199198 129:0.12712896 130:-0.36972132 131:-0.59055817 132:-0.55318421 133:-0.50870442 134:-0.46924847 135:-0.30747241 136:-0.14136197 137:-0.31041294 138:-0.3676849 139:-0.54484743 140:-0.43785167 141:0.73728359 142:0.90825558 143:0.74396878 144:-0.24472511 145:-0.2695815 146:0.25825822 147:0.10154589 148:-0.13629644 149:-0.29351458 150:-0.51642364 151:-0.68186933 152:-0.71724552 153:-0.77697098 154:-0.89462936 155:-0.94623083 156:-0.92960507 157:-0.98823088 158:-1.1610042 159:-1.0905585 160:-0.59618413 161:-0.14394304 162:-0.14351285 163:-0.49227417 164:-1.1162519 165:-0.85630423 166:-0.32520401 167:-0.3639057 168:-0.54652488 169:-0.51872462 170:-0.39542928 171:-0.49621403 172:-0.55135268 173:-0.72079921 174:-0.89891672 175:-1.0610802 176:-1.0464256 177:-1.2245078 178:-1.4817892 179:-1.3478042 180:-0.88995242 181:-1.566933 182:-1.8797272 183:-2.1809051 184:-2.2650561 185:-1.8539293 186:-1.2810512 187:-1.0819638 188:-0.99855465 189:-0.4854182 190:-0.057694744 191:0.051961474 192:-0.073742405 193:-0.19870867 194:-0.32609797 195:-0.49800739 196:-0.5516687 197:-0.86381108 198:-1.1907545 199:-1.2742388 200:-1.0282816 
-0.009712659289619152 0.0006211524081249528 1:0.74582684 2:1.0039463 3:1.0402623 4:0.71961379 5:0.41515276 6:0.35714984 7:0.47308955 8:0.38190222 9:0.42454019 10:0.16794027 11:0.024073409 12:-0.098745055 13:-0.12792498 14:-0.064308159 15:0.027163364 16:0.17206348 17:0.35025674 18:-0.046614893 19:-0.46785024 20:-0.045580138 21:0.64038575 22:0.76763564 23:0.88737583 24:0.75738788 25:0.5360387 26:0.41519031 27:0.35487613 28:0.094944268 29:-0.1376652 30:-0.15199527 31:-0.21346354 32:-0.35005352 33:-0.40168422 34:-0.37196144 35:-0.32658008 36:-0.2200114 37:-0.080429293 38:-0.12501289 39:-0.21403927 40:0.12793165 41:0.59150493 42:0.67234594 43:0.8350752 44:0.79367346 45:0.66087449 46:0.47307855 47:0.16533871 48:-0.48574233 49:-0.69629502 50:-0.4292843 51:-0.44781464 52:-0.57565898 53:-0.66490918 54:-0.64478904 55:-0.64794201 56:-0.57216167 57:-0.41734242 58:-0.26326317 59:0.015469315 60:0.44206789 61:0.52639574 62:0.66178453 63:0.83601516 64:0.79237777 65:0.53959978 66:0.34445199 67:0.27472401 68:-0.55241251 69:-0.3806102 70:-0.25629473 71:-0.32415193 72:-0.48768651 73:-0.56019676 74:-0.54293823 75:-0.48166853 76:-0.370985 77:-0.2028811 78:0.044542879 79:0.47325447 80:1.1239563 81:0.4366256 82:0.6655764 83:0.88183761 84:0.57355148 85:0.052390344 86:-0.024044665 87:1.2651755 88:0.36079082 89:0.076239623 90:-0.028831203 91:-0.16491675 92:-0.34982246 93:-0.40985963 94:-0.37263927 95:-0.20468166 96:0.056429524 97:0.38965788 98:0.55559593 99:0.70117784 100:1.7450918 101:0.10208547 102:0.30166459 103:0.45222938 104:-0.22018276 105:-1.1109506 106:-1.1400013 107:0.85342765 108:0.45544508 109:0.27416167 110:0.10147586 111:-0.089048781 112:-0.26990718 113:-0.3337087 114:-0.24330491 115:0.0079123778 116:0.34451762 117:0.7730515 118:0.65515167 119:0.60138357 120:1.7353438 121:-0.45484403 122:-0.46144295 123:-0.41594771 124:-1.1387157 125:-1.7868804 126:-1.1437688 127:-0.11751974 128:0.15817602 129:0.30179375 130:0.11471684 131:-0.088353872 132:-0.24077858 133:-0.25161323 134:-0.13608772 135:0.076542713 136:0.21891242 137:0.57481432 138:0.3730655 139:0.40062296 140:1.3459224 141:-0.90292621 142:-1.1521988 143:-1.2323332 144:-1.5483142 145:-1.057572 146:-0.30419064 147:0.017281437 148:0.3324897 149:0.48713288 150:0.22656491 151:-0.036717813 152:-0.21880637 153:-0.19895282 154:-0.1170728 155:-0.065946758 156:-0.20521474 157:-0.10380743 158:0.067781977 159:0.17769949 160:0.91476363 161:-1.0750082 162:-1.4690343 163:-1.4473448 164:-1.3053927 165:-0.64452541 166:0.071222633 167:0.52298385 168:0.87187558 169:0.90305161 170:0.42289147 171:0.15293513 172:0.020923382 173:0.048690867 174:-0.087741889 175:-0.47177616 176:-0.82679164 177:-0.76754415 178:-0.35950986 179:0.086473368 180:0.71260107 181:-0.58221596 182:-0.61594504 183:-0.3907063 184:-0.37418333 185:-0.014821269 186:0.40380684 187:0.78703541 188:0.97241068 189:0.8375358 190:0.38669023 191:0.18113539 192:0.1446714 193:0.1854987 194:-0.097415924 195:-0.78588235 196:-1.4816246 197:-1.4566554 198:-0.81334645 199:0.016923737 200:0.34396642 
-0.008431076390265883 0 1:2.1650562 2:1.8681622 3:1.7257667 4:1.3097941 5:0.77411938 6:0.46461222 7:0.19288096 8:0.40689361 9:0.61379486 10:-0.79873961 11:-1.0110832 12:-0.78965777 13:-0.54671752 14:-0.41058204 15:-0.2860553 16:-0.18365827 17:-0.19386412 18:0.07296212 19:0.16262069 20:-0.070619449 21:1.7156889 22:1.3647912 23:1.3461322 24:1.1696475 25:0.80972207 26:0.57562047 27:0.44055989 28:0.56655645 29:0.55952442 30:-0.38300285 31:-0.56479365 32:-0.47711077 33:-0.40168422 34:-0.37196144 35:-0.30712116 36:-0.24102934 37:-0.28496912 38:-0.076069556 39:0.11561546 40:-0.019202208 41:1.5147533 42:1.1883998 43:1.2113324 44:1.1458464 45:0.88339293 46:0.69535935 47:0.66637641 48:0.74424946 49:0.16013855 50:-0.25934488 51:-0.40774632 52:-0.40379035 53:-0.38933864 54:-0.40038341 55:-0.38986501 56:-0.34097445 57:-0.39343175 58:-0.18182734 59:0.075912416 60:0.067236669 61:1.5223024 62:1.295519 63:1.3700581 64:1.2552137 65:0.83666015 66:0.51651126 67:0.49170837 68:0.2730085 69:-0.13198303 70:-0.24162517 71:-0.33678734 72:-0.32868761 73:-0.31413972 74:-0.28427696 75:-0.19191185 76:-0.019694256 77:-0.0072930916 78:0.083884686 79:0.37936741 80:0.67318529 81:1.846527 82:1.8398236 83:1.9366177 84:1.5305167 85:0.67059749 86:0.10978806 87:-0.048459288 88:-0.25826484 89:-0.1967566 90:-0.25109267 91:-0.37516072 92:-0.36548933 93:-0.35126096 94:-0.32142633 95:-0.10558796 96:0.26608559 97:0.3375268 98:0.16781805 99:0.23354985 100:1.3267576 101:2.0504663 102:2.3352816 103:2.5113947 104:1.7329435 105:0.19153589 106:-1.1400013 107:-0.80836213 108:-0.36048409 109:-0.25722912 110:-0.26529342 111:-0.36080119 112:-0.33360526 113:-0.30566993 114:-0.28417903 115:0.063487701 116:0.68856883 117:0.9347319 118:0.84045345 119:1.0983251 120:2.670464 121:1.2799035 122:1.5697111 123:1.9446305 124:1.4714411 125:-0.15918329 126:-1.0698236 127:-0.30905733 128:-0.13325836 129:-0.19724853 130:-0.23131043 131:-0.31434581 132:-0.15557705 133:-0.14143127 134:-0.19161451 135:0.15334573 136:1.0295298 137:1.2633244 138:1.7487448 139:2.6067204 140:3.9691193 141:0.12220489 142:0.18328087 143:0.38924792 144:-0.12057377 145:-0.99695742 146:-0.81550783 147:-0.10911524 148:0.15218735 149:0.1618631 150:0.032741807 151:-0.0027624725 152:0.1728244 153:0.067824788 154:-0.24666557 155:-0.24200357 156:0.51917559 157:0.78061604 158:1.7433995 159:3.03128 160:4.1381187 161:-0.64272791 162:-0.82635725 163:-0.69334167 164:-0.73797011 165:-0.85630423 166:-0.56305999 167:-0.016861944 168:0.43847543 169:0.61869639 170:0.38197544 171:0.39636606 172:0.55232257 173:0.25388822 174:-0.38271457 175:-1.0610802 176:-0.38752365 177:-0.1963395 178:1.2116812 179:2.7501316 180:3.6349044 181:-0.96339673 182:-1.0723108 183:-0.77159971 184:-0.58824438 185:-0.53532356 186:-0.27730596 187:-0.013964252 188:0.45824581 189:0.60944027 190:0.20893623 191:0.31030929 192:0.49413347 193:0.1854987 194:-0.70723468 195:-1.2656739 196:-0.75832558 197:-0.56738889 198:0.50758183 199:1.7384738 200:2.4785745 
-0.003447997010755598 0.002424119195989262 1:2.9705648 2:2.6276245 3:2.2866337 4:1.6853634 5:1.0082279 6:0.66418529 7:0.49060258 8:0.30692807 9:0.14065813 10:-0.17730254 11:-0.40924796 12:-0.52220768 13:-0.40711999 14:-0.60845286 15:-0.8080864 16:-0.78564894 17:-0.65207118 18:-0.58471149 19:-0.98369014 20:-0.77172023 21:2.3382328 22:1.9432855 23:1.8365269 24:1.581907 25:1.0690011 26:0.70688146 27:0.4748334 28:0.30454966 29:0.25450397 30:0.032810789 31:-0.16327353 32:-0.27064276 33:-0.1666714 34:-0.29975969 35:-0.46279252 36:-0.38815483 37:-0.17133589 38:0.070760444 39:-0.18868122 40:-0.092769139 41:1.4674072 42:1.3174132 43:1.4573468 44:1.4214599 45:1.074123 46:0.60986674 47:0.27425995 48:-0.1013699 49:0.16013855 50:0.31844923 51:0.27341545 52:0.20436004 53:0.26332837 54:0.088427857 55:-0.13178802 56:-0.19385535 57:-0.034771815 58:0.2524972 59:0.10613397 60:0.16094448 61:1.0492468 62:1.0963453 63:1.4389668 64:1.5252013 65:1.1761577 66:0.4673515 67:-0.19540875 68:-1.0240816 69:0.017193273 70:0.3891663 71:0.49715006 72:0.49280688 73:0.54705989 74:0.30694884 75:-0.10275594 76:-0.39800739 77:-0.3658711 78:-0.034140736 79:0.0038191404 80:0.072157301 81:1.2087145 82:1.3482783 83:1.9366177 84:1.9626946 85:1.3574942 86:0.15439896 87:-1.4393667 88:-0.96575701 89:0.09723933 90:0.5490486 91:0.77417302 92:0.8565259 93:0.898844 94:0.57480007 95:-0.10558796 96:-0.74026352 97:-0.96575099 98:-0.54310811 99:-0.38995418 100:-0.26291233 101:1.7539735 102:1.8065412 103:2.3799586 104:2.2838252 105:1.3079529 106:-0.86153013 107:-1.6392571 108:-0.53046936 109:0.40169546 110:0.92234045 111:1.3421805 112:1.5136395 113:1.4888102 114:1.1464152 115:0.17463835 116:-0.75644612 117:-1.0054328 118:-0.27135721 119:0.10444201 120:0.28071216 121:1.3176154 122:1.0715035 123:1.5360689 124:1.7749478 125:1.0615896 126:-0.55220771 127:-0.45271051 128:0.19055761 129:1.025405 130:1.6603053 131:2.3222268 132:2.4572701 133:2.0622077 134:1.5297161 135:0.23014875 136:-1.042048 137:-1.3923573 138:-0.3676849 139:-0.019586094 140:0.2966435 141:0.36140215 142:-0.083815068 143:0.18655027 144:0.43810725 145:0.094106436 146:-0.30419064 147:0.017281437 148:0.69309443 149:1.723158 150:2.5524421 151:3.324861 152:3.2702677 153:2.6022122 154:1.9564114 155:0.46222368 156:-0.82612073 157:-1.0987839 158:0.067781977 159:0.60045218 160:0.81403381 161:-0.2104477 162:-0.74602258 163:-0.4420073 164:-0.075976998 165:0.07552246 166:0.031579964 167:0.3687422 168:1.0294756 169:2.121717 170:3.0006018 171:3.7638273 172:3.6180871 173:3.0753517 174:2.493269 175:1.0997013 176:-0.38752365 177:-0.42482135 178:0.98722535 179:1.5207509 180:1.6552796 181:-0.10573993 182:-0.29999948 183:0.066365741 184:0.41070724 185:0.50568104 186:0.43965486 187:0.59632123 188:0.97241068 189:1.9323943 190:2.7419305 191:3.582715 192:3.6392922 193:3.2591577 194:2.7992232 195:1.3252006 196:0.17163032 197:0.22307029 198:1.35675 199:1.8245513 200:1.8686864 
-0.002221182732250413 0 1:1.3211901 2:1.6848435 3:1.4972652 4:1.0236461 5:0.74290484 6:0.72559237 7:0.57816774 8:0.23195393 9:-0.095910259 10:-0.48802108 11:-0.60183525 12:-0.41077015 13:-0.12792498 14:0.084094934 15:0.26207736 16:0.4183324 17:0.49344644 18:0.49148169 19:0.87906492 20:1.006071 21:1.8005812 22:1.68203 23:1.4726856 24:1.0933031 25:0.72329575 26:0.54645133 27:0.44055989 28:0.46175373 29:0.25450397 30:-0.2443983 31:-0.48114365 32:-0.50887507 33:-0.36811095 34:-0.24560837 35:-0.19036762 36:-0.093903825 37:-0.034975998 38:-0.051597893 39:0.26776379 40:0.42219937 41:1.7751567 42:1.5431867 43:1.3849896 44:1.0999107 45:0.72445118 46:0.42178297 47:0.36139694 48:0.8595612 49:0.22865322 50:-0.1913691 51:-0.4211024 52:-0.496335 53:-0.40384236 54:-0.31891489 55:-0.27926058 56:-0.17283832 57:-0.13041447 58:-0.12753677 59:0.13635552 60:0.28588822 61:1.2733258 62:1.1868788 63:1.1288774 64:0.90808678 65:0.62447417 66:0.44277158 67:0.60020053 68:1.6880158 69:-0.0076694437 70:-0.24162517 71:-0.34942275 72:-0.38168722 73:-0.26800403 74:-0.17342213 75:-0.080466963 76:0.11541758 77:0.25349092 78:0.28059372 79:0.70797211 80:0.92361367 81:1.1080072 82:1.1571218 83:1.1038966 84:0.75877053 85:0.46452844 86:0.37745351 87:0.87881225 88:1.245156 89:-0.11275776 90:-0.3103624 91:-0.38917699 92:-0.41248992 93:-0.29266229 94:-0.21900044 95:-0.072556719 96:0.22415437 97:0.441789 98:0.62022561 99:1.4026198 100:1.7450918 101:0.4409343 102:0.58637094 103:0.49604142 104:0.18045853 105:-0.056556765 106:-0.11894032 107:0.29949775 108:0.79541558 109:-0.19346221 110:-0.38754985 111:-0.46950215 112:-0.48223415 113:-0.41782495 114:-0.4068014 115:-0.32553956 116:-0.068343788 117:0.20717011 118:0.65515167 119:1.6946549 120:2.2548552 121:0.11083453 122:0.036764659 123:-0.052781824 124:-0.10679324 125:0.084971271 126:0.26118869 127:0.45709297 128:0.83818954 129:0.0023683873 130:-0.30051589 131:-0.41478667 132:-0.43958217 133:-0.32506785 134:-0.52477527 135:-0.53788149 136:-0.23143058 137:-0.015337199 138:0.3730655 139:1.5561979 140:2.2902732 141:0.53225732 142:0.45037681 143:0.74396878 144:1.245091 145:1.5488583 146:1.3831559 147:1.1127193 148:1.3061224 149:0.48713288 150:0.032741807 151:-0.17253917 152:-0.14760077 153:-0.065564021 154:-0.4410547 155:-0.6821456 156:-0.20521474 157:-0.10380743 158:0.17948982 159:1.3402693 160:2.3249817 161:0.12207554 162:0.017156426 163:0.21146204 164:0.49144566 165:0.83792609 166:0.94336128 167:0.8700276 168:1.1082757 169:0.82180727 170:0.38197544 171:0.071791485 172:0.061800241 173:0.048690867 174:-0.30897141 175:-0.66821086 176:-0.16788968 177:-0.082098573 178:-0.35950986 179:0.59871531 180:1.6552796 181:-0.26456526 182:-0.26489443 183:-0.23834896 184:-0.16012228 185:0.019878883 186:0.1170225 187:-0.052107092 188:0.11546925 189:0.70067847 190:0.5200057 191:0.18113539 192:0.18835416 193:0.13061193 194:-0.32609797 195:-0.49800739 196:-0.13835497 197:-0.17215928 198:-1.0020505 199:-0.41346377 200:0.57267445 
-0.008928506602384411 0 1:1.3211901 2:1.9205388 3:1.9334953 4:1.3097941 5:0.80533385 6:0.66418529 7:0.71827203 8:0.80675572 9:0.046030771 10:-1.2475553 11:-0.98700982 12:-0.76737022 13:-0.77938002 14:-0.73212206 15:-0.57317239 16:-0.45729038 17:-0.25114 18:0.10285638 19:0.19127846 20:-0.27093396 21:1.2063347 22:1.5140799 23:1.6625159 24:1.2307229 25:0.76650894 26:0.59020501 27:0.64620095 28:0.88096458 29:0.036632217 30:-0.98362255 31:-0.84920377 32:-0.68357885 33:-0.72063023 34:-0.64271802 35:-0.46279252 36:-0.3671369 37:-0.26224247 38:0.02181711 39:0.21704768 40:-0.11729144 41:0.85190833 42:1.0593863 43:1.2258039 44:1.0539751 45:0.66087449 46:0.40468445 47:0.4703182 48:0.8595612 49:-0.25094956 50:-0.87112689 51:-0.80842966 52:-0.65498292 53:-0.79544258 54:-0.74255133 55:-0.51890349 56:-0.46707657 57:-0.46516374 58:-0.2361179 59:0.13635552 60:-0.057707075 61:0.57619107 62:0.84285152 63:0.97383267 64:0.90808678 65:0.60325557 66:0.2461324 67:0.23855995 68:0.50884306 69:-0.30602205 70:-0.7110514 71:-0.67794353 72:-0.54068619 73:-0.69860387 74:-0.6907447 75:-0.48166853 76:-0.45205212 77:-0.52886111 78:-0.23084977 79:0.2385368 80:0.072157301 81:0.13450387 82:0.55634409 83:0.57650656 84:0.60442132 85:0.46452844 86:0.020566244 87:-0.28027719 88:0.051262982 89:-0.1967566 90:-0.53262383 91:-0.52933967 92:-0.41248992 93:-0.56612277 94:-0.6030975 95:-0.46893153 96:-0.48867622 97:-0.60083318 98:-0.41384879 99:0.077673845 100:-0.011911826 101:0.4832904 102:1.074439 103:0.93416172 104:0.63117999 105:0.62569803 106:-0.026116587 107:-0.87760335 108:-0.53046936 109:-0.40601853 110:-0.57966709 111:-0.54196948 112:-0.43976876 113:-0.5019412 114:-0.48854965 115:-0.3811149 116:-0.4812052 117:-0.60123181 118:-0.3640081 119:0.0050536976 120:-0.13489687 121:0.6010893 122:1.2247982 123:1.1729029 124:0.62162262 125:0.89881986 126:0.48302406 127:-0.69213247 128:-0.87803507 129:-0.72124296 130:-0.76188558 131:-0.61566842 132:-0.55318421 133:-0.47197711 134:-0.2471413 135:-0.077063337 136:-0.23143058 137:-0.40877154 138:-0.15604192 139:0.085466169 140:-0.12306803 141:-0.35618964 142:-0.045658506 143:-0.47221705 144:-1.5483142 145:-1.239416 146:-0.81550783 147:-1.2888175 148:-1.2902316 149:-1.041635 150:-0.93637371 151:-0.58000326 152:-0.53923154 153:-0.46573046 154:-0.18186918 155:-0.065946758 156:-0.20521474 157:-0.32491329 158:-0.15563369 159:-0.033676855 160:-0.39472443 161:-1.0417558 162:-1.0673611 163:-1.748946 164:-2.3456676 165:-1.7457751 166:-1.3559133 167:-1.6363994 168:-1.6103252 169:-1.2905461 170:-1.0500859 171:-0.53678584 172:-0.51047581 173:-0.46430251 174:-0.30897141 175:-0.17712413 176:-0.27770668 177:-0.53906226 178:-0.35950986 179:-0.32332021 180:-0.70141667 181:-1.6622282 182:-1.8797272 183:-2.2951732 184:-2.3720865 185:-1.9580297 186:-1.6036835 187:-1.3489637 188:-0.69862515 189:-0.3029418 190:-0.45764121 191:-0.33556026 192:-0.51056999 193:-0.52802926 194:-0.4023253 195:-0.49800739 196:-0.5516687 197:-0.56738889 198:-0.53029037 199:-0.58561879 200:-0.87580955 
-0.006505286821639323 0.001762994938703511 1:-0.13639681 2:0.11354209 3:0.37553096 4:0.48711854 5:0.43076 6:0.46461222 7:0.47308955 8:0.35691085 9:0.23528548 10:0.02984315 11:-0.072220229 12:-0.12103256 13:-0.33732125 14:-0.50951743 15:-0.57317239 16:-0.32047433 17:-0.19386412 18:-0.40534595 19:-0.75442797 20:-0.84683812 21:0.47060102 22:0.46905795 23:0.5868113 24:0.66577464 25:0.59365624 26:0.54645133 27:0.45769665 28:0.27834901 29:-0.0069421357 30:-0.059592243 31:-0.12981352 32:-0.22299628 33:-0.33453768 34:-0.40806231 35:-0.38495684 36:-0.17797555 37:-0.034975998 38:-0.14948456 39:-0.39154565 40:-0.55869299 41:0.89925438 42:0.75297934 43:0.77718949 44:0.87023282 45:0.77213371 46:0.67826086 47:0.44853395 48:0.052379072 49:-0.38797894 50:-0.24235094 51:-0.27418518 52:-0.37734905 53:-0.46185723 54:-0.46555826 55:-0.37143093 56:-0.10978727 57:0.10869216 58:0.035334926 59:-0.19608155 60:-0.37006643 61:1.2733258 62:1.0239185 63:0.90492392 64:0.88880193 65:0.68812996 66:0.56567109 67:0.27472401 68:-0.31657791 69:-0.35574746 70:-0.25629473 71:-0.34942275 72:-0.47443661 73:-0.48330393 74:-0.376656 75:-0.25877878 76:0.034350477 77:0.28608891 78:0.20191011 79:0.050762672 80:-0.12818536 81:1.8800961 82:1.4302025 83:0.90959501 84:0.51181179 85:0.018045506 86:-0.11326648 87:-0.20300455 88:-0.12561005 89:-0.070758343 90:-0.14737065 91:-0.36114448 92:-0.60049224 93:-0.39032674 94:-0.090968102 95:0.059568215 96:0.39187923 97:0.5460512 98:0.23244771 99:0.077673845 100:0.15542185 101:2.0504663 102:1.3591455 103:0.18935721 104:-0.87122482 105:-1.6691591 106:-1.6969436 107:-0.32367343 108:0.21746574 109:0.23165041 110:-0.038245775 111:-0.46950215 112:-0.86442268 113:-0.38978618 114:0.32893282 115:0.39693967 116:0.61975855 117:0.2880103 118:-0.45665902 119:-0.49188787 120:-0.13489687 121:0.33710596 122:-0.19317731 123:-0.86990505 124:-1.2601184 125:-1.6241107 126:-0.70009798 127:-0.069635347 128:0.12579443 129:0.052272618 130:-0.18517345 131:-0.54033774 132:-0.69518679 133:-0.067976646 134:0.75234103 135:0.84457296 136:0.84939259 137:0.37809715 138:-0.68514937 139:-0.64989966 140:-0.12306803 141:-1.0737814 142:-1.4956079 143:-1.5363797 144:-0.36887646 145:0.4577944 146:0.97410226 147:0.64926481 148:0.26036876 149:-0.22846062 150:-0.51642364 151:-0.68186933 152:-0.39682037 153:0.29013947 154:1.049262 155:1.0784225 156:0.82962859 157:0.22785138 158:-1.0492964 159:-0.87918222 160:-0.19326472 161:-1.3077744 162:-1.7903728 163:-1.5981454 164:-0.12326222 165:0.66850305 166:1.1019319 167:0.90858805 168:0.47787544 169:-0.19374721 170:-0.51817739 171:-0.45564222 172:0.1026771 173:0.51038492 174:1.0184057 175:1.0014839 176:1.1499141 177:0.71758789 178:-0.4717378 179:-0.42576858 180:-0.041541733 181:-0.64574605 182:-0.79147035 183:-0.69542098 184:-0.12444542 185:0.26277995 186:0.61889505 187:0.67260689 188:0.45824581 189:0.016391929 190:-0.10213324 191:0.051961474 192:0.62518173 193:0.51481932 194:0.5886302 195:0.94136727 196:1.6182284 197:1.5075665 198:0.50758183 199:0.18907875 200:0.039022442 
-0.01215640082131669 0 1:-0.55832988 2:-0.069776416 3:0.52094096 4:0.77326655 5:0.74290484 6:0.66418529 7:0.45557651 8:0.05701426 9:-0.94755644 10:-0.90231246 11:-0.55368841 12:-0.29933262 13:-0.43038625 14:-0.65792054 15:-0.88639104 16:-0.94982821 17:-1.1102782 18:-1.3320678 19:-1.3562411 20:-1.1723492 21:-0.23683529 22:0.17048022 23:0.5235346 24:0.74211901 25:0.7377001 26:0.67771232 27:0.37201288 28:-0.24566452 29:-1.5756189 30:-0.91432029 31:-0.53133368 32:-0.31828922 33:-0.43525749 34:-0.57051629 35:-0.7157585 36:-0.76647758 37:-0.875862 38:-1.0549363 39:-1.1015712 40:-1.0246168 41:0.97027349 42:1.027133 43:0.93637526 44:0.91616839 45:0.75623953 46:0.59276819 47:0.2089072 48:-0.75480306 49:-1.5527285 50:-0.85413295 51:-0.62144411 52:-0.50955564 53:-0.53437579 54:-0.59590793 55:-0.64794201 56:-0.57216167 57:-0.58471704 58:-0.69758767 59:-0.74006945 60:-0.7761336 61:2.1198463 62:2.0016801 63:1.5595571 64:1.2552137 65:0.81544155 66:0.49193138 67:-0.086916573 68:-1.7905439 69:-1.3999815 70:-0.96043408 71:-0.86747479 72:-0.8321842 73:-0.86776805 74:-0.8939786 75:-0.92744809 76:-0.77632052 77:-0.7244491 78:-0.82097685 79:-0.88810796 80:-0.92955607 81:1.8129579 82:1.8671317 83:1.6312866 84:1.4687771 85:1.0483907 86:0.64511895 87:-0.82118559 88:-1.5405943 89:-1.1417435 90:-0.82897246 91:-0.79564869 92:-0.81982833 93:-0.89818186 94:-0.93598157 95:-0.8983376 96:-0.78219473 97:-0.65296429 98:-0.60773772 99:-0.23407817 100:-0.43024603 101:0.31386599 102:0.17964755 103:0.49604142 104:1.0318213 105:1.4940224 106:1.6447105 107:-0.46215591 108:-0.93843389 109:-0.89489806 110:-0.73685396 111:-0.795605 112:-0.8856554 113:-1.0627162 114:-1.1834097 115:-1.0480188 116:-1.1004974 117:-0.92459261 118:-0.3640081 119:0.40260693 120:0.17680991 121:-0.64340353 122:-0.80635589 123:-0.82450932 124:-0.16749457 125:0.57328039 126:0.63091433 127:-0.21328853 128:-0.48945591 129:-0.57153028 130:-0.53120071 131:-0.6407786 132:-0.66678625 133:-0.83925027 134:-0.91346288 135:-0.76829052 136:-1.042048 137:-0.90056449 138:-0.3676849 139:0.19051842 140:-0.12306803 141:-0.93709725 142:-0.88510287 143:-1.2830076 144:-0.80340612 145:-0.027122878 146:0.36052167 147:0.22794256 148:0.11612687 149:-0.065825738 150:-0.096473597 151:-0.17253917 152:-0.14760077 153:-0.33234164 154:-0.24666557 155:0.022081651 156:-0.51566774 157:-0.76712501 158:-0.60246503 159:-0.5621177 160:-0.79764384 161:-0.64272791 162:-0.42468405 163:-0.64307481 164:-0.075976998 165:0.41436851 166:0.62621993 167:0.63866514 168:0.55667549 169:0.29371893 170:0.13647921 171:-0.0093521625 172:-0.019953478 173:-0.15650648 174:-0.013998723 175:0.31396258 176:-0.16788968 177:-0.65330321 178:-0.69619364 179:-0.52821702 180:-0.60714883 181:0.30720595 182:0.71804732 183:0.6377058 184:0.69612199 185:0.78328222 186:0.72643918 187:0.55817837 188:0.28685755 189:-0.12046538 190:-0.36876422 191:-0.59390807 192:-0.5979355 193:-0.63780278 194:-0.47855267 195:-0.11417415 196:-0.34501183 197:-0.27096668 198:-0.24723431 199:0.016923737 200:0.11525844 
-0 0.002627730333343484 1:0.97597218 2:1.5539018 3:1.6011295 4:1.2382572 5:0.85215557 6:0.64883351 7:0.66573292 8:1.0066868 9:1.181559 10:0.34056169 11:0.33702773 12:0.43615511 13:0.24433506 14:-0.03957431 15:-0.23385219 16:-0.34783754 17:-0.33705381 18:-0.19608617 19:-0.037983701 20:-0.045580138 21:1.2346323 22:1.4580966 23:1.4568664 24:1.2459918 25:0.88174403 26:0.6339587 27:0.64620095 28:1.1429713 29:0.95169359 30:0.032810789 31:0.27170661 32:0.53934723 33:0.40407404 34:0.043198653 35:-0.20982654 36:-0.32510105 37:-0.28496912 38:-0.17395623 39:-0.11260705 40:-0.14181376 41:1.964541 42:1.785087 43:1.631004 44:1.4214599 45:1.0264405 46:0.66116232 47:0.64459217 48:1.3976825 49:0.22865322 50:-0.27633882 51:0.16656654 52:0.60097986 53:0.50989145 54:0.039546728 55:-0.38986501 56:-0.53012764 57:-0.48907441 58:-0.42613488 59:-0.46807551 60:-0.49501017 61:1.9704604 62:1.8568267 63:1.7146019 64:1.4866318 65:1.112502 66:0.68857056 67:0.78102082 68:1.6290572 69:-0.10712031 70:-0.27096432 71:0.34552509 72:0.98305357 73:0.9930383 74:0.34390047 75:-0.30335674 76:-0.47907448 77:-0.43106711 78:-0.46690062 79:-0.6064468 80:-0.62904203 81:1.7122506 82:1.9217478 83:1.8255882 84:1.4687771 85:1.1170805 86:0.82356256 87:1.4969933 88:1.1125013 89:-0.1757569 90:-0.16218808 91:0.73212427 92:1.7182033 93:1.8950213 94:1.01011 95:-0.10558796 96:-0.36288258 97:-0.28804654 98:-0.60773772 99:-0.77964419 100:-0.68124652 101:0.90685141 102:1.3998178 103:1.372282 104:1.0819014 105:1.0598601 106:1.3662393 107:1.4073576 108:0.82941264 109:-0.10843969 110:0.014149837 111:1.2515965 112:2.7026706 113:3.2272129 114:2.1682684 115:0.39693967 116:-0.068343788 117:0.045489725 118:-0.6419608 119:-0.79005277 120:-0.55050594 121:-0.37942022 122:-0.19317731 123:-0.09817756 124:0.075310729 125:0.89881986 126:1.6661462 127:1.5105497 128:1.0000975 129:0.12712896 130:0.34540167 131:1.9957941 132:3.8204947 133:4.4494829 134:3.3065736 135:0.99817896 136:0.39904961 137:0.27973855 138:-0.57932788 139:-0.75495195 140:-0.3329238 141:-0.014479257 142:-0.16012819 143:-0.016147366 144:0.12772891 145:0.63963836 146:1.2808926 147:1.3233804 148:0.87339675 149:0.22691706 150:0.58190727 151:2.2722454 152:3.8399124 153:4.2473407 154:3.05795 155:0.72630894 156:-0.10173041 157:-0.32491329 158:-1.0492964 159:-0.98487037 160:-0.79764384 161:0.82037437 162:0.70000082 163:1.1665326 164:1.0115831 165:0.96499336 166:1.3001453 167:1.1785109 168:0.55667549 169:0.17185241 170:0.54563957 171:1.8569517 172:2.9640572 173:3.2292497 174:2.1245532 175:0.21574524 176:-0.71697462 177:-1.1102669 178:-1.3695613 179:-1.2453557 180:-1.172756 181:0.78368199 182:0.75315237 183:1.0947778 184:0.80315256 185:0.57508129 186:0.79813528 187:0.71074975 188:0.07262218 189:0.10763013 190:0.43112871 191:1.1714686 192:1.7609335 193:1.8869884 194:1.198449 195:0.17370078 196:-0.5516687 197:-1.0614258 198:-1.0020505 199:-0.92992878 200:-0.87580955 
-0.0003858844977767231 -0 1:-0.28982702 2:-0.20071821 3:-0.039926164 4:-0.24613579 5:-0.4744601 6:-0.34903169 7:-0.017275471 8:0.73178154 9:2.5536556 10:2.4810672 11:1.7814323 12:1.5282429 13:1.4309139 14:1.3455212 15:1.2278349 16:1.1571391 17:0.98029143 18:0.70074147 19:-0.29590362 20:-0.52132708 21:-0.7744869 22:-0.65060854 23:-0.50471234 24:-0.55573511 25:-0.60190815 26:-0.4015449 27:0.029277815 28:0.98576725 29:3.1739855 30:2.3428864 31:1.8275971 32:1.6034517 33:1.4616318 34:1.3247799 35:1.152298 36:1.0831002 37:1.0104498 38:0.87832546 39:0.16633156 40:-0.11729144 41:-0.87622327 42:-0.79518199 43:-0.72783941 44:-0.78344846 45:-0.7219187 46:-0.53573436 47:-0.074288025 48:1.474557 49:2.8322113 50:2.0348377 51:1.7693 52:1.6189708 53:1.4961438 54:1.3756309 55:1.2507672 56:1.2353019 57:1.2564039 58:1.2840179 59:0.65012187 60:0.31712416 61:-0.17073894 62:-0.22544368 63:-0.23207064 64:-0.26828799 65:-0.22426973 66:-0.36836505 67:-0.12308063 68:1.6290572 69:1.7327207 70:1.5480623 71:1.4448062 72:1.367301 73:1.3159882 74:1.2861665 75:1.2122937 76:1.1152451 77:1.198833 78:1.460848 79:0.98963332 80:0.5229283 81:0.70517826 82:0.52903605 83:0.49323443 84:0.51181179 85:0.77363199 86:0.24362078 87:0.18335861 88:1.1567194 89:1.3362222 90:1.3640074 91:1.3208073 92:1.2481974 93:1.2113702 94:1.1637489 95:0.95141155 96:0.34994802 97:0.23326457 98:0.87874418 99:0.38942584 100:-0.1792455 101:1.6692613 102:1.4404901 103:1.1532218 104:1.1820618 105:1.8041382 106:0.71647322 107:0.16101526 108:0.86340964 109:1.2519207 110:1.4113662 111:1.3421805 112:1.2163817 113:1.1803839 114:1.2281635 115:0.78596693 116:-0.55001545 117:-1.0054328 118:0.0065954523 119:-0.49188787 120:-0.86221272 121:1.883294 122:1.4547402 123:1.0367157 124:0.98583055 125:1.3871289 126:-0.10853695 127:-0.069635347 128:0.80580795 129:1.424639 130:1.6372367 131:1.3931489 132:1.008844 133:0.92366087 134:1.1410285 135:0.99817896 136:-0.50163639 137:-0.90056449 138:0.055601049 139:-0.12463836 140:-0.3329238 141:2.104125 142:1.8621696 143:1.5547594 144:1.5554693 145:1.6700876 146:0.56504852 147:0.43860367 148:1.1979411 149:1.8207389 150:1.9063652 151:1.1177638 152:0.35083839 153:0.11228772 154:0.33650187 155:0.55025208 156:-0.92960507 157:-1.3198897 158:-0.26734152 159:-0.033676855 160:-0.09253487 161:2.3832335 162:2.2263589 163:1.820002 164:1.2480092 165:1.0073491 166:0.66586262 167:0.98570883 168:2.1326759 169:2.9747827 170:2.9596858 171:1.4918053 172:0.26618454 173:-0.053907808 174:0.20723078 175:0.8050493 176:-0.49734065 177:-0.88178504 178:-0.022826053 179:0.29137015 180:0.33552969 181:3.0390017 182:2.8243511 183:2.1612792 184:1.3026284 185:0.71388191 186:0.61889505 187:1.2447495 188:2.9433761 189:4.0308733 190:3.8528929 191:1.9034542 192:0.45045072 193:-0.19870867 194:0.35994816 195:1.2292422 196:0.17163032 197:-0.27096668 198:0.22452579 199:0.44731125 200:0.49643844 
-0.001319308427787629 -0 1:0.28553626 2:0.24448389 3:0.10548384 4:-0.049409013 5:-0.20913696 6:-0.16481042 7:-0.034788508 8:0.38190222 9:1.9858915 10:2.0322516 11:1.4203311 12:1.1939303 13:1.1284527 14:1.2218519 15:1.3322412 16:1.3486816 17:1.2380329 18:0.85021275 19:0.50651395 20:0.65552062 21:-0.80278432 22:-0.6879307 23:-0.6629042 24:-0.70842385 25:-0.65952569 26:-0.44529855 27:-0.14208972 28:0.51415509 29:2.4332216 30:1.8577707 31:1.509727 32:1.4128659 33:1.5287783 34:1.6857886 35:1.8333603 36:1.7977098 37:1.6695226 38:1.3922305 39:1.1045797 40:1.108824 41:-1.0656075 42:-0.90806872 43:-0.87255377 44:-0.95187896 45:-0.94443715 46:-0.72381812 47:-0.35748327 48:0.78268671 49:2.3526084 50:1.7289467 51:1.52889 52:1.4999849 53:1.6556847 54:1.8970296 55:2.0803003 56:2.1600506 57:2.1171877 58:1.9626499 59:1.7985408 60:1.847685 61:-0.69358993 62:-0.56947094 63:-0.52493286 64:-0.67326945 65:-0.88204628 66:-0.88454288 67:-0.73786962 68:1.2753054 69:2.0807986 70:1.7387667 71:1.5711603 72:1.4865502 73:1.5620452 74:1.7480618 75:1.9924079 76:2.1150727 77:2.1767731 78:2.247684 79:2.3979392 80:2.4261837 81:-0.50330865 82:-0.37213042 83:-0.28397197 84:-0.50689322 85:-0.97795486 86:-1.4069828 87:-1.5166392 88:1.3778108 89:2.155211 90:1.971522 91:1.7973604 92:1.6555359 93:1.6606266 94:1.7783041 95:1.8762861 96:1.9014028 97:1.9535912 98:2.042078 99:2.1819999 100:2.4144266 101:0.18679768 102:0.098302871 103:0.23316923 104:-0.12002244 105:-0.92488104 106:-1.5112963 107:-0.11594971 108:1.2713742 109:1.8470784 110:1.9702528 111:1.9762695 112:1.8533626 113:1.853314 114:2.045646 115:2.0641994 116:1.9271531 117:1.823974 118:1.8596133 119:1.9928199 120:2.2548552 121:0.6010893 122:0.57329589 123:0.80973715 124:0.92512923 125:0.73605013 126:1.0006399 127:1.7020873 128:1.8096374 129:1.7989206 130:2.0986063 131:2.1464553 132:1.8324589 133:1.5847526 134:1.5297161 135:1.151785 136:0.75932401 137:0.57481432 138:0.90217292 139:1.2410411 140:1.555778 141:1.0789939 142:0.83194244 143:1.2000386 144:1.4933937 145:1.4882436 146:1.8433415 147:2.6294794 148:2.6764205 149:2.2761166 150:2.5847459 151:2.4420221 152:1.7749503 153:1.1793982 154:0.59568739 155:-0.15397516 156:-0.51566774 157:-0.43546623 158:0.29119766 159:0.91751671 160:1.3176831 161:1.9842057 162:1.5836818 163:1.5686675 164:1.0588683 165:0.96499336 166:1.4587159 167:2.4895651 168:3.1176763 169:3.1778936 170:3.287014 171:2.8306754 172:1.9830127 173:1.2798749 174:0.50220346 175:-0.47177616 176:-0.82679164 177:-0.31058043 178:0.53831363 179:1.4183024 180:1.8438153 181:3.4201825 182:2.8945613 183:2.3517261 184:1.5166894 185:1.3037845 186:1.5867922 187:2.4653203 188:3.2433054 189:3.4378247 190:3.2751925 191:2.6784976 192:1.8046163 193:1.0088001 194:0.055038773 195:-0.88184065 196:-1.0683109 197:-0.36977407 198:0.6962859 199:1.4802413 200:1.7924504 
-0 -0.0008842365180738644 1:-0.86519027 2:-1.2744409 3:-1.5563447 4:-1.7126445 5:-1.7698612 6:-1.8228018 7:-1.9787354 8:-2.0672531 9:-1.4206932 10:0.89295024 11:1.3962578 12:1.4836679 13:1.3843814 14:1.2218519 15:1.2278349 16:1.4581344 17:1.6103261 18:1.6872518 19:1.5381937 20:1.3816607 21:-0.88767666 22:-1.0984751 23:-1.2956716 24:-1.5787495 25:-1.7974726 26:-1.9183389 27:-2.0442693 28:-2.0797119 29:-0.48626 30:1.2340502 31:1.476267 32:1.5399231 33:1.5455649 34:1.4511329 35:1.4441818 36:1.5454947 37:1.646796 38:1.6369472 39:1.5103085 40:1.3785694 41:-0.85255021 42:-1.0048288 43:-1.2343396 44:-1.6562246 45:-2.0411351 46:-2.2284882 47:-2.3398499 48:-2.0616693 49:0.81102806 50:1.5250193 51:1.5556022 52:1.6454121 53:1.786218 54:1.7177988 55:1.6563168 56:1.5925912 57:1.4715999 58:1.2568727 59:1.0127805 60:0.69195539 61:-0.86787361 62:-1.0583518 63:-1.2829293 64:-1.7917897 65:-2.261255 66:-2.4576564 67:-2.5822365 68:-0.90616435 69:1.3846426 70:1.5920709 71:1.558525 72:1.5263 73:1.5620452 74:1.5633037 75:1.5466284 76:1.5205806 77:1.361823 78:1.1854553 79:1.0365769 80:0.62309963 81:-1.1746902 82:-1.4917614 83:-1.699598 84:-2.1429951 85:-2.4204381 86:-2.3884227 87:-1.362094 88:1.5104656 89:1.9032143 90:1.7937127 91:1.6571977 92:1.3421986 93:0.99650842 94:0.98450363 95:0.91838032 96:0.76926011 97:0.5460512 98:0.55559593 99:0.77911586 100:0.82475656 101:-0.95681709 102:-1.4472461 103:-1.3878759 104:-1.6224272 105:-1.8552285 106:-1.60412 107:0.36873898 108:1.3393683 109:1.6132665 110:1.5860182 111:1.4327646 112:1.0465201 113:0.5635314 114:0.53330344 115:0.39693967 116:0.13808692 117:-0.11619066 118:-0.086055435 119:0.30321863 120:0.59241897 121:-0.53026783 122:-0.80635589 123:-0.09817756 124:0.37881735 125:1.0615896 126:1.5182558 127:1.2232432 128:1.1296239 129:1.2250221 130:1.1066617 131:0.81561393 132:0.32723168 133:-0.14143127 134:-0.46924847 135:-0.61468452 136:-0.68177354 137:-0.90056449 138:-0.68514937 139:-0.22969061 140:0.08678773 141:-0.66372895 142:-1.0377291 143:-0.47221705 144:0.25188026 145:0.88209701 146:0.97410226 147:0.69139701 148:0.58491302 149:0.74734867 150:0.64651495 151:0.33679095 152:0.030413212 153:-0.15448989 154:-0.31146196 155:-0.24200357 156:-0.10173041 157:-0.21436036 158:-0.043925855 159:0.17769949 160:0.20965469 161:-0.67598021 162:-0.98702651 163:-0.4420073 164:0.39687523 165:0.79557031 166:0.74514794 167:0.29162139 168:-0.11312474 169:-0.11250284 170:-0.10901701 171:-0.29335493 172:-0.22433779 173:-0.053907808 174:-0.087741889 175:0.31396258 176:0.71064621 177:0.71758789 178:0.53831363 179:0.49626693 180:0.42979753 181:-1.2810475 182:-1.4935716 183:-0.77159971 184:0.018261954 185:0.50568104 186:0.61889505 187:0.29117846 188:-0.098766111 189:-0.029227175 190:-0.013256248 191:-0.1202704 192:-0.33583897 193:-0.6926896 194:-0.93591672 195:-0.59396571 196:-0.13835497 197:-0.073351897 198:-0.15288229 199:0.10300124 200:0.11525844 
-0.0002419801510325995 -0.002375453479505676 1:5.0035152 2:2.732378 3:1.4349467 4:0.59442407 5:0.056186169 6:-0.088051558 7:0.017750602 8:0.50685912 9:1.7020094 10:1.6524844 11:1.2036705 12:1.0156302 13:1.0353876 14:0.92504579 15:0.73190534 16:0.60987484 17:0.57936025 18:0.46158743 19:-0.095299244 20:-0.69660228 21:3.4135361 22:1.7380133 23:0.95065254 24:0.43674156 25:0.017480621 26:-0.051515516 27:0.080688074 28:0.69755983 29:2.2589242 30:1.7422669 31:1.392617 32:1.2699264 33:1.3441254 34:1.3428303 35:1.2301337 36:1.2512436 37:1.260443 38:1.1964571 39:0.69885075 40:-0.068246827 41:2.7457511 42:1.3819199 43:0.77718949 44:0.3649413 45:-0.022575034 46:-0.10827126 47:0.056417469 48:1.0517474 49:2.1813216 50:1.6609708 51:1.4754655 52:1.4471022 53:1.5831661 54:1.7015051 55:1.7484871 56:1.9078465 57:2.0693665 58:2.152667 59:1.647433 60:0.59824759 61:3.3149345 62:1.8568267 63:1.1977861 64:0.71523845 65:0.15766503 66:-0.073406264 67:0.13006778 68:1.6880158 69:1.7824461 70:1.6360797 71:1.5458895 72:1.5527997 73:1.746588 74:1.9143441 75:2.0592749 76:2.3312516 77:2.6657431 78:3.0738621 79:2.7265441 80:1.2742133 81:4.9348822 82:3.1233032 83:2.186434 84:1.3761675 85:0.43018359 86:0.10978806 87:0.80153966 88:1.6431204 89:1.7562164 90:1.838165 91:1.8394092 92:1.8905388 93:2.1489489 94:2.4696789 95:2.6360044 96:2.9916143 97:3.4132624 98:4.1748562 99:3.8186979 100:1.661425 101:6.2860765 102:4.5315881 103:3.2561994 104:1.9332641 105:0.56367487 106:0.15953086 107:0.99191016 108:1.5433506 109:2.038379 110:2.3894176 111:2.5378911 112:2.6814377 113:3.1150579 114:3.7214849 115:3.7870345 116:3.7850294 117:3.844979 118:4.5464892 119:3.5830328 120:1.2158325 121:5.2396536 122:3.6775124 123:2.7163579 124:1.7142464 125:0.32912585 126:0.18724357 127:0.98382133 128:1.8096374 129:2.6971967 130:3.3904417 131:3.728399 132:3.8204947 133:4.2291193 134:4.9723773 135:4.6079211 136:3.7315876 137:3.0337789 138:3.6535316 139:2.5016682 140:0.50649923 141:4.4960976 142:3.312119 143:2.8722942 144:2.0520747 145:1.1851703 146:1.2297609 147:1.9132315 148:2.7485414 149:4.0325732 150:5.0721426 151:5.2603154 152:4.9079962 153:5.0921364 154:5.3258233 155:3.9833601 156:2.3818936 157:1.2228278 158:1.8551074 159:1.2345812 160:-0.29399458 161:4.0125976 162:3.1100397 163:2.7248056 164:1.815432 165:1.3461952 166:1.5380012 167:2.3738837 168:3.7086763 169:5.5746021 170:6.8057933 171:6.7255702 172:6.2342062 173:6.5637069 174:6.9178591 175:5.1266122 176:2.797169 177:0.94606978 178:1.3239092 179:0.59871531 180:-0.79568452 181:3.8648934 182:3.0700865 183:2.69453 184:1.9804884 185:1.7548865 186:1.8377285 187:2.7323203 188:4.4430237 189:6.4486856 190:7.6301651 191:7.5871062 192:7.2212787 193:7.8696461 194:8.2113647 195:6.0271578 196:3.2714832 197:0.81591469 198:0.79063791 199:0.016923737 200:-1.0282816 
-0.01055975601718171 -0.005602227528413424 1:-0.7501176 2:-0.80305046 3:-0.78774899 4:-0.76477909 5:-0.70856875 6:-0.54860473 7:-0.29748404 8:0.30692807 9:1.9385778 10:2.2393973 11:1.8295791 12:1.6173929 13:1.3843814 14:1.1229166 15:0.8885147 16:0.77405411 17:0.72254997 18:-0.31566319 19:-1.8147655 20:-2.4743934 21:-0.7744869 22:-0.85588068 23:-0.83691525 24:-0.84584373 25:-0.77476084 26:-0.60572869 27:-0.34773076 28:0.64515847 29:2.7818165 30:2.1580806 31:1.7774072 32:1.5875696 33:1.4112719 34:1.1984267 35:0.97716773 36:0.83088505 37:0.66955012 38:0.02181711 39:-1.0254971 40:-1.7357639 41:-0.7578581 42:-0.71454859 43:-0.64101082 44:-0.58439422 45:-0.56297696 46:-0.41604468 47:-0.052503776 48:1.3592453 49:2.5924098 50:1.7629346 51:1.4487534 52:1.2355716 53:1.0755363 54:0.85423219 55:0.62400883 56:0.45767221 57:0.29997745 58:-0.046100922 59:-0.77029103 60:-1.4008523 61:-0.66869229 62:-0.56947094 63:-0.42156973 64:-0.30685765 65:-0.26670691 66:-0.14714596 67:0.38321617 68:2.3955195 69:1.8570342 70:1.4160361 71:1.1668271 72:0.95655376 73:0.73160267 74:0.47323111 75:0.14242281 76:-0.15480609 77:-0.3658711 78:-0.50624239 79:-1.0289385 80:-1.4304128 81:-0.13404876 82:0.064798757 83:0.3266902 84:0.60442132 85:0.49887326 86:0.10978806 87:0.10608597 88:0.75875515 89:0.85322887 90:0.80094492 91:0.70409173 92:0.57452238 93:0.44958752 94:0.34434187 95:0.12563068 96:-0.15322654 97:-0.28804654 98:-0.54310811 99:-1.0134581 100:-1.3505813 101:0.61035872 102:0.99309438 103:1.4160941 104:1.8331038 105:1.6180687 106:0.15953086 107:-0.66987962 108:-0.1565018 109:0.21039478 110:0.29359311 111:0.23705411 112:0.15474677 113:0.058833849 114:0.083688073 115:-0.047662947 116:-0.34358475 117:-0.35871124 118:-0.73461169 119:-1.2869943 120:-1.0700172 121:1.3930392 122:1.3014455 123:1.354486 124:1.3500385 125:0.084971271 126:-2.0311103 127:-1.8413579 128:-1.0399431 129:-0.37191334 130:-0.069831036 131:-0.013023224 132:-0.013574488 133:-0.067976646 134:-0.13608772 135:-0.46107844 136:-0.86191076 137:-0.80220586 138:-1.2142568 139:-1.4903177 140:-1.0674189 141:1.3865333 142:1.137195 143:0.99734086 144:0.43810725 145:-0.99695742 146:-2.1960642 147:-2.1314619 148:-1.5426549 149:-0.84647316 150:-0.41951209 151:-0.27440521 152:-0.21880637 153:-0.28787869 154:-0.4410547 155:-0.77017403 156:-1.3435423 157:-1.3198897 158:-1.4961277 159:-1.5133113 160:-0.99910355 161:0.6208604 162:0.29832765 163:-0.03987233 164:-0.45425877 165:-1.237506 166:-1.990196 167:-2.0220037 168:-1.3739251 169:-0.64059114 170:-0.35451323 171:-0.25278309 172:-0.22433779 173:-0.41300318 174:-0.5302009 175:-0.66821086 176:-1.0464256 177:-1.4529897 178:-1.5940171 179:-1.3478042 180:-0.70141667 181:0.021320343 182:-0.15957923 183:-0.35261697 184:-0.5168907 185:-0.98642552 186:-1.5678355 187:-1.7303921 188:-1.0842488 189:-0.4397991 190:-0.23544873 191:-0.20638634 192:-0.33583897 193:-0.58291602 194:-0.70723468 195:-0.40204909 196:-0.75832558 197:-1.357848 198:-1.3794585 199:-1.1020838 200:-0.57086557 
-0 -0.001230376999477591 1:-0.021324156 2:-0.7244854 3:-1.0370233 4:-1.5516862 5:-2.1132207 6:-2.1144855 7:-1.9437094 8:-1.7423652 9:-1.1841248 10:0.72032881 11:1.2277439 12:1.5505304 13:1.8031739 14:1.9391336 15:1.8542722 16:1.5949504 17:1.2380329 18:1.0893668 19:1.0796694 20:1.2063855 21:-0.35002509 22:-0.78123629 23:-0.99510705 24:-1.4260608 25:-1.8694946 26:-1.8745852 27:-1.6843975 28:-1.2936915 29:0.42880139 30:1.5343601 31:1.6268371 32:1.6669804 33:1.6462847 34:1.5233346 35:1.3274283 36:1.146154 37:1.0559031 38:1.0006838 39:1.0538635 40:1.1823909 41:-0.59214681 42:-0.9403221 43:-1.1619824 44:-1.6102891 45:-2.0729234 46:-2.1771927 47:-2.0348704 48:-1.2929244 49:1.3591455 50:1.7969224 51:1.8494368 52:1.7908393 53:1.6846921 54:1.4570994 55:1.1770309 56:1.1091998 57:1.184672 58:1.2297274 59:1.4056606 60:1.5353256 61:-0.36992028 62:-0.82296473 63:-1.076203 64:-1.5025172 65:-1.8156645 66:-2.1135378 67:-2.2929242 68:-0.67032975 69:1.3846426 70:1.6654189 71:1.7354207 72:1.6852988 73:1.5774237 74:1.3600699 75:1.0785599 76:1.0882227 77:1.394421 78:1.460848 79:1.7407298 80:1.9754126 81:-0.13404876 82:-0.69982731 83:-1.1166931 84:-1.371249 85:-0.94361001 86:-1.3177609 87:-1.362094 88:0.93562818 89:1.567219 90:1.7344431 91:1.7412953 92:1.6555359 93:1.4848307 94:1.1893554 95:0.72019291 96:0.76926011 97:1.1194935 98:0.94337386 99:1.0908679 100:1.4104245 101:-0.10969505 102:-0.91850567 103:-1.3440639 104:-1.2718661 105:0.067489557 106:-0.11894032 107:0.29949775 108:1.1013891 109:1.5282439 110:1.7082746 111:1.722634 112:1.619803 113:1.4607714 114:1.1872894 115:0.61924094 116:0.55094832 117:0.69221127 118:-0.086055435 119:-0.19372292 120:0.072907642 121:-0.3417083 122:-0.99797422 123:-1.1422794 124:-0.65310514 125:1.1429744 126:0.70485944 127:0.45709297 128:0.77342635 129:1.1002614 130:1.2450726 131:1.1671569 132:1.008844 133:0.99711549 134:1.1410285 135:1.382194 136:1.2997355 137:0.57481432 138:-0.47350639 139:-0.75495195 140:-0.3329238 141:-0.80041313 142:-1.3811382 143:-1.1816589 144:0.065653242 145:1.4882436 146:1.2297609 147:0.94419038 148:0.87339675 149:0.87745661 150:0.64651495 151:0.26888025 152:0.066016011 153:0.2012136 154:0.79007655 155:1.7826498 156:1.5540189 157:0.11729844 158:-1.0492964 159:-1.301935 160:-0.69691396 161:-1.5737929 162:-2.6338866 163:-2.502949 164:-1.1635371 165:-0.39039087 166:0.071222633 167:0.48442346 168:0.83247554 169:1.0249182 170:0.75021976 171:0.2746506 172:0.061800241 173:0.099990204 174:0.57594663 175:1.4925706 176:1.1499141 177:-0.082098573 178:-1.1451054 179:-1.1429074 180:-0.60714883 181:-1.6622282 182:-2.4063032 183:-1.9523691 184:-1.0877203 185:-1.0558258 186:-0.63578635 187:-0.090249933 188:0.32970461 189:0.51820207 190:0.38669023 191:0.0089035043 192:-0.11742517 193:-0.14382191 194:0.20749347 195:0.84540898 196:0.58494407 197:-0.56738889 198:-1.1907545 199:-1.0160064 200:-0.49462956 
