svm_type nu_svc
kernel_type polynomial
degree 1
gamma 1
coef0 0.5
nr_class 2
total_sv 29
rho 2.74521
label 1 2
probA -2.64635
probB 0.149947
nr_sv 16 13
SV
0.007747545559643186 1:-0.011474048 2:0.6522838 3:4.0659403 4:-0.37976017 5:-0.94530095 6:-1.0994764 7:-0.6758015 8:-0.92435346 9:0.0089826215 10:-0.92817538 11:0.31001626 12:-0.0044994743 13:-0.081820454 14:-1.8643816 15:0.59591353 16:-0.55147277 17:1.7868247 18:-0.21062865 19:-1.0684652 20:-0.75832457 21:-1.0941862 22:-1.2063156 23:1.7899499 24:-0.94438208 25:1.9743891 26:-0.48861286 27:-0.74376811 28:0.83184363 29:-0.54958989 30:-0.27281019 31:1.6187381 32:0.090947228 33:-0.065678711 34:-0.86255046 35:0.34420018 36:-1.0640536 37:-0.82882059 38:-1.2641397 39:-0.14570966 40:2.9631945 41:3.6778289 42:4.4604979 43:-0.9224017 44:0.04006687 45:-0.42024019 46:3.6919829 47:4.060186 48:0.62729258 49:-0.40587661 50:-0.32057878 51:-0.30406653 52:0.98748932 53:-0.32314132 54:-0.33283522 55:1.9957989 56:-0.29293458 57:-0.22120521 58:0.43391226 59:0.8671819 
0.05017188103334659 1:-0.66057504 2:1.572062 3:-0.39420471 4:-0.37976017 5:-0.94530095 6:-1.4530709 7:0.061436436 8:0.011022937 9:0.93693625 10:0.65300027 11:1.8610471 12:1.5990945 13:2.2889784 14:-1.8643816 15:1.0269742 16:-0.12214789 17:-0.89680076 18:1.329229 19:-1.0684652 20:-1.2934535 21:-1.0941862 22:-1.2063156 23:-0.82347965 24:-0.94438208 25:-0.23911283 26:-0.48861286 27:-0.74376811 28:0.83184363 29:1.3764065 30:-0.27281019 31:-0.5243461 32:0.81608321 33:-1.0410083 34:-1.1702711 35:-1.1391487 36:-1.0640536 37:0.24377079 38:-0.39327979 39:0.9886488 40:0.70733095 41:2.3255353 42:-0.40997225 43:0.22564777 44:-0.88121203 45:-0.42024019 46:1.6974055 47:4.060186 48:-0.40558835 49:-0.40587661 50:-0.32057878 51:-0.30406653 52:-0.48445208 53:-0.32314132 54:-0.33283522 55:1.9957989 56:-0.29293458 57:-0.22120521 58:0.43391226 59:-0.11737142 
0.02266668969307506 1:0.96217744 2:2.0319511 3:0.34915279 4:-1.0541325 5:-0.94530095 6:-1.0994764 7:0.4300554 8:-0.92435346 9:0.0089826215 10:-0.73052843 11:1.4380387 12:-0.0044994743 13:-0.87208675 14:-1.550614 15:1.0988176 16:-1.4101225 17:-0.22589439 18:-0.98055749 19:-1.0684652 20:-1.025889 21:-1.0941862 22:-1.2063156 23:-0.82347965 24:-0.94438208 25:1.2365551 26:-0.48861286 27:-0.74376811 28:2.3246385 29:-0.54958989 30:2.7561482 31:-0.5243461 32:-0.63418876 33:-1.2848407 34:-0.86255046 35:-0.15024945 36:-0.29185098 37:0.24377079 38:-1.6995697 39:-0.82632473 40:2.9631945 41:0.97324162 42:2.0252628 43:-0.34837696 44:-0.57411906 45:0.24453384 46:1.6974055 47:4.060186 48:-0.40558835 49:0.089176231 50:-0.32057878 51:-0.30406653 52:0.98748932 53:2.3994961 54:-0.33283522 55:1.9957989 56:-0.29293458 57:-0.22120521 58:0.43391226 59:1.7286661 
0.02715079787394739 1:1.6112784 2:0.1923947 3:2.5792253 4:-0.37976017 5:-0.29914588 6:-0.038692945 7:-0.30718253 8:0.011022937 9:0.47295944 10:-0.73052843 11:0.31001626 12:-1.0735621 13:0.70844584 14:-1.550614 15:0.95513074 16:-1.624785 17:-0.89680076 18:-0.98055749 19:-0.33090761 20:-1.2934535 21:-0.43182026 22:-0.81909512 23:0.91880673 24:-0.94438208 25:1.2365551 26:-0.48861286 27:1.0503365 28:-0.66095129 29:1.3764065 30:-0.27281019 31:-0.5243461 32:0.090947228 33:-0.79717591 34:-0.24710909 35:-0.15024945 36:-1.0640536 37:0.24377079 38:-0.39327979 39:0.081162035 40:4.0911263 41:3.6778289 42:2.0252628 43:-0.9224017 44:-0.72766555 45:0.90930787 46:-0.29717188 47:-0.21596734 48:-0.92202881 49:0.58422907 50:2.1365025 51:-0.30406653 52:0.98748932 53:2.3994961 54:-0.33283522 55:4.3479905 56:-0.29293458 57:-0.22120521 58:0.43391226 59:0.62104357 
0.007914778511430885 1:1.2867279 2:-0.72738349 3:0.34915279 4:-0.37976017 5:0.34700919 6:-1.8066654 7:-0.30718253 8:-0.92435346 9:0.0089826215 10:-0.53288147 11:0.73302466 12:-0.5390308 13:-0.081820454 14:-1.8643816 15:0.66775697 16:-0.12214789 17:1.1159183 18:-0.21062865 19:-1.0684652 20:-1.025889 21:-1.0941862 22:-1.2063156 23:0.047663542 24:-0.94438208 25:0.49872115 26:-0.48861286 27:1.0503365 28:0.83184363 29:-0.54958989 30:0.48442942 31:0.1900153 32:-0.27162076 33:0.66581849 34:-0.86255046 35:-0.64469909 36:-1.0640536 37:0.24377079 38:-0.82870976 39:0.76177711 40:2.9631945 41:2.3255353 42:-0.40997225 43:-0.9224017 44:-0.57411906 45:-0.42024019 46:1.6974055 47:-0.21596734 48:-0.40558835 49:0.58422907 50:-0.32057878 51:2.8926684 52:0.98748932 53:-0.32314132 54:-0.33283522 55:1.9957989 56:3.0857673 57:-0.22120521 58:0.43391226 59:1.1133202 
0.1319641328207736 1:-1.6342265 2:-1.1872726 3:-0.39420471 4:5.0152182 5:-0.94530095 6:-1.8066654 7:0.79867437 8:-0.92435346 9:-2.7748783 10:0.060059397 11:1.0150303 12:-1.0735621 13:-0.081820454 14:1.2732941 15:4.3317725 16:-2.2687723 17:-0.22589439 18:2.8690867 19:1.8817653 20:-1.2934535 21:-1.4253692 22:-1.2063156 23:-0.82347965 24:-0.94438208 25:-0.97694682 26:-0.48861286 27:-0.74376811 28:-0.66095129 29:-0.54958989 30:-1.0300498 31:0.1900153 32:2.2663552 33:-1.2848407 34:-1.4779918 35:-1.1391487 36:-1.0640536 37:-0.82882059 38:0.042150179 39:0.30803373 40:-0.42060083 41:-0.379052 42:-0.40997225 43:-0.9224017 44:0.34715984 45:-0.42024019 46:-0.29717188 47:-0.21596734 48:-0.92202881 49:-1.3959823 50:-0.32057878 51:-0.30406653 52:-0.48445208 53:-0.32314132 54:-0.33283522 55:-0.35639268 56:-0.29293458 57:-0.22120521 58:-0.95741782 59:-2.2095472 
0.03632800854489251 1:0.31307645 2:1.572062 3:-0.39420471 4:-0.37976017 5:-0.94530095 6:-1.0994764 7:-1.4130394 8:2.8171521 9:0.47295944 10:-0.73052843 11:1.8610471 12:0.53003185 13:-0.081820454 14:-1.2368465 15:1.0269742 16:-0.12214789 17:1.7868247 18:0.55930019 19:0.40665002 20:-1.2934535 21:-0.43182026 22:-1.2063156 23:-0.82347965 24:-0.94438208 25:0.49872115 26:2.4579458 27:-0.74376811 28:-0.66095129 29:-0.54958989 30:-0.27281019 31:-0.5243461 32:-1.3593247 33:-1.2848407 34:-1.4779918 35:-1.1391487 36:-1.0640536 37:-0.82882059 38:-2.5704296 39:-1.0531964 40:0.70733095 41:3.6778289 42:-0.40997225 43:-0.9224017 44:-0.2670261 45:-1.0850142 46:3.6919829 47:4.060186 48:-0.92202881 49:0.089176231 50:-0.32057878 51:-0.30406653 52:2.4594307 53:-0.32314132 54:-0.33283522 55:1.9957989 56:-0.29293458 57:3.7010603 58:1.1295773 59:1.6055969 
0.07869544727699494 1:-0.98512554 2:1.1121729 3:-1.1375622 4:0.29461213 5:-0.94530095 6:-0.74588194 7:-1.0444205 8:0.011022937 9:-0.45499419 10:-0.53288147 11:0.16901346 12:3.2026885 13:-0.081820454 14:-0.60931131 15:0.59591353 16:-1.4101225 17:-0.89680076 18:-0.21062865 19:1.8817653 20:-1.2934535 21:-0.43182026 22:-0.81909512 23:-0.82347965 24:1.077106 25:1.2365551 26:4.6678648 27:-0.74376811 28:-0.66095129 29:-0.54958989 30:-0.27281019 31:1.6187381 32:-0.99675675 33:-0.065678711 34:-1.1702711 35:-0.64469909 36:-1.0640536 37:1.3163622 38:-1.6995697 39:-1.0531964 40:1.8352627 41:-0.379052 42:-0.40997225 43:0.7996725 44:2.0361712 45:0.24453384 46:-0.29717188 47:-0.21596734 48:-0.92202881 49:3.0594933 50:2.1365025 51:-0.30406653 52:-0.48445208 53:-0.32314132 54:-0.33283522 55:-0.35639268 56:3.0857673 57:-0.22120521 58:1.1295773 59:-0.11737142 
0.01173712648276124 1:-0.98512554 2:0.1923947 3:-0.39420471 4:-0.37976017 5:-0.94530095 6:-1.0994764 7:0.79867437 8:0.011022937 9:-0.45499419 10:1.0482942 11:2.2840555 12:-0.5390308 13:3.0792447 14:-0.60931131 15:1.5298783 16:-0.76613521 17:-0.89680076 18:3.6390155 19:2.6193229 20:-1.2934535 21:-1.4253692 22:-1.2063156 23:0.047663542 24:-0.94438208 25:0.49872115 26:0.24802681 27:-0.74376811 28:-0.66095129 29:1.3764065 30:-1.0300498 31:1.6187381 32:1.1786512 33:-0.30951111 34:-1.4779918 35:-1.1391487 36:-1.0640536 37:1.3163622 38:0.042150179 39:-0.37258135 40:-0.42060083 41:0.97324162 42:-0.40997225 43:-0.34837696 44:-0.72766555 45:1.5740819 46:-0.29717188 47:-0.21596734 48:-0.92202881 49:-1.3959823 50:-0.32057878 51:-0.30406653 52:-0.48445208 53:-0.32314132 54:-0.33283522 55:-0.35639268 56:-0.29293458 57:3.7010603 58:0.43391226 59:-1.5942014 
0.01397372163297302 1:-0.98512554 2:-0.72738349 3:-1.1375622 4:2.9921013 5:-0.94530095 6:-0.74588194 7:-0.30718253 8:0.94639934 9:-0.45499419 10:-0.53288147 11:0.87402747 12:0.53003185 13:3.0792447 14:-1.8643816 15:0.59591353 16:-1.4101225 17:-0.22589439 18:0.55930019 19:-0.33090761 20:-1.2934535 21:-1.4253692 22:-1.2063156 23:-0.82347965 24:0.066361959 25:1.2365551 26:0.24802681 27:-0.74376811 28:0.83184363 29:1.3764065 30:0.48442942 31:1.6187381 32:1.5412192 33:-0.55334351 34:-0.86255046 35:-1.1391487 36:-1.0640536 37:0.24377079 38:0.042150179 39:0.30803373 40:-0.42060083 41:0.97324162 42:2.0252628 43:1.3736972 44:3.264543 45:-1.0850142 46:-0.29717188 47:-0.21596734 48:-0.40558835 49:0.58422907 50:-0.32057878 51:-0.30406653 52:0.98748932 53:-0.32314132 54:-0.33283522 55:1.9957989 56:-0.29293458 57:-0.22120521 58:0.43391226 59:-1.3480631 
0.03167980989585652 1:-0.98512554 2:1.1121729 3:-1.1375622 4:0.29461213 5:-0.94530095 6:-1.8066654 7:0.79867437 8:0.011022937 9:0.0089826215 10:0.060059397 11:0.028010661 12:3.2026885 13:-0.87208675 14:-1.550614 15:1.0269742 16:-0.76613521 17:-0.89680076 18:-0.21062865 19:-1.0684652 20:-1.2934535 21:-1.4253692 22:-0.81909512 23:0.047663542 24:0.066361959 25:-0.97694682 26:-0.48861286 27:0.1532842 28:0.83184363 29:-0.54958989 30:-1.0300498 31:0.1900153 32:1.1786512 33:-0.065678711 34:-0.24710909 35:-1.1391487 36:-1.0640536 37:-0.82882059 38:2.65473 39:1.6692639 40:-0.42060083 41:-0.379052 42:2.0252628 43:1.947722 44:-0.11347961 45:1.5740819 46:-0.29717188 47:-0.21596734 48:-0.40558835 49:0.089176231 50:-0.32057878 51:2.8926684 52:-0.48445208 53:-0.32314132 54:-0.33283522 55:-0.35639268 56:-0.29293458 57:-0.22120521 58:0.43391226 59:-0.36350976 
0.02192530782017395 1:-0.98512554 2:2.0319511 3:-1.1375622 4:-1.0541325 5:-0.94530095 6:-1.8066654 7:0.79867437 8:0.011022937 9:0.0089826215 10:0.060059397 11:0.028010661 12:3.2026885 13:-0.87208675 14:-1.550614 15:1.0269742 16:-0.55147277 17:-0.89680076 18:-0.21062865 19:-1.0684652 20:-1.2934535 21:-1.4253692 22:-1.2063156 23:-0.82347965 24:-0.94438208 25:-0.23911283 26:-0.48861286 27:0.1532842 28:0.83184363 29:-0.54958989 30:-1.0300498 31:-0.5243461 32:1.1786512 33:0.66581849 34:-0.24710909 35:-1.1391487 36:-1.0640536 37:-0.82882059 38:3.09016 39:0.53490542 40:-0.42060083 41:-0.379052 42:2.0252628 43:1.947722 44:-0.2670261 45:2.2388559 46:-0.29717188 47:-0.21596734 48:0.62729258 49:0.089176231 50:-0.32057878 51:2.8926684 52:-0.48445208 53:-0.32314132 54:-0.33283522 55:-0.35639268 56:-0.29293458 57:-0.22120521 58:0.43391226 59:-0.24044059 
0.08807683957689798 1:-0.98512554 2:-0.26749439 3:-1.1375622 4:1.6433567 5:-0.94530095 6:-1.4530709 7:-0.30718253 8:0.011022937 9:-0.45499419 10:-0.33523451 11:1.0150303 12:1.0645632 13:3.0792447 14:-1.550614 15:1.0269742 16:-1.1954601 17:-0.89680076 18:-0.21062865 19:1.1442077 20:-1.2934535 21:-1.4253692 22:-1.2063156 23:-0.82347965 24:-0.94438208 25:1.2365551 26:0.24802681 27:-0.74376811 28:-0.66095129 29:-0.54958989 30:-0.27281019 31:3.0474609 32:-0.27162076 33:-0.79717591 34:-0.55482978 35:-1.1391487 36:-1.0640536 37:-0.82882059 38:0.91301012 39:-0.82632473 40:0.70733095 41:-0.379052 42:-0.40997225 43:3.6697962 44:1.2684387 45:0.90930787 46:-0.29717188 47:-0.21596734 48:1.6601735 49:0.58422907 50:-0.32057878 51:2.8926684 52:0.98748932 53:-0.32314132 54:-0.33283522 55:-0.35639268 56:-0.29293458 57:3.7010603 58:0.43391226 59:-0.60964809 
0.03706473407627992 1:-0.33602454 2:-0.72738349 3:-0.39420471 4:0.29461213 5:0.34700919 6:-1.0994764 7:1.5359123 8:-0.92435346 9:0.93693625 10:0.25770635 11:1.1560331 12:-1.0735621 13:-0.081820454 14:-1.550614 15:1.0988176 16:-0.12214789 17:-0.22589439 18:3.6390155 19:1.1442077 20:-1.2934535 21:-1.4253692 22:-1.2063156 23:1.7899499 24:-0.94438208 25:-0.23911283 26:-0.48861286 27:-0.74376811 28:0.83184363 29:1.3764065 30:-0.27281019 31:1.6187381 32:1.5412192 33:-0.30951111 34:-0.86255046 35:-1.1391487 36:-1.0640536 37:-0.82882059 38:1.3484401 39:0.081162035 40:-0.42060083 41:0.97324162 42:-0.40997225 43:-0.9224017 44:-0.72766555 45:0.90930787 46:1.6974055 47:-0.21596734 48:0.11085212 49:-0.40587661 50:-0.32057878 51:-0.30406653 52:-0.48445208 53:-0.32314132 54:-0.33283522 55:-0.35639268 56:-0.29293458 57:3.7010603 58:1.1295773 59:-0.97885559 
0.01830175607063763 1:-1.309676 2:1.572062 3:-0.39420471 4:-1.0541325 5:-0.94530095 6:-0.39228744 7:0.4300554 8:1.8817757 9:0.47295944 10:0.45535331 11:0.45101906 12:-0.0044994743 13:3.0792447 14:-1.550614 15:1.2425045 16:-0.98079765 17:-0.89680076 18:3.6390155 19:-1.0684652 20:-1.2934535 21:-1.4253692 22:-1.2063156 23:1.7899499 24:-0.94438208 25:-0.97694682 26:-0.48861286 27:0.1532842 28:2.3246385 29:-0.54958989 30:-0.27281019 31:-1.2387075 32:1.9037872 33:0.90965089 34:-1.4779918 35:-1.1391487 36:-1.0640536 37:-0.82882059 38:0.042150179 39:2.1230073 40:0.70733095 41:0.97324162 42:2.0252628 43:-0.9224017 44:-0.88121203 45:0.24453384 46:-0.29717188 47:-0.21596734 48:-0.92202881 49:-0.90092945 50:-0.32057878 51:2.8926684 52:0.98748932 53:2.3994961 54:-0.33283522 55:-0.35639268 56:3.0857673 57:-0.22120521 58:0.43391226 59:-0.85578642 
0.07125033845848634 1:-0.98512554 2:-0.72738349 3:-1.1375622 4:2.9921013 5:-0.94530095 6:-1.4530709 7:0.4300554 8:-0.92435346 9:0.0089826215 10:0.85064722 11:0.31001626 12:-0.5390308 13:-0.87208675 14:0.018223832 15:2.0327824 16:-1.1954601 17:-0.89680076 18:1.329229 19:1.8817653 20:-1.2934535 21:-1.4253692 22:-1.2063156 23:-0.82347965 24:0.066361959 25:-0.97694682 26:-0.48861286 27:-0.74376811 28:-0.66095129 29:-0.54958989 30:-1.0300498 31:-1.2387075 32:3.3540592 33:0.42198609 34:-1.1702711 35:-1.1391487 36:-0.67795227 37:-0.82882059 38:3.5255899 39:2.3498789 40:-0.42060083 41:-0.379052 42:-0.40997225 43:-0.9224017 44:-0.42057258 45:2.2388559 46:-0.29717188 47:-0.21596734 48:-0.92202881 49:-1.3959823 50:-0.32057878 51:-0.30406653 52:-0.48445208 53:-0.32314132 54:-0.33283522 55:-0.35639268 56:-0.29293458 57:-0.22120521 58:-0.95741782 59:-1.8403397 
-0.005570673473243691 1:1.9358289 2:3.8715075 3:0.34915279 4:-0.37976017 5:-0.94530095 6:-1.8066654 7:-2.5188963 8:0.94639934 9:-1.8469246 10:-2.706998 11:-0.67700334 12:2.1336258 13:0.70844584 14:-1.8643816 15:-1.1283291 16:-1.4101225 17:0.44501198 18:0.55930019 19:0.40665002 20:-1.2934535 21:0.23054571 22:-1.2063156 23:2.6610931 24:2.08785 25:-0.23911283 26:3.1945855 27:1.9473888 28:2.3246385 29:1.3764065 30:-0.27281019 31:-1.2387075 32:-1.3593247 33:-1.0410083 34:0.36833228 35:-0.64469909 36:0.48035159 37:0.24377079 38:-0.82870976 39:-1.0531964 40:1.8352627 41:3.6778289 42:2.0252628 43:0.22564777 44:1.5755317 45:-0.42024019 46:-0.29717188 47:-0.21596734 48:1.143733 49:0.58422907 50:-0.32057878 51:2.8926684 52:-0.48445208 53:-0.32314132 54:1.7930156 55:-0.35639268 56:-0.29293458 57:-0.22120521 58:0.43391226 59:3.8208419 
-0.05529015530523147 1:-0.33602454 2:5.2511748 3:-0.39420471 4:0.96898442 5:2.9316295 6:-0.39228744 7:-0.30718253 8:1.8817757 9:-2.3109014 10:-1.7187632 11:-0.11299214 12:2.1336258 13:-0.081820454 14:-0.29554374 15:-0.84095529 16:-2.4834347 17:-0.89680076 18:-0.98055749 19:1.1442077 20:-1.025889 21:-0.43182026 22:-0.43187468 23:-0.82347965 24:-0.94438208 25:1.2365551 26:9.0877029 27:1.0503365 28:-0.66095129 29:-0.54958989 30:-0.27281019 31:-1.2387075 32:-0.99675675 33:0.17815369 34:0.060611592 35:-0.15024945 36:-0.29185098 37:-0.82882059 38:-2.1349997 39:-1.0531964 40:0.70733095 41:3.6778289 42:2.0252628 43:-0.9224017 44:-0.42057258 45:-1.0850142 46:1.6974055 47:8.3363393 48:0.62729258 49:-0.40587661 50:-0.32057878 51:2.8926684 52:-0.48445208 53:-0.32314132 54:1.7930156 55:-0.35639268 56:-0.29293458 57:-0.22120521 58:1.1295773 59:3.0824269 
-0.01601895644380135 1:2.9094804 2:0.6522838 3:-0.39420471 4:0.29461213 5:-0.94530095 6:0.66849605 7:0.4300554 8:0.011022937 9:-0.91897101 10:-0.73052843 11:-1.2410145 12:-0.5390308 13:-0.87208675 14:0.3319914 15:-0.48173808 16:-0.98079765 17:-0.89680076 18:-0.98055749 19:-0.33090761 20:0.57949779 21:-0.10063727 22:-0.044654248 23:-0.82347965 24:1.077106 25:-0.23911283 26:-0.48861286 27:-0.74376811 28:0.83184363 29:3.3024029 30:-0.27281019 31:-0.5243461 32:-0.27162076 33:1.6411481 34:0.36833228 35:0.34420018 36:-0.67795227 37:0.24377079 38:-0.39327979 39:0.9886488 40:-0.42060083 41:0.97324162 42:-0.40997225 43:0.22564777 44:-0.72766555 45:-0.42024019 46:1.6974055 47:-0.21596734 48:-0.92202881 49:-1.3959823 50:-0.32057878 51:-0.30406653 52:-0.48445208 53:-0.32314132 54:-0.33283522 55:-0.35639268 56:3.0857673 57:-0.22120521 58:1.1295773 59:1.7286661 
-0.02999056857716034 1:0.96217744 2:0.6522838 3:0.34915279 4:0.29461213 5:1.6393193 6:1.0220906 7:-0.6758015 8:-0.92435346 9:-1.3829478 10:-0.73052843 11:-1.2410145 12:-0.0044994743 13:-0.87208675 14:0.95952654 15:-0.62542497 16:-1.1954601 17:-0.22589439 18:-0.21062865 19:-0.33090761 20:0.044368849 21:0.5617287 22:-0.43187468 23:0.91880673 24:0.066361959 25:-0.23911283 26:-0.48861286 27:0.1532842 28:-0.66095129 29:1.3764065 30:0.48442942 31:0.1900153 32:0.090947228 33:1.1534833 34:0.36833228 35:-1.1391487 36:0.094250306 37:2.3889536 38:-0.82870976 39:0.30803373 40:0.70733095 41:0.97324162 42:2.0252628 43:-0.34837696 44:-0.88121203 45:0.90930787 46:-0.29717188 47:-0.21596734 48:-0.40558835 49:-1.3959823 50:-0.32057878 51:6.0894033 52:0.98748932 53:-0.32314132 54:-0.33283522 55:1.9957989 56:-0.29293458 57:-0.22120521 58:1.1295773 59:1.8517352 
-0.0190198166027638 1:-0.33602454 2:-0.72738349 3:-1.1375622 4:0.96898442 5:-0.29914588 6:-0.39228744 7:0.061436436 8:0.94639934 9:-1.3829478 10:-0.33523451 11:-0.25399494 12:-0.5390308 13:-0.081820454 14:0.018223832 15:0.38038321 16:0.52183942 17:-0.89680076 18:0.55930019 19:1.1442077 20:-0.22319562 21:-0.43182026 22:-0.81909512 23:0.047663542 24:-0.94438208 25:0.49872115 26:0.24802681 27:-0.74376811 28:2.3246385 29:-0.54958989 30:1.241669 31:2.3330995 32:0.090947228 33:-0.79717591 34:0.67605296 35:-0.15024945 36:1.6386555 37:-0.82882059 38:-0.82870976 39:1.4423922 40:-0.42060083 41:-0.379052 42:2.0252628 43:-0.9224017 44:-0.88121203 45:-1.0850142 46:-0.29717188 47:-0.21596734 48:-0.40558835 49:-1.3959823 50:-0.32057878 51:-0.30406653 52:-0.48445208 53:-0.32314132 54:-0.33283522 55:1.9957989 56:-0.29293458 57:-0.22120521 58:3.9122375 59:0.12876691 
-0.05635125977327683 1:0.96217744 2:-0.72738349 3:-0.39420471 4:-0.37976017 5:-0.94530095 6:-1.0994764 7:0.79867437 8:0.011022937 9:0.0089826215 10:-0.53288147 11:-1.1000117 12:-0.0044994743 13:-0.081820454 14:0.95952654 15:-0.98464217 16:-1.8394474 17:-0.22589439 18:2.0991579 19:1.1442077 20:0.57949779 21:-0.43182026 22:0.34256619 23:0.91880673 24:1.077106 25:0.49872115 26:0.24802681 27:1.0503365 28:0.83184363 29:1.3764065 30:-0.27281019 31:-0.5243461 32:-0.27162076 33:-0.30951111 34:0.36833228 35:-0.15024945 36:1.2525542 37:1.3163622 38:2.2193 39:-0.37258135 40:-0.42060083 41:-0.379052 42:2.0252628 43:-0.34837696 44:-0.57411906 45:2.90363 46:-0.29717188 47:-0.21596734 48:0.11085212 49:0.089176231 50:4.5935837 51:-0.30406653 52:2.4594307 53:2.3994961 54:-0.33283522 55:-0.35639268 56:3.0857673 57:3.7010603 58:-0.95741782 59:1.2363894 
-0.02137757794742293 1:-0.66057504 2:-0.72738349 3:-0.39420471 4:0.96898442 5:-0.94530095 6:-1.0994764 7:-0.6758015 8:1.8817757 9:0.47295944 10:-0.53288147 11:0.45101906 12:-1.0735621 13:0.70844584 14:-0.60931131 15:-0.3380512 16:-1.4101225 17:-0.89680076 18:1.329229 19:0.40665002 20:-0.49076009 21:-0.10063727 22:0.34256619 23:-0.82347965 24:0.066361959 25:0.49872115 26:0.24802681 27:1.0503365 28:2.3246385 29:1.3764065 30:1.241669 31:0.9043767 32:-0.27162076 33:0.90965089 34:-1.1702711 35:-0.64469909 36:-0.67795227 37:-0.82882059 38:0.042150179 39:-0.82632473 40:-0.42060083 41:-0.379052 42:-0.40997225 43:2.5217467 44:2.6503571 45:-1.0850142 46:-0.29717188 47:-0.21596734 48:0.62729258 49:0.58422907 50:-0.32057878 51:2.8926684 52:-0.48445208 53:-0.32314132 54:-0.33283522 55:1.9957989 56:-0.29293458 57:-0.22120521 58:0.43391226 59:-0.11737142 
-0.01747555576007456 1:-0.33602454 2:1.572062 3:-0.39420471 4:0.29461213 5:-0.94530095 6:-1.4530709 7:-1.7816584 8:0.94639934 9:-0.45499419 10:1.0482942 11:2.0020499 12:1.0645632 13:0.70844584 14:-0.92307888 15:0.16485289 16:-0.55147277 17:-0.89680076 18:-0.98055749 19:-1.0684652 20:-1.025889 21:0.5617287 22:-0.43187468 23:0.047663542 24:-0.94438208 25:1.2365551 26:-0.48861286 27:0.1532842 28:0.83184363 29:1.3764065 30:-0.27281019 31:-0.5243461 32:-1.3593247 33:-0.55334351 34:-1.4779918 35:-0.64469909 36:-0.67795227 37:-0.82882059 38:0.47758015 39:-0.59945304 40:-0.42060083 41:0.97324162 42:-0.40997225 43:1.3736972 44:-0.11347961 45:2.2388559 46:-0.29717188 47:-0.21596734 48:1.6601735 49:1.0792819 50:-0.32057878 51:-0.30406653 52:0.98748932 53:-0.32314132 54:-0.33283522 55:-0.35639268 56:-0.29293458 57:-0.22120521 58:-0.26175278 59:0.25183607 
-0.02570158492450961 1:-0.98512554 2:0.1923947 3:-1.1375622 4:3.6664736 5:-0.94530095 6:-1.4530709 7:-2.1502774 8:0.011022937 9:-0.91897101 10:0.060059397 11:1.1560331 12:2.6681571 13:0.70844584 14:-1.550614 15:1.0988176 16:0.52183942 17:-0.89680076 18:-0.98055749 19:-0.33090761 20:-1.2934535 21:-1.4253692 22:-1.2063156 23:-0.82347965 24:-0.94438208 25:1.2365551 26:0.24802681 27:-0.74376811 28:0.83184363 29:-0.54958989 30:0.48442942 31:0.1900153 32:0.45351522 33:-1.2848407 34:-1.4779918 35:-1.1391487 36:-1.0640536 37:-0.82882059 38:-0.82870976 39:-0.59945304 40:1.8352627 41:-0.379052 42:-0.40997225 43:2.5217467 44:2.0361712 45:-1.0850142 46:-0.29717188 47:-0.21596734 48:0.62729258 49:0.58422907 50:-0.32057878 51:-0.30406653 52:0.98748932 53:-0.32314132 54:-0.33283522 55:-0.35639268 56:-0.29293458 57:3.7010603 58:0.43391226 59:-0.24044059 
-0.04921158728670814 1:-0.33602454 2:-0.26749439 3:-1.1375622 4:2.317729 5:-0.94530095 6:-1.8066654 7:-0.6758015 8:0.94639934 9:-0.91897101 10:-0.13758756 11:0.45101906 12:-0.0044994743 13:-0.081820454 14:-1.2368465 15:0.8832873 16:0.52183942 17:-0.22589439 18:0.55930019 19:-1.0684652 20:-1.2934535 21:-1.4253692 22:-1.2063156 23:-0.82347965 24:-0.94438208 25:0.49872115 26:-0.48861286 27:-0.74376811 28:-0.66095129 29:-0.54958989 30:-0.27281019 31:1.6187381 32:2.6289232 33:-1.2848407 34:-1.1702711 35:-1.1391487 36:-1.0640536 37:-0.82882059 38:-0.39327979 39:-0.82632473 40:7.4749216 41:-0.379052 42:-0.40997225 43:3.0957714 44:1.7290782 45:-1.0850142 46:-0.29717188 47:-0.21596734 48:0.11085212 49:0.58422907 50:-0.32057878 51:-0.30406653 52:-0.48445208 53:-0.32314132 54:-0.33283522 55:-0.35639268 56:-0.29293458 57:7.6233257 58:0.43391226 59:-0.11737142 
-0.03449597517430728 1:-1.6342265 2:0.1923947 3:-0.39420471 4:2.317729 5:-0.94530095 6:-0.74588194 7:-1.4130394 8:-0.92435346 9:-2.3109014 10:1.2459411 11:0.028010661 12:-0.5390308 13:2.2889784 14:1.2732941 15:3.7570249 16:-0.55147277 17:-0.89680076 18:2.8690867 19:1.1442077 20:-1.025889 21:-1.4253692 22:-1.2063156 23:-0.82347965 24:-0.94438208 25:-0.23911283 26:0.24802681 27:-0.74376811 28:-0.66095129 29:-0.54958989 30:-1.0300498 31:1.6187381 32:-0.99675675 33:-1.2848407 34:-1.4779918 35:-1.1391487 36:-1.0640536 37:-0.82882059 38:-0.39327979 39:-1.0531964 40:-0.42060083 41:-0.379052 42:-0.40997225 43:0.22564777 44:0.96134577 45:0.24453384 46:-0.29717188 47:-0.21596734 48:-0.92202881 49:0.089176231 50:-0.32057878 51:-0.30406653 52:-0.48445208 53:-0.32314132 54:-0.33283522 55:-0.35639268 56:-0.29293458 57:-0.22120521 58:-0.95741782 59:-1.8403397 
-0.1703401157353412 1:-1.6342265 2:-0.26749439 3:-0.39420471 4:0.29461213 5:-0.94530095 6:-1.4530709 7:0.79867437 8:-0.92435346 9:0.93693625 10:1.0482942 11:1.7200443 12:1.0645632 13:1.4987121 14:-1.550614 15:3.0385905 16:-0.55147277 17:-0.89680076 18:0.55930019 19:0.40665002 20:-1.2934535 21:-1.4253692 22:-1.2063156 23:-0.82347965 24:-0.94438208 25:-0.23911283 26:-0.48861286 27:-0.74376811 28:-0.66095129 29:-0.54958989 30:-1.0300498 31:-1.2387075 32:2.2663552 33:-1.2848407 34:-1.4779918 35:-1.1391487 36:-1.0640536 37:-0.82882059 38:0.47758015 39:1.2155205 40:-0.42060083 41:-0.379052 42:-0.40997225 43:-0.34837696 44:-0.57411906 45:-1.0850142 46:-0.29717188 47:-0.21596734 48:-0.92202881 49:-0.40587661 50:-0.32057878 51:-0.30406653 52:-0.48445208 53:-0.32314132 54:-0.33283522 55:-0.35639268 56:-0.29293458 57:-0.22120521 58:-0.95741782 59:-1.5942014 
-0.1558050883243295 1:-1.958777 2:-1.1872726 3:0.34915279 4:2.9921013 5:-0.94530095 6:-1.4530709 7:-0.30718253 8:-0.92435346 9:0.0089826215 10:0.85064722 11:1.1560331 12:-1.0735621 13:0.70844584 14:-0.60931131 15:2.3919996 16:0.30717699 17:0.44501198 18:2.0991579 19:1.1442077 20:-1.2934535 21:-1.4253692 22:-1.2063156 23:-0.82347965 24:-0.94438208 25:-0.97694682 26:-0.48861286 27:-0.74376811 28:-0.66095129 29:-0.54958989 30:-1.0300498 31:2.3330995 32:1.1786512 33:-1.2848407 34:-1.4779918 35:-1.1391487 36:-1.0640536 37:-0.82882059 38:0.91301012 39:-0.14570966 40:-0.42060083 41:-0.379052 42:-0.40997225 43:0.22564777 44:1.4219852 45:0.90930787 46:-0.29717188 47:-0.21596734 48:-0.92202881 49:-0.40587661 50:-0.32057878 51:-0.30406653 52:-0.48445208 53:-0.32314132 54:-0.33283522 55:-0.35639268 56:-0.29293458 57:-0.22120521 58:-0.95741782 59:-1.9634089 
